
\data\
ngram 1=13040
ngram 2=48892
ngram 3=70521

\1-grams:
-1.342124	</s>
-99	<s>	-0.626821
-1.790801	A	-0.517879
-4.582476	A-BETA	-0.082962
-4.422795	ABAJO	-0.082962
-4.582476	ABANDONA	-0.082962
-4.582476	ABANDONADAS	-0.082962
-4.582476	ABANDONADO	-0.082962
-4.582476	ABANDONAN	-0.082962
-4.422795	ABANDONAR	-0.082962
-4.582476	ABANDONO	-0.082962
-4.582476	ABANICO	-0.082962
-4.582476	ABARATAMIENTO	-0.082962
-4.422795	ABARCA
-4.582476	ABASTECIMIENTO	-0.082962
-4.422795	ABBIE	-0.161584
-4.422795	ABC	-0.082962
-4.422795	ABCD	-0.082962
-4.164792	ABDOMEN	-0.082962
-4.051320	ABDOMINAL	-0.082962
-4.422795	ABDOMINALES	-0.082962
-4.582476	ABDOMINOPELVICA	-0.082962
-4.582476	ABEJA	-0.082962
-4.582476	ABERRANTE	-0.082962
-4.164792	ABERTURA	-0.082962
-3.961438	ABIERTA	-0.082962
-4.422795	ABIERTAS	-0.082962
-4.318820	ABIERTO	-0.082962
-4.582476	ABLACIÓN	-0.082962
-4.582476	ABOLICIÓN	-0.082962
-4.582476	ABOLIDOS	-0.082962
-4.582476	ABORDA	-0.082962
-4.318820	ABORDAJE	-0.082962
-4.582476	ABORDAJES	-0.082962
-4.318820	ABORDAR	-0.161584
-4.582476	ABORTO	-0.082962
-4.422795	ABORTOS	-0.140554
-4.582476	ABOUTALIB	-0.082962
-4.582476	ABRA	-0.082962
-4.582476	ABREVIADA	-0.082962
-4.422795	ABRIENDO	-0.206968
-4.422795	ABRIL	-0.082962
-4.164792	ABRIR	-0.082962
-4.582476	ABRIRSE	-0.082962
-4.318820	ABRIÓ	-0.082962
-4.582476	ABRUPTA	-0.082962
-4.582476	ABRUPTAMENTE	-0.082962
-4.582476	ABSCESO	-0.082962
-4.422795	ABSCISAS	-0.082962
-4.422795	ABSOLUTA	-0.082962
-4.422795	ABSOLUTAS	-0.082962
-4.422795	ABSOLUTO	-0.082962
-4.582476	ABSORBEN	-0.082962
-4.422795	ABSORBENTE	-0.082962
-4.422795	ABSORBER	-0.082962
-4.582476	ABSORBIBLE	-0.082962
-4.422795	ABSORBIDA	-0.206968
-4.582476	ABSORBIENDOLE	-0.082962
-4.164792	ABSORCIÓN	-0.128409
-4.582476	ABULCASIS	-0.082962
-4.582476	ABULTADO	-0.082962
-4.422795	ABUNDANCIA	-0.082962
-4.582476	ABUNDANTE	-0.082962
-4.582476	ABUNDANTES	-0.082962
-4.582476	ACABARÍA	-0.082962
-4.422795	ACADEMIA	-0.082962
-4.051320	ACADEMICA	-0.128409
-3.887006	ACADEMICO	-0.200794
-4.582476	ACADEMICOSLA	-0.082962
-4.582476	ACADEMY	-0.082962
-4.582476	ACCEDAN	-0.082962
-4.422795	ACCEDE	-0.082962
-4.318820	ACCEDER	-0.140554
-4.582476	ACCESIBILIDAD	-0.082962
-4.582476	ACCESIBLE	-0.082962
-3.961438	ACCESO	-0.114932
-4.582476	ACCESORIO	-0.082962
-4.582476	ACCIDENTADOS	-0.082962
-4.582476	ACCIDENTALES	-0.082962
-4.318820	ACCIDENTE	-0.161584
-4.318820	ACCIDENTES	-0.082962
-4.582476	ACCINOES	-0.082962
-4.164792	ACCIONES	-0.140554
-3.961438	ACCIÓN	-0.099884
-4.582476	ACCURACY	-0.082962
-4.582476	ACEITE	-0.082962
-4.582476	ACELERACIÓN	-0.082962
-4.582476	ACELERADOR	-0.082962
-4.582476	ACELERADOS	-0.082962
-4.582476	ACEMCAL	-0.082962
-4.582476	ACENTUACIÓN	-0.082962
-4.422795	ACEPCIÓN	-0.082962
-4.422795	ACEPTABLES	-0.082962
-4.422795	ACEPTACIÓN	-0.161584
-4.422795	ACEPTADA	-0.082962
-4.422795	ACEPTADAS	-0.082962
-4.164792	ACEPTADO	-0.082962
-4.582476	ACEPTADOS	-0.082962
-4.582476	ACEPTARON	-0.082962
-4.582476	ACEPTÁNDOLOS	-0.082962
-4.582476	ACEPTÓ	-0.082962
-3.961438	ACERCA	-0.450463
-4.422795	ACERCAMIENTO	-0.082962
-4.582476	ACERTADO	-0.082962
-4.582476	ACETATO	-0.082962
-4.582476	ACETICO	-0.082962
-4.582476	ACETONA	-0.082962
-4.422795	ACLARADO	-0.140554
-4.582476	ACNE	-0.082962
-4.422795	ACOGIDA	-0.206968
-4.582476	ACOGIÓ	-0.082962
-4.582476	ACOMPAÑA	-0.082962
-4.582476	ACOMPAÑABAN	-0.082962
-4.582476	ACOMPAÑADA	-0.082962
-4.582476	ACOMPAÑADAS	-0.082962
-4.164792	ACOMPAÑADO	-0.274372
-4.582476	ACOMPAÑADOS	-0.082962
-4.582476	ACOMPAÑAN	-0.082962
-4.582476	ACOMPAÑANTES	-0.082962
-4.422795	ACOMPAÑAR	-0.082962
-4.582476	ACOMPAÑARSE	-0.082962
-4.582476	ACONDICIONAMIENTO	-0.082962
-4.582476	ACONSEJA	-0.082962
-4.582476	ACONSEJABAN	-0.082962
-4.582476	ACONSEJABLE	-0.082962
-4.582476	ACONSEJAN	-0.082962
-4.582476	ACONSEJE	-0.082962
-4.582476	ACONTECIMIENTOS	-0.082962
-4.582476	ACOPLADO	-0.082962
-4.582476	ACOPLARON	-0.082962
-4.582476	ACORDAR	-0.082962
-4.422795	ACORDE	-0.082962
-4.422795	ACORDES	-0.082962
-4.582476	ACORTAMIENTO	-0.082962
-4.582476	ACORTAR	-0.082962
-4.582476	ACOSTADO	-0.082962
-4.582476	ACOSTUMBRADO	-0.082962
-4.582476	ACQUIRED	-0.082962
-4.582476	ACREDITADO	-0.082962
-4.318820	ACRÍLICO	-0.140554
-4.582476	ACRÓNIMO	-0.082962
-4.422795	ACTA	-0.082962
-4.582476	ACTION	-0.082962
-4.422795	ACTITUD	-0.082962
-4.582476	ACTITUDES	-0.082962
-3.768079	ACTIVA	-0.105091
-4.318820	ACTIVACIÓN	-0.128409
-4.582476	ACTIVACIÓNLA	-0.082962
-4.582476	ACTIVADA	-0.082962
-4.582476	ACTIVADO	-0.082962
-4.582476	ACTIVADORES	-0.082962
-4.422795	ACTIVAR	-0.082962
-4.422795	ACTIVAS	-0.082962
-3.768079	ACTIVIDAD	-0.160800
-3.674815	ACTIVIDADES	-0.159906
-4.582476	ACTIVISTA	-0.082962
-4.164792	ACTIVO	-0.140554
-4.164792	ACTIVOS	-0.082962
-3.961438	ACTO	-0.120496
-4.582476	ACTUACIONES	-0.082962
-4.582476	ACTUACIÓN	-0.082962
-3.887006	ACTUAL	-0.082962
-4.318820	ACTUALES	-0.082962
-4.582476	ACTUALIDAD	-0.082962
-4.582476	ACTUALIZA	-0.082962
-4.582476	ACTUALIZADA	-0.082962
-4.422795	ACTUALIZADO	-0.206968
-3.674815	ACTUALMENTE	-0.131366
-4.582476	ACTUANDO	-0.082962
-3.961438	ACTUAR	-0.161584
-4.582476	ACTUARÍAN	-0.082962
-4.164792	ACTÚA	-0.140554
-4.582476	ACTÚAN	-0.082962
-4.582476	ACUARIOS	-0.082962
-4.582476	ACUCHILLADO	-0.082962
-4.582476	ACUDE	-0.082962
-4.582476	ACUDEN	-0.082962
-4.582476	ACUDIR	-0.082962
-4.051320	ACUERDO	-0.149442
-4.582476	ACUITY	-0.082962
-4.164792	ACUMULACIÓN	-0.140554
-4.422795	ACUMULADA	-0.082962
-4.582476	ACUMULADAS	-0.082962
-4.582476	ACUMULATIVO	-0.082962
-4.582476	ACUOSA	-0.082962
-4.582476	ACUOSO	-0.082962
-4.422795	ACUPUNTURA	-0.082962
-4.582476	ACUTAL	-0.082962
-4.582476	ACUÁTICAS	-0.082962
-4.582476	ACUÁTICOS	-0.082962
-4.318820	ACÚMULO	-0.363010
-4.582476	ACÚMULOS	-0.082962
-4.582476	ADAMS	-0.082962
-4.582476	ADAPTA	-0.082962
-4.422795	ADAPTACIÓN	-0.082962
-4.422795	ADAPTADA	-0.206968
-4.318820	ADAPTADO	-0.082962
-4.318820	ADAPTARSE	-0.161584
-4.582476	ADAPTATIVO	-0.082962
-4.582476	ADDISON	-0.082962
-4.582476	ADDISONIANA	-0.082962
-4.582476	ADECUACIÓN	-0.082962
-3.634757	ADECUADA	-0.140554
-4.422795	ADECUADAMENTE	-0.082962
-4.422795	ADECUADAS	-0.082962
-4.051320	ADECUADO	-0.128409
-4.422795	ADECUADOS	-0.082962
-4.582476	ADELANTAN	-0.082962
-4.422795	ADELANTE	-0.206968
-4.582476	ADELGAZAMIENTO	-0.082962
-3.237178	ADEMÁS	-0.284591
-4.582476	ADENOIDEA	-0.082962
-4.422795	ADENOSINA	-0.140554
-4.422795	ADENTRO	-0.082962
-4.582476	ADEPTOS	-0.082962
-4.582476	ADH	-0.082962
-4.582476	ADHERENCIAS	-0.082962
-4.582476	ADHERIDA	-0.082962
-4.582476	ADHERIR	-0.082962
-4.582476	ADHESIVA	-0.082962
-4.582476	ADHESIVOS	-0.082962
-4.422795	ADICCIÓN	-0.082962
-4.422795	ADICIONAL	-0.082962
-4.582476	ADICIONALES	-0.082962
-4.582476	ADICIÓN	-0.082962
-4.582476	ADIESTRAMIENTO	-0.082962
-4.582476	ADITIVO	-0.082962
-4.422795	ADITIVOS	-0.082962
-4.582476	ADIVINOS	-0.082962
-4.582476	ADJETIVO	-0.082962
-4.582476	ADJUNCT	-0.082962
-4.582476	ADMINISTRA	-0.082962
-4.582476	ADMINISTRACIONES	-0.082962
-3.961438	ADMINISTRACIÓN	-0.143250
-4.318820	ADMINISTRADA	-0.161584
-4.422795	ADMINISTRADO	-0.082962
-4.582476	ADMINISTRADOS	-0.082962
-4.582476	ADMINISTRANDO	-0.082962
-4.422795	ADMINISTRAR	-0.082962
-4.582476	ADMINISTRATION	-0.082962
-4.422795	ADMINISTRATIVA	-0.206968
-4.422795	ADMINISTRATIVO	-0.206968
-4.582476	ADMINISTRÓ	-0.082962
-4.582476	ADMISIBLE	-0.082962
-4.582476	ADMISIÓN	-0.082962
-4.582476	ADMITIR	-0.082962
-4.422795	ADN	-0.110804
-4.582476	ADOLECEN	-0.082962
-4.422795	ADOLESCENCIA	-0.140554
-4.422795	ADOLESCENTES	-0.082962
-4.582476	ADOPTADA	-0.082962
-4.422795	ADOPTADAS	-0.206968
-4.582476	ADOPTADO	-0.082962
-4.582476	ADOPTAN	-0.082962
-4.582476	ADOPTAR	-0.082962
-4.582476	ADOPTARON	-0.082962
-4.582476	ADOPTIVA	-0.082962
-4.582476	ADOPTÓ	-0.082962
-4.582476	ADORMECIDA	-0.082962
-4.582476	ADORMECIDO	-0.082962
-4.582476	ADORMECIENDO	-0.082962
-4.582476	ADORNOS	-0.082962
-4.164792	ADQUIERE	-0.082962
-4.582476	ADQUIEREN	-0.082962
-4.318820	ADQUIRIDA	-0.082962
-4.422795	ADQUIRIDAS	-0.082962
-4.582476	ADQUIRIDO	-0.082962
-4.422795	ADQUIRIENDO	-0.082962
-4.582476	ADQUIRIR	-0.082962
-4.582476	ADQUIRÍAN	-0.082962
-4.582476	ADQUISICIÓN	-0.082962
-4.582476	ADRECORTICOTROPINA	-0.082962
-4.422795	ADRENAL	-0.082962
-4.582476	ADRENALINA	-0.082962
-4.582476	ADRIANA	-0.082962
-4.422795	ADSCRITOS	-0.206968
-4.582476	ADULTERIO	-0.082962
-4.318820	ADULTO	-0.110804
-3.887006	ADULTOS	-0.151405
-4.582476	ADULTS	-0.082962
-4.582476	ADVANCED	-0.082962
-4.582476	ADVENTISTA	-0.082962
-4.582476	ADVENTISTAS	-0.082962
-4.582476	ADVERSA	-0.082962
-4.582476	ADVERSAMENTE	-0.082962
-4.582476	ADVERSO	-0.082962
-4.422795	ADVERSOS	-0.082962
-4.582476	ADVERTENCIA	-0.082962
-4.582476	ADVERTIRLES	-0.082962
-4.422795	ADVIERTE	-0.082962
-4.582476	ADVIERTEN	-0.082962
-4.582476	ADYACENTE	-0.082962
-4.582476	AEM	-0.082962
-4.422795	AEREA	-0.082962
-4.582476	AEREAS	-0.082962
-4.582476	AEREO	-0.082962
-4.582476	AEREOS	-0.082962
-4.582476	AEROCÁMARA	-0.082962
-4.582476	AEROLÍNEAS	-0.082962
-4.582476	AESAN	-0.082962
-4.582476	AESTHESIS	-0.082962
-4.582476	AFASIA	-0.082962
-4.422795	AFECCIONES	-0.082962
-4.318820	AFECCIÓN	-0.082962
-4.164792	AFECTA	-0.120496
-4.422795	AFECTABA	-0.082962
-3.961438	AFECTACIÓN	-0.110804
-4.318820	AFECTADA	-0.082962
-4.582476	AFECTADAS	-0.082962
-3.961438	AFECTADO	-0.200794
-3.823484	AFECTADOS	-0.202329
-4.422795	AFECTAN	-0.082962
-4.318820	AFECTANDO	-0.082962
-3.961438	AFECTAR	-0.157865
-4.582476	AFECTARÁ	-0.082962
-4.422795	AFECTIVA	-0.082962
-4.582476	AFECTIVIDAD	-0.082962
-4.422795	AFECTIVO	-0.082962
-4.422795	AFECTIVOS	-0.082962
-4.582476	AFECTO	-0.082962
-4.582476	AFEITAR	-0.082962
-4.582476	AFERENTE	-0.082962
-4.422795	AFERENTES	-0.082962
-4.582476	AFINIDADES	-0.082962
-4.051320	AFIRMA	-0.307929
-4.582476	AFIRMACIONES	-0.082962
-4.582476	AFIRMACIÓN	-0.082962
-4.318820	AFIRMAN	-0.161584
-4.164792	AFIRMANDO	-0.487948
-4.422795	AFIRMAR	-0.082962
-4.582476	AFIRMARON	-0.082962
-4.582476	AFIRMATIVA	-0.082962
-4.164792	AFIRMÓ	-0.274372
-4.582476	AFLUJO	-0.082962
-4.582476	AFORTUNADAMENTE	-0.082962
-4.582476	AFRICAN	-0.082962
-4.582476	AFRICANOS	-0.082962
-4.582476	AFRUTADO	-0.082962
-4.582476	AFTERCARE	-0.082962
-4.582476	AFUERAS	-0.082962
-4.318820	AGENCIA	-0.161584
-4.422795	AGENCIAS	-0.082962
-4.582476	AGENDAS	-0.082962
-4.582476	AGENESIA	-0.082962
-4.582476	AGENESIS	-0.082962
-3.961438	AGENTE	-0.166390
-3.887006	AGENTES	-0.114932
-4.582476	AGGRENOX	-0.082962
-4.582476	AGILIDAD	-0.082962
-4.582476	AGITA	-0.082962
-4.582476	AGITACIÓN	-0.082962
-4.582476	AGITE	-0.082962
-4.582476	AGLUTINAR	-0.082962
-4.422795	AGONISTA	-0.082962
-4.582476	AGONIZANTE	-0.082962
-4.582476	AGOSTINI	-0.082962
-4.318820	AGOSTO	-0.206968
-4.582476	AGOTADORA	-0.082962
-4.582476	AGOTAMIENTO	-0.082962
-4.422795	AGRADABLE	-0.206968
-4.422795	AGRADABLES	-0.082962
-4.582476	AGRANDAR	-0.082962
-4.582476	AGRAVA	-0.082962
-4.582476	AGRAVAMIENTO	-0.082962
-4.582476	AGREGA	-0.082962
-4.582476	AGREGADO	-0.082962
-4.582476	AGREGAN	-0.082962
-4.422795	AGREGÓ	-0.082962
-4.582476	AGREMIAR	-0.082962
-4.582476	AGRESIONES	-0.082962
-4.582476	AGRESIVA	-0.082962
-4.582476	AGRESIVIDAD	-0.082962
-4.582476	AGRESIVO	-0.082962
-4.422795	AGRESIVOS	-0.082962
-4.582476	AGRICULTURA	-0.082962
-4.422795	AGROBACTERIUM	-0.082962
-4.582476	AGRUPA	-0.082962
-4.582476	AGRUPADO	-0.082962
-4.582476	AGRUPADOS	-0.082962
-4.582476	AGRUPAN	-0.082962
-4.422795	AGRUPAR	-0.082962
-4.582476	AGRUPARA	-0.082962
-4.582476	AGRUPARSE	-0.082962
-4.582476	AGRÍCOLA	-0.082962
-3.823484	AGUA	-0.138558
-4.051320	AGUDA	-0.120496
-4.582476	AGUDAMENTE	-0.082962
-4.318820	AGUDAS	-0.161584
-4.318820	AGUDO	-0.082962
-4.318820	AGUDOS	-0.082962
-4.582476	AGUILERA	-0.082962
-4.582476	AGUIRRE	-0.082962
-4.318820	AGUJA	-0.179173
-4.582476	AGUJAS	-0.082962
-4.582476	AGUJEROS	-0.082962
-4.582476	AGÓNICO	-0.082962
-4.582476	AHLMANN	-0.082962
-4.582476	AHOGADO	-0.082962
-4.164792	AHOGAMIENTO	-0.274372
-4.582476	AHOGAMIENTOS	-0.082962
-4.318820	AHORA	-0.128409
-4.422795	AHORRO	-0.082962
-4.582476	AHORROS	-0.082962
-4.582476	AHÍ	-0.082962
-3.768079	AIRE	-0.159349
-4.582476	AIREACIÓN	-0.082962
-4.582476	AIRES	-0.082962
-4.582476	AISLADA	-0.082962
-4.422795	AISLADAS	-0.082962
-4.051320	AISLADO	-0.082962
-4.422795	AISLADOS	-0.082962
-4.422795	AISLAMIENTO	-0.082962
-4.582476	AISLANDO	-0.082962
-4.582476	AISLAR	-0.082962
-4.582476	AISLARLOS	-0.082962
-4.582476	AISLÓ	-0.082962
-4.582476	AIURVEDICA	-0.082962
-4.422795	AJENA	-0.082962
-4.422795	AJENO	-0.082962
-4.582476	AJENOS	-0.082962
-4.582476	AJUSTA	-0.082962
-4.582476	AJUSTADA	-0.082962
-4.582476	AJUSTADO	-0.082962
-4.582476	AJUSTAN	-0.082962
-4.582476	AKKADISCHER	-0.082962
-4.582476	AKMANTHOR	-0.082962
-2.216451	AL	-0.213671
-4.582476	AL-NAFIS	-0.082962
-4.582476	AL-QĀNŪN	-0.082962
-4.582476	ALAMBRE	-0.082962
-4.582476	ALARGA	-0.082962
-4.582476	ALARGAMIENTO	-0.082962
-4.422795	ALARMA	-0.082962
-4.422795	ALAS	-0.082962
-4.582476	ALBERGAN	-0.082962
-4.582476	ALBERGAR	-0.082962
-4.582476	ALBERT	-0.082962
-4.582476	ALBERTUCCI	-0.082962
-4.582476	ALBINOS	-0.082962
-4.582476	ALBORES	-0.082962
-4.582476	ALCALINO	-0.082962
-4.164792	ALCANCE	-0.140554
-4.582476	ALCANFORADO	-0.082962
-4.164792	ALCANZA	-0.128409
-4.582476	ALCANZABAN	-0.082962
-4.582476	ALCANZADO	-0.082962
-4.422795	ALCANZAN	-0.082962
-4.582476	ALCANZANDO	-0.082962
-4.582476	ALCANZAR	-0.082962
-4.422795	ALCANZARSE	-0.082962
-3.887006	ALCOHOL	-0.110804
-4.582476	ALCOHOLISMO	-0.082962
-4.582476	ALCOHÓLICA	-0.082962
-4.422795	ALDO	-0.140554
-4.582476	ALDOSTERONA	-0.082962
-4.582476	ALEATORIEDAAD	-0.082962
-4.582476	ALEATORIO	-0.082962
-4.582476	ALEGRE	-0.082962
-4.582476	ALEGRES	-0.082962
-4.422795	ALEGRÍA	-0.082962
-4.582476	ALEJABA	-0.082962
-4.582476	ALEJADAS	-0.082962
-4.422795	ALEJANDRA	-0.206968
-4.422795	ALEJANDRÍA	-0.082962
-4.582476	ALEJE	-0.082962
-4.582476	ALELO	-0.082962
-4.582476	ALEMANIA	-0.082962
-4.582476	ALEMTUZUMAB	-0.082962
-4.422795	ALEMÁN	-0.082962
-4.582476	ALENTANDO	-0.082962
-4.318820	ALERGIA	-0.161584
-4.051320	ALERGIAS	-0.082962
-4.582476	ALERGICA	-0.082962
-4.422795	ALERGICOS	-0.082962
-4.422795	ALERTA	-0.082962
-4.582476	ALERTAN	-0.082962
-4.422795	ALERTAR	-0.082962
-4.422795	ALEXANDER	-0.206968
-4.582476	ALEXANDRE	-0.082962
-3.961438	ALFA	-0.082962
-4.318820	ALFONSO	-0.161584
-4.582476	ALGAS	-0.082962
-3.768079	ALGO	-0.082962
-4.582476	ALGODONES	-0.082962
-4.164792	ALGODÓN	-0.082962
-4.582476	ALGOLOGÍA	-0.082962
-4.318820	ALGORITMO	-0.140554
-4.582476	ALGORITMOS	-0.082962
-4.422795	ALGUIEN	-0.082962
-3.718948	ALGUNA	-0.082962
-3.426103	ALGUNAS	-0.137448
-4.318820	ALGUNO	-0.082962
-3.403057	ALGUNOS	-0.156323
-3.564266	ALGÚN	-0.174456
-4.582476	ALH84001	-0.082962
-4.582476	ALIANZA	-0.082962
-4.582476	ALIENTO	-0.082962
-3.887006	ALIMENTACIÓN	-0.082962
-4.582476	ALIMENTADO	-0.082962
-4.582476	ALIMENTAR	-0.082962
-4.582476	ALIMENTARIA	-0.082962
-4.582476	ALIMENTICIAS	-0.082962
-4.422795	ALIMENTO	-0.082962
-4.051320	ALIMENTOS	-0.082962
-4.422795	ALINEACIÓN	-0.082962
-4.422795	ALIVIA	-0.082962
-4.164792	ALIVIAR	-0.181874
-4.164792	ALIVIO	-0.200794
-4.582476	ALLAN	-0.082962
-4.582476	ALLEGADOS	-0.082962
-4.582476	ALLEGHENY	-0.082962
-4.582476	ALLOGENNEJ	-0.082962
-4.582476	ALLOGRAFT	-0.082962
-4.422795	ALLÁ	-0.082962
-3.961438	ALLÍ	-0.114932
-4.582476	ALMA	-0.082962
-4.318820	ALMA-ATA	-0.082962
-4.582476	ALMA-ATALA	-0.082962
-4.582476	ALMACENES	-0.082962
-4.582476	ALMATY	-0.082962
-4.582476	ALMEJAS	-0.082962
-4.582476	ALMENDRAS	-0.082962
-4.582476	ALMIDONES	-0.082962
-4.582476	ALMIDÓN	-0.082962
-4.582476	ALMOHADA	-0.082962
-4.318820	ALODINIA	-0.161584
-4.318820	ALOINJERTO	-0.082962
-4.582476	ALONSO	-0.082962
-4.582476	ALOPECÍA	-0.082962
-4.582476	ALOPLÁSTICOS	-0.082962
-3.634757	ALREDEDOR	-0.664040
-3.674815	ALTA	-0.098653
-4.422795	ALTAMENTE	-0.082962
-4.164792	ALTAS	-0.082962
-4.582476	ALTERA	-0.082962
-3.634757	ALTERACIONES	-0.203623
-4.318820	ALTERACIÓN	-0.082962
-4.582476	ALTERADA	-0.082962
-4.582476	ALTERADAS	-0.082962
-4.582476	ALTERADO	-0.082962
-4.582476	ALTERARLAS	-0.082962
-4.422795	ALTERNA	-0.082962
-4.582476	ALTERNAN	-0.082962
-4.422795	ALTERNANCIA	-0.206968
-4.582476	ALTERNAS	-0.082962
-4.318820	ALTERNATIVA	-0.082962
-4.582476	ALTERNATIVAMENTE	-0.082962
-4.318820	ALTERNATIVAS	-0.082962
-4.582476	ALTERNATIVES	-0.082962
-4.582476	ALTERNATIVO	-0.082962
-4.582476	ALTERNATIVOS	-0.082962
-4.318820	ALTO	-0.082962
-4.422795	ALTOS	-0.082962
-4.582476	ALTURA	-0.082962
-4.582476	ALTURAS	-0.082962
-4.582476	ALUDEN	-0.082962
-4.582476	ALUMNADO	-0.082962
-4.582476	ALUMNO	-0.082962
-4.318820	ALUMNOS	-0.082962
-4.582476	ALUSIÓN	-0.082962
-4.582476	ALVEOLAR	-0.082962
-4.582476	ALVEOLARES	-0.082962
-4.582476	ALVEOLO	-0.082962
-4.582476	ALVEOLOS	-0.082962
-4.582476	ALZHEIMER	-0.082962
-4.582476	ALÍ	-0.082962
-4.582476	AMA	-0.082962
-4.582476	AMABLE	-0.082962
-4.422795	AMARILLA	-0.082962
-4.582476	AMARILLO	-0.082962
-4.582476	AMARÚ	-0.082962
-4.582476	AMBARINO	-0.082962
-4.051320	AMBAS	-0.082962
-4.582476	AMBIENTACIÓN	-0.082962
-4.422795	AMBIENTAL	-0.082962
-4.422795	AMBIENTALES	-0.082962
-4.422795	AMBIENTE	-0.082962
-4.582476	AMBIENTES	-0.082962
-4.582476	AMBIGÜEDAD	-0.082962
-4.582476	AMBIGÜEDADES	-0.082962
-3.634757	AMBOS	-0.092881
-4.582476	AMBULANTE	-0.082962
-4.318820	AMBULATORIA	-0.082962
-4.582476	AMBULATORIAS	-0.082962
-4.582476	AMBULATORIO	-0.082962
-4.582476	AMBULATORIOS	-0.082962
-4.318820	AMBÚ	-0.082962
-4.422795	AMENAZA	-0.206968
-4.582476	AMENAZAN	-0.082962
-4.582476	AMENAZARA	-0.082962
-4.318820	AMENORREA	-0.082962
-4.422795	AMERICA	-0.082962
-4.164792	AMERICAN	-0.228747
-4.422795	AMERICANA	-0.082962
-4.582476	AMERICANAS	-0.082962
-4.582476	AMERICANO	-0.082962
-4.582476	AMERICANOS	-0.082962
-4.582476	AMERICAS	-0.082962
-4.422795	AMIELÍNICO	-0.082962
-4.318820	AMINO-OXIDASA	-0.082962
-4.422795	AMINOFILINA	-0.082962
-4.582476	AMINORAR	-0.082962
-4.582476	AMINOÁCIDOS	-0.082962
-4.582476	AMIOT	-0.082962
-4.582476	AMLAR	-0.082962
-4.582476	AMOXICILINA	-0.082962
-4.582476	AMPARADAS	-0.082962
-3.961438	AMPLIA	-0.110804
-4.422795	AMPLIACIÓN	-0.082962
-4.422795	AMPLIADO	-0.082962
-4.582476	AMPLIADOS	-0.082962
-3.718948	AMPLIAMENTE	-0.105091
-4.582476	AMPLIAMENTERECONOCIDA	-0.082962
-4.164792	AMPLIAR	-0.128409
-4.582476	AMPLIARÁ	-0.082962
-4.318820	AMPLIO	-0.082962
-4.582476	AMPLIOS	-0.082962
-4.422795	AMPLITUD	-0.082962
-4.422795	AMPLIÓ	-0.082962
-4.582476	AMPLÍA	-0.082962
-4.582476	AMÍGDALAS	-0.082962
-4.582476	AMÍLICO	-0.082962
-4.164792	AN	-0.082962
-4.582476	ANA	-0.082962
-4.582476	ANACRÓNICOS	-0.082962
-4.582476	ANAEROBIO	-0.082962
-4.582476	ANAL	-0.082962
-4.422795	ANALGESICOS	-0.082962
-4.582476	ANALIZA	-0.082962
-4.582476	ANALIZADAS	-0.082962
-4.422795	ANALIZADO	-0.082962
-4.582476	ANALIZAN	-0.082962
-4.422795	ANALIZANDO	-0.082962
-4.164792	ANALIZAR	-0.128409
-4.582476	ANALIZARAN	-0.082962
-4.582476	ANALIZARON	-0.082962
-4.318820	ANALÍTICA	-0.082962
-4.582476	ANALÍTICAMENTE	-0.082962
-4.582476	ANALÍTICAS	-0.082962
-4.318820	ANALÍTICOS	-0.082962
-4.582476	ANAMNESIS	-0.082962
-4.582476	ANAMPA	-0.082962
-4.164792	ANASTOMOSIS	-0.082962
-4.582476	ANASTOMÓTICA	-0.082962
-4.582476	ANATOFISIOLOGÍA	-0.082962
-4.422795	ANATOMISTA	-0.082962
-4.582476	ANATOMISTAS	-0.082962
-4.582476	ANATOMOPATOLÓGICA	-0.082962
-4.582476	ANATOMY	-0.082962
-4.164792	ANATOMÍA	-0.094468
-4.582476	ANATOMÍAS	-0.082962
-4.318820	ANATÓMICA	-0.161584
-4.164792	ANATÓMICAS	-0.082962
-4.582476	ANATÓMICO	-0.082962
-4.422795	ANATÓMICOS	-0.082962
-4.582476	ANCESTROS	-0.082962
-4.422795	ANCIANOS	-0.082962
-4.582476	ANCLA	-0.082962
-4.582476	ANCONA	-0.082962
-3.360338	AND	-0.082962
-4.582476	ANDALUCIA	-0.082962
-4.582476	ANDALUCÍA	-0.082962
-4.582476	ANDALUZ	-0.082962
-4.582476	ANDAMIAJE	-0.082962
-4.422795	ANDAMIO	-0.206968
-4.582476	ANDORRA	-0.082962
-4.582476	ANDORRANO	-0.082962
-4.164792	ANDREA	-0.082962
-4.582476	ANDRES	-0.082962
-4.422795	ANDREW	-0.206968
-4.582476	ANDY	-0.082962
-3.823484	ANEMIA	-0.187326
-4.582476	ANEROIDE	-0.082962
-4.164792	ANESTESIA	-0.140554
-4.582476	ANESTESICO	-0.082962
-4.582476	ANEURISMA	-0.082962
-4.582476	ANFIOXO	-0.082962
-4.582476	ANGEL	-0.082962
-4.582476	ANGELA	-0.082962
-4.318820	ANGIOTENSINA	-0.140554
-4.582476	ANGIOTENSINOGENO	-0.082962
-4.582476	ANGKOR	-0.082962
-4.582476	ANGLAS	-0.082962
-4.582476	ANGOSTAS	-0.082962
-4.582476	ANGULAR	-0.082962
-4.422795	ANGUSTIA	-0.082962
-4.582476	ANIMADOS	-0.082962
-3.768079	ANIMAL	-0.082962
-3.674815	ANIMALES	-0.159986
-4.582476	ANIMALS	-0.082962
-4.582476	ANIMALÚNCULOS	-0.082962
-4.582476	ANIMISTAS	-0.082962
-4.582476	ANIMÓ	-0.082962
-4.582476	ANIQUILACIÓN	-0.082962
-4.582476	ANIQUILAN	-0.082962
-4.582476	ANIVERSARIO	-0.082962
-4.582476	ANO	-0.082962
-4.582476	ANOBIUM	-0.082962
-4.582476	ANOMALIJ	-0.082962
-4.422795	ANOMALÍA	-0.082962
-4.422795	ANOMALÍAS	-0.082962
-4.582476	ANOREXIA	-0.082962
-4.051320	ANORMAL	-0.371282
-4.582476	ANORMALIDAD	-0.082962
-4.318820	ANORMALIDADES	-0.082962
-4.582476	ANORMALMENTE	-0.082962
-4.582476	ANOTAR	-0.082962
-4.582476	ANOVAS	-0.082962
-4.422795	ANSERIFORMES	-0.206968
-4.582476	ANSI	-0.082962
-4.582476	ANSIA	-0.082962
-4.318820	ANSIEDAD	-0.149442
-4.582476	ANTAGONISTA	-0.082962
-3.532893	ANTE	-0.202560
-4.422795	ANTEBRAZO	-0.161584
-4.582476	ANTEBRAZOS	-0.082962
-4.582476	ANTECEDENTE	-0.082962
-4.318820	ANTECEDENTES	-0.082962
-4.422795	ANTECESOR	-0.082962
-4.582476	ANTEPASADO	-0.082962
-4.422795	ANTEPASADOS	-0.082962
-3.718948	ANTERIOR	-0.120496
-4.422795	ANTERIORES	-0.082962
-4.582476	ANTERIORIDAD	-0.082962
-3.961438	ANTERIORMENTE	-0.082962
-4.582476	ANTERO-SUPERIOR	-0.082962
-4.582476	ANTEROLATERAL	-0.082962
-4.582476	ANTEROLATERALES	-0.082962
-4.582476	ANTEROPOSTERIOR	-0.082962
-3.153802	ANTES	-0.582590
-4.582476	ANTHRACIS	-0.082962
-4.422795	ANTI-DGP	-0.206968
-4.422795	ANTI-ENDOMISIO	-0.082962
-4.582476	ANTI-PEPTIDOS	-0.082962
-4.422795	ANTI-TGT	-0.082962
-4.422795	ANTI-TRANSGLUTAMINASA	-0.161584
-4.582476	ANTIBACTERIANOS	-0.082962
-4.051320	ANTIBIÓTICO	-0.082962
-4.164792	ANTIBIÓTICOS	-0.114932
-4.582476	ANTICOAGULANTES	-0.082962
-4.582476	ANTICOLINERGICOS	-0.082962
-4.582476	ANTICUERPO	-0.082962
-3.961438	ANTICUERPOS	-0.109116
-4.582476	ANTIDEPRESIVOS	-0.082962
-4.582476	ANTIDIABETICOS	-0.082962
-4.582476	ANTIDIURETICA	-0.082962
-4.582476	ANTIDIÁRREICO	-0.082962
-4.582476	ANTIEMETICOS	-0.082962
-4.582476	ANTIGENICA	-0.082962
-4.582476	ANTIGENICO	-0.082962
-3.961438	ANTIGUA	-0.082962
-4.582476	ANTIGUAMENTE	-0.082962
-4.318820	ANTIGUAS	-0.082962
-3.961438	ANTIGUO	-0.082962
-4.164792	ANTIGUOS	-0.082962
-4.582476	ANTIGÜEDAD	-0.082962
-4.582476	ANTIINFLAMATORIO	-0.082962
-4.582476	ANTIINFLAMATORIOS	-0.082962
-4.582476	ANTIMICROBIANA	-0.082962
-4.582476	ANTIMICÓTICO	-0.082962
-4.582476	ANTINEUTRINO	-0.082962
-4.582476	ANTIOQUIA	-0.082962
-4.582476	ANTIOXIDANTE	-0.082962
-4.422795	ANTIPARASITARIOS	-0.082962
-4.582476	ANTIPSICÓTICO	-0.082962
-4.582476	ANTIPSICÓTICOS	-0.082962
-4.582476	ANTIPSIQUIATRÍA	-0.082962
-4.582476	ANTISEPTICA	-0.082962
-4.422795	ANTISEPTICO	-0.082962
-4.582476	ANTITETÁNICOS	-0.082962
-4.582476	ANTITÓXICA	-0.082962
-4.318820	ANTIVIRALES	-0.082962
-4.582476	ANTIVIRUS	-0.082962
-4.582476	ANTROPOLOGIA	-0.082962
-4.164792	ANTROPOLOGÍA	-0.082962
-4.582476	ANTROPOLÓGICO	-0.082962
-4.582476	ANTROPOMÓRFICAS	-0.082962
-4.582476	ANTÍGENO	-0.082962
-4.582476	ANTÍGENO-ANTICUERPO	-0.082962
-3.961438	ANTÍGENOS	-0.082962
-4.582476	ANUDACIÓN	-0.082962
-4.582476	ANULAR	-0.082962
-4.582476	ANUNCIABAN	-0.082962
-4.582476	ANUNCIADO	-0.082962
-4.422795	ANUNCIOS	-0.082962
-4.422795	ANUNCIÓ	-0.082962
-3.961438	ANÁLISIS	-0.101324
-4.582476	ANÁLOGAMENTE	-0.082962
-4.582476	ANÁLOGOS	-0.082962
-4.582476	ANÁRQUICA	-0.082962
-4.582476	ANÍMICAMENTE	-0.082962
-4.582476	ANÍMICO	-0.082962
-4.582476	ANÍMICOS'	-0.082962
-4.582476	AOECS	-0.082962
-4.422795	AORTA	-0.082962
-4.582476	AP	-0.082962
-4.582476	APAGA	-0.082962
-4.051320	APARATO	-0.082962
-4.422795	APARATOS	-0.082962
-4.582476	APAREADA	-0.082962
-4.582476	APAREADO	-0.082962
-4.164792	APARECE	-0.128409
-3.961438	APARECEN	-0.222413
-4.318820	APARECER	-0.120496
-4.582476	APARECIDO	-0.082962
-4.582476	APARECIERON	-0.082962
-4.582476	APARENTA	-0.082962
-4.318820	APARENTE	-0.082962
-4.422795	APARENTEMENTE	-0.082962
-4.422795	APARICIÓN	-0.140554
-4.422795	APARIENCIA	-0.082962
-4.582476	APARTADO	-0.082962
-4.582476	APARTADOS	-0.082962
-4.582476	APARTAR	-0.082962
-4.422795	APARTE	-0.206968
-4.582476	APENAS	-0.082962
-4.582476	APENDICE	-0.082962
-4.422795	APERTURA	-0.140554
-4.582476	APETENCIA	-0.082962
-4.318820	APETITO	-0.120496
-3.961438	APLICA	-0.165597
-4.582476	APLICABAN	-0.082962
-4.582476	APLICABLES	-0.082962
-4.318820	APLICACIONES	-0.082962
-3.887006	APLICACIÓN	-0.172656
-4.582476	APLICACIÓNEL	-0.082962
-4.422795	APLICADA	-0.082962
-4.051320	APLICADAS	-0.228747
-4.582476	APLICADO	-0.082962
-4.422795	APLICADOS	-0.082962
-4.582476	APLICAN	-0.082962
-4.422795	APLICANDO	-0.082962
-3.961438	APLICAR	-0.082962
-4.422795	APLICARLE	-0.082962
-4.582476	APLICARLO	-0.082962
-4.318820	APLICARSE	-0.082962
-4.422795	APLICÁNDOLO	-0.206968
-4.582476	APLICÓ	-0.082962
-4.582476	APOLLO	-0.082962
-4.582476	APOLO	-0.082962
-4.422795	APORTA	-0.082962
-4.318820	APORTACIONES	-0.082962
-4.422795	APORTACIÓN	-0.082962
-4.582476	APORTAR	-0.082962
-4.582476	APORTARÁ	-0.082962
-4.582476	APORTARÁN	-0.082962
-4.164792	APORTE	-0.082962
-4.422795	APORTES	-0.082962
-4.582476	APORTO	-0.082962
-4.422795	APORTÓ	-0.082962
-4.582476	APOYA	-0.082962
-4.582476	APOYAN	-0.082962
-4.582476	APOYAR	-0.082962
-4.582476	APOYARON	-0.082962
-4.582476	APOYEN	-0.082962
-4.051320	APOYO	-0.107621
-4.582476	APOYOS	-0.082962
-4.582476	APP	-0.082962
-4.582476	APPLICATIONS	-0.082962
-4.582476	APPS
-4.582476	APRECIA	-0.082962
-4.422795	APRECIABLE	-0.082962
-4.582476	APRECIABLES	-0.082962
-4.582476	APRECIACIÓN	-0.082962
-4.582476	APRECIANDO	-0.082962
-4.422795	APRENDA	-0.082962
-4.582476	APRENDICES	-0.082962
-4.582476	APRENDIDO	-0.082962
-4.582476	APRENDIENDO	-0.082962
-4.582476	APRENDIZ	-0.082962
-3.961438	APRENDIZAJE	-0.124075
-4.422795	APROBACIÓN	-0.082962
-4.582476	APROBADA	-0.082962
-4.422795	APROBADAS	-0.082962
-4.582476	APROBADO	-0.082962
-4.582476	APROBADOS	-0.082962
-4.582476	APROBANDO	-0.082962
-4.582476	APROBAR	-0.082962
-4.582476	APROBÓ	-0.082962
-4.582476	APROPIADO	-0.082962
-4.582476	APROPIADOS	-0.082962
-4.582476	APROVECHADA	-0.082962
-4.582476	APROVECHAN	-0.082962
-4.582476	APROXIMADA	-0.082962
-3.718948	APROXIMADAMENTE	-0.168206
-4.582476	APROXIMADO	-0.082962
-4.582476	APRUEBA	-0.082962
-4.422795	APUNTA	-0.206968
-4.582476	APUNTAN	-0.082962
-4.582476	APURO	-0.082962
-4.582476	APÓFISIS	-0.082962
-3.887006	AQUEL	-0.105091
-4.318820	AQUELLA	-0.120496
-4.051320	AQUELLAS	-0.228747
-4.318820	AQUELLO	-0.161584
-3.634757	AQUELLOS	-0.151569
-4.582476	AQUILES	-0.082962
-4.582476	AQUILIANOS	-0.082962
-4.582476	AQUÍ	-0.082962
-4.582476	ARAGÓN	-0.082962
-4.582476	ARANDA	-0.082962
-4.582476	ARBITRARIEDAD	-0.082962
-4.582476	ARBITRARIOS	-0.082962
-4.582476	ARBORIZACIONES	-0.082962
-4.422795	ARCHIVO	-0.082962
-4.422795	ARCHIVOS	-0.082962
-4.582476	ARCOS	-0.082962
-4.582476	ARCUATO	-0.082962
-4.422795	ARDER	-0.082962
-4.582476	AREQUIPA	-0.082962
-4.582476	ARETEO	-0.082962
-3.768079	ARGENTINA	-0.168206
-4.582476	ARGENTINO	-0.082962
-4.422795	ARGUMENTO	-0.082962
-4.318820	ARGUMENTOS	-0.161584
-4.582476	ARGUMENTÓ	-0.082962
-4.582476	ARGYLE	-0.082962
-4.582476	ARGÓN	-0.082962
-4.422795	ARISTAS	-0.082962
-4.582476	ARISTÓTELES	-0.082962
-4.582476	ARITMETICAS	-0.082962
-4.582476	ARMA	-0.082962
-4.582476	ARMADOS	-0.082962
-4.582476	ARMANDO	-0.082962
-4.422795	ARMAS	-0.206968
-4.582476	ARMONIZA	-0.082962
-4.582476	ARMONIZACIÓN	-0.082962
-4.318820	ARMONÍA	-0.128409
-4.582476	ARMÓNICO	-0.082962
-4.582476	ARMÓNICOS	-0.082962
-4.318820	ARN	-0.140554
-4.582476	ARNA	-0.082962
-4.582476	ARNM	-0.082962
-4.582476	AROMATERAPIA	-0.082962
-4.582476	ARQUEOLÓGICA	-0.082962
-4.318820	ARQUITECTURA	-0.082962
-4.582476	ARRANCA	-0.082962
-4.582476	ARRANCAMIENTO	-0.082962
-4.582476	ARRASTRAN	-0.082962
-4.582476	ARRASTRÁNDOSE	-0.082962
-4.422795	ARREGLO	-0.082962
-4.582476	ARREST	-0.082962
-4.422795	ARRIBA	-0.082962
-4.582476	ARRINGTON	-0.082962
-4.582476	ARRITMIA	-0.082962
-4.582476	ARRITMIAS	-0.082962
-4.582476	ARRIZALABAGA	-0.082962
-4.582476	ARRODILLADO	-0.082962
-4.582476	ARROJADOS	-0.082962
-4.582476	ARROJANDO	-0.082962
-4.582476	ARROYOS	-0.082962
-4.422795	ARROZ	-0.082962
-4.582476	ARRUGAS	-0.082962
-4.582476	ARS	-0.082962
-4.164792	ARTE	-0.114932
-4.582476	ARTERIA	-0.082962
-3.718948	ARTERIAL	-0.152862
-4.582476	ARTERIALFIGURA
-4.422795	ARTERIALLA	-0.206968
-4.318820	ARTERIAS	-0.082962
-4.582476	ARTERIOVENOSA	-0.082962
-4.582476	ARTES	-0.082962
-4.582476	ARTESANAL	-0.082962
-4.318820	ARTETERAPIA	-0.082962
-4.582476	ARTEZANO	-0.082962
-4.582476	ARTICULACIONES	-0.082962
-4.582476	ARTICULACIÓN	-0.082962
-4.582476	ARTICULADA	-0.082962
-4.582476	ARTICULADO	-0.082962
-4.582476	ARTICULAN	-0.082962
-4.582476	ARTICULAR	-0.082962
-4.582476	ARTICULARES	-0.082962
-3.823484	ARTIFICIAL	-0.099884
-4.582476	ARTIFICIALES	-0.082962
-4.582476	ARTIFICIALMENTE	-0.082962
-4.582476	ARTIODÁCTILOS	-0.082962
-4.422795	ARTISTAS	-0.161584
-4.582476	ARTRITIS	-0.082962
-4.582476	ARTRÓPODOS	-0.082962
-3.823484	ARTÍCULO	-0.180746
-4.051320	ARTÍCULOS	-0.110804
-4.582476	ARTÍSTICAS	-0.082962
-4.582476	ARUCAS	-0.082962
-4.582476	ARÁBIGO	-0.082962
-4.582476	AS	-0.082962
-4.164792	ASA	-0.307929
-4.582476	ASALARIADOS	-0.082962
-4.318820	ASAMBLEA	-0.082962
-4.582476	ASAMBLEAS	-0.082962
-4.582476	ASASANTIN	-0.082962
-4.422795	ASCARIS	-0.206968
-4.051320	ASCEMCOL	-0.136947
-4.582476	ASCENDENTE	-0.082962
-4.582476	ASCENDER	-0.082962
-4.318820	ASCENSO	-0.082962
-4.582476	ASCIENDA	-0.082962
-4.582476	ASCIENDE	-0.082962
-4.582476	ASCIENDEN	-0.082962
-4.164792	ASCLEPIO	-0.107621
-4.318820	ASEGURA	-0.082962
-4.582476	ASEGURAN	-0.082962
-4.582476	ASEGURANDO	-0.082962
-4.422795	ASEGURAR	-0.161584
-4.582476	ASEGURARAN	-0.082962
-4.582476	ASEGURARSE	-0.082962
-4.582476	ASEGURE	-0.082962
-4.582476	ASEIMUQ	-0.082962
-4.422795	ASEPSIA	-0.082962
-4.318820	ASEQUIBLE	-0.082962
-4.582476	ASESOR	-0.082962
-4.582476	ASESORÍA	-0.082962
-4.582476	ASESORÍAS	-0.082962
-4.422795	ASFIXIA	-0.082962
-4.582476	ASHER	-0.082962
-4.582476	ASHRAM	-0.082962
-4.582476	ASIA	-0.082962
-4.422795	ASIENTO	-0.082962
-4.582476	ASIGNADA	-0.082962
-4.582476	ASIGNAR	-0.082962
-4.582476	ASIGNARLE	-0.082962
-4.422795	ASIGNATURAS	-0.082962
-4.318820	ASILOS	-0.161584
-4.582476	ASIMETRIA	-0.082962
-4.582476	ASIMETRICA	-0.082962
-4.582476	ASIMETRICO	-0.082962
-4.422795	ASIMETRÍA	-0.206968
-4.582476	ASIMILADOS	-0.082962
-4.051320	ASIMISMO	-0.103032
-4.582476	ASINTOMÁTICAS	-0.082962
-4.582476	ASINTOMÁTICO	-0.082962
-4.422795	ASINTOMÁTICOS	-0.082962
-4.582476	ASINTÓTICA	-0.082962
-4.582476	ASISTE	-0.082962
-4.318820	ASISTENCIA	-0.114932
-3.887006	ASISTENCIAL	-0.082962
-4.318820	ASISTENCIALES	-0.082962
-4.422795	ASISTENTES	-0.082962
-4.582476	ASISTIENDO	-0.082962
-4.582476	ASISTIERON	-0.082962
-4.164792	ASISTIR	-0.140554
-4.582476	ASISTIÓ	-0.082962
-4.582476	ASISTÍAN	-0.082962
-4.582476	ASIÁTICO	-0.082962
-4.582476	ASIÁTICOS	-0.082962
-4.582476	ASK	-0.082962
-3.887006	ASMA	-0.107621
-4.422795	ASMÁTICO	-0.206968
-4.582476	ASOCIA	-0.082962
-4.164792	ASOCIACIONES	-0.082962
-3.634757	ASOCIACIÓN	-0.208350
-3.768079	ASOCIADA	-0.325524
-3.823484	ASOCIADAS	-0.253482
-3.823484	ASOCIADO	-0.168206
-3.768079	ASOCIADOS	-0.143250
-4.582476	ASOCIAN	-0.082962
-4.582476	ASOCIAR	-0.082962
-4.582476	ASOCIÓ	-0.082962
-4.318820	ASOFAMECH	-0.082962
-4.582476	ASOMAN	-0.082962
-4.582476	ASPA	-0.082962
-4.051320	ASPECTO	-0.082962
-3.961438	ASPECTOS	-0.219359
-4.582476	ASPIRA	-0.082962
-4.582476	ASPIRABA	-0.082962
-4.318820	ASPIRADO	-0.082962
-4.582476	ASPIRANDO	-0.082962
-4.582476	ASPIRANTE	-0.082962
-4.582476	ASPIRAR	-0.082962
-4.318820	ASPIRINA	-0.082962
-4.582476	ASSOCIATED	-0.082962
-4.422795	ASSOCIATION	-0.082962
-4.422795	ASTA	-0.206968
-4.582476	ASTHMA	-0.082962
-4.582476	ASTRONAUTAS	-0.082962
-4.582476	ASTURIAS	-0.082962
-4.582476	ASUME	-0.082962
-4.422795	ASUMIDO	-0.082962
-4.582476	ASUMIR	-0.082962
-4.582476	ASUNTO	-0.082962
-4.582476	ASUNTOS	-0.082962
-2.830284	ASÍ	-0.477805
-4.582476	AT	-0.082962
-4.582476	ATACA	-0.082962
-4.422795	ATACAR	-0.082962
-4.582476	ATACÁNDOLE	-0.082962
-4.582476	ATACÓ	-0.082962
-4.582476	ATADO	-0.082962
-4.582476	ATAJAR	-0.082962
-4.422795	ATAQUE	-0.082962
-4.582476	ATAQUES	-0.082962
-4.582476	ATEMPERAR	-0.082962
-4.582476	ATENCIONAL	-0.082962
-3.450441	ATENCIÓN	-0.336175
-4.164792	ATENDER	-0.140554
-4.582476	ATENDIDAS	-0.082962
-4.422795	ATENDIDOS	-0.140554
-4.582476	ATENDIÓ	-0.082962
-4.582476	ATENTAMENTE	-0.082962
-4.582476	ATENTOS	-0.082962
-4.582476	ATENUACIÓN	-0.082962
-4.582476	ATENUAR	-0.082962
-4.582476	ATEROESCLEROSIS	-0.082962
-4.582476	ATEROSCLEROSIS	-0.082962
-4.422795	ATIENDE	-0.082962
-4.164792	ATIENDEN	-0.082962
-4.582476	ATINJO	-0.082962
-4.582476	ATLANTA	-0.082962
-4.582476	ATMOSFERICA	-0.082962
-4.582476	ATMÓSFERA	-0.082962
-4.582476	ATRACCIÓN	-0.082962
-4.422795	ATRACTIVO	-0.082962
-4.582476	ATRAEN	-0.082962
-4.582476	ATRAER	-0.082962
-4.582476	ATRAPADAS	-0.082962
-4.422795	ATRAPADO	-0.082962
-4.582476	ATRAPADOS	-0.082962
-4.582476	ATRASO	-0.082962
-4.582476	ATRAVIESAN	-0.082962
-4.582476	ATRAVIESEN	-0.082962
-4.582476	ATRAÍDOS	-0.082962
-4.582476	ATRIBUCIÓN	-0.082962
-4.318820	ATRIBUIDO	-0.161584
-4.582476	ATRIBUIDOS	-0.082962
-4.422795	ATRIBUIR	-0.082962
-4.582476	ATRIBUTOS	-0.082962
-4.582476	ATRIBUYE	-0.082962
-4.582476	ATRIBUYÓ	-0.082962
-4.582476	ATRIBUÍA	-0.082962
-3.961438	ATROFIA	-0.335586
-4.582476	ATROPINA	-0.082962
-4.318820	ATRÁS	-0.120496
-4.422795	ATRÓFICA	-0.082962
-4.582476	ATRÓFICOS	-0.082962
-4.582476	ATTRACTRIN	-0.082962
-4.318820	ATÁVICA	-0.082962
-4.582476	ATÍPICAS	-0.082962
-4.422795	ATÓMICA	-0.082962
-4.582476	ATÓMICO	-0.082962
-4.422795	AUDICIÓN	-0.082962
-4.582476	AUDITIVA	-0.082962
-4.582476	AUDITIVO	-0.082962
-4.582476	AUF	-0.082962
-4.422795	AUGE	-0.082962
-4.582476	AULA	-0.082962
-4.422795	AULARIO	-0.206968
-4.582476	AULAS	-0.082962
-3.564266	AUMENTA	-0.313720
-4.582476	AUMENTABA	-0.082962
-4.422795	AUMENTADA	-0.206968
-4.422795	AUMENTADO	-0.082962
-4.318820	AUMENTADOS	-0.082962
-4.582476	AUMENTANDO	-0.082962
-3.823484	AUMENTAR	-0.280404
-4.582476	AUMENTARÍA	-0.082962
-4.422795	AUMENTE	-0.082962
-3.718948	AUMENTO	-0.280404
-4.318820	AUN	-0.082962
-3.179855	AUNQUE	-0.261962
-4.582476	AURA	-0.082962
-4.582476	AUREOLA	-0.082962
-4.318820	AURICULAR	-0.082962
-4.582476	AURÍCULA	-0.082962
-4.582476	AUS	-0.082962
-4.051320	AUSENCIA	-0.371282
-4.318820	AUSENTE	-0.363010
-4.582476	AUSPICIADO	-0.082962
-4.582476	AUSTRALASIAN	-0.082962
-4.164792	AUSTRALIA	-0.128409
-4.582476	AUSTRALIANA	-0.082962
-4.582476	AUSTRALIANO	-0.082962
-4.582476	AUSTRIACO	-0.082962
-4.582476	AUTISM	-0.082962
-4.582476	AUTISMO	-0.082962
-4.582476	AUTISTA	-0.082962
-4.582476	AUTO-CONOCIMIENTO	-0.082962
-4.582476	AUTO-DIAGNOSTICADA	-0.082962
-4.582476	AUTO-MUTILACIÓN	-0.082962
-4.582476	AUTOADMINISTRACIÓN	-0.082962
-4.582476	AUTOCONTROL	-0.082962
-4.582476	AUTODIAGNOSIS	-0.082962
-4.582476	AUTODIAGNOSTICADOS	-0.082962
-4.582476	AUTODIAGNOSTICAN	-0.082962
-4.582476	AUTODIAGNÓSTICOS	-0.082962
-4.422795	AUTOESTIMA	-0.161584
-4.582476	AUTOEXTINGUIBLE	-0.082962
-4.582476	AUTOGENNEGO	-0.082962
-4.582476	AUTOIMUNITARIOS	-0.082962
-4.582476	AUTOINFLIGIDAS	-0.082962
-4.582476	AUTOINJERTO	-0.082962
-4.582476	AUTOINJERTOS	-0.082962
-4.318820	AUTOINMUNE	-0.161584
-4.318820	AUTOINMUNES	-0.120496
-4.582476	AUTOINMUNITARIA	-0.082962
-4.582476	AUTOINMUNITARIAS	-0.082962
-4.582476	AUTOINMUNITARIO	-0.082962
-4.582476	AUTOINMUNITARIOS	-0.082962
-4.582476	AUTOLESIVAS	-0.082962
-4.582476	AUTOMATED	-0.082962
-4.582476	AUTOMATIZACIONES	-0.082962
-4.582476	AUTOMATIZACIÓN	-0.082962
-4.582476	AUTOMATIZADA	-0.082962
-4.582476	AUTOMATIZARSE	-0.082962
-4.582476	AUTOMOVILÍSTICOS	-0.082962
-4.422795	AUTOMÁTICA	-0.082962
-4.422795	AUTOMÁTICO	-0.082962
-4.318820	AUTOMÁTICOS	-0.082962
-4.582476	AUTOMÓVIL	-0.082962
-4.318820	AUTONOMÍA	-0.082962
-4.582476	AUTONÓMICO	-0.082962
-4.318820	AUTOR	-0.082962
-4.164792	AUTORES	-0.114932
-4.422795	AUTORICE	-0.082962
-4.164792	AUTORIDAD	-0.082962
-4.422795	AUTORIDADES	-0.082962
-4.318820	AUTORIZACIÓN	-0.082962
-4.582476	AUTORIZADA	-0.082962
-4.582476	AUTORIZADO	-0.082962
-4.582476	AUTORIZADOS	-0.082962
-4.582476	AUTORIZAN	-0.082962
-4.582476	AUTORREALIZACIÓN	-0.082962
-4.582476	AUTORREALIZADORA	-0.082962
-4.582476	AUTÓCTONOS	-0.082962
-4.582476	AUTÓGENA	-0.082962
-4.422795	AUTÓGENO	-0.082962
-4.422795	AUTÓLOGO	-0.082962
-4.422795	AUTÓLOGOS	-0.082962
-4.318820	AUTÓNOMA	-0.082962
-4.582476	AUTÓNOMAS	-0.082962
-4.422795	AUTÓNOMO	-0.206968
-4.582476	AUXILIAN	-0.082962
-4.582476	AUXILIARES	-0.082962
-4.582476	AUXILIOS	-0.082962
-4.051320	AVANCE	-0.114932
-4.582476	AVANCES	-0.082962
-4.582476	AVANZA	-0.082962
-4.318820	AVANZADA	-0.082962
-4.422795	AVANZADAS	-0.082962
-4.318820	AVANZADO	-0.082962
-4.582476	AVANZADOS	-0.082962
-4.422795	AVANZAR	-0.082962
-4.582476	AVANZÓ	-0.082962
-4.582476	AVASALLADORA	-0.082962
-4.582476	AVDI	-0.082962
-4.582476	AVECINA	-0.082962
-4.582476	AVELLANAS	-0.082962
-4.318820	AVENA	-0.082962
-4.582476	AVENZOAR	-0.082962
-4.582476	AVERIGUAR	-0.082962
-4.582476	AVERIGUARSE	-0.082962
-4.582476	AVERROES	-0.082962
-4.582476	AVES	-0.082962
-4.582476	AVIAR	-0.082962
-4.422795	AVICENA	-0.082962
-4.582476	AVIONES	-0.082962
-4.422795	AVISO	-0.082962
-4.422795	AWARD	-0.082962
-4.164792	AXONES	-0.082962
-3.303235	AYUDA	-0.356281
-4.422795	AYUDAN	-0.206968
-4.582476	AYUDANTE	-0.082962
-4.051320	AYUDAR	-0.429957
-4.582476	AYUDÓ	-0.082962
-4.582476	AYUNO	-0.082962
-4.422795	AYUNTAMIENTOS	-0.082962
-4.582476	AYURVEDA	-0.082962
-4.582476	AYURVEDICO	-0.082962
-4.422795	AZAR	-0.082962
-4.582476	AZOTAN	-0.082962
-4.582476	AZUL	-0.082962
-4.582476	AZULES	-0.082962
-4.582476	AÍSLAN	-0.082962
-4.582476	AÑADE	-0.082962
-4.582476	AÑADEN	-0.082962
-4.582476	AÑADIDO	-0.082962
-4.582476	AÑADIENDO	-0.082962
-4.582476	AÑADIR	-0.082962
-3.564266	AÑO	-0.200343
-3.252774	AÑOS	-0.213912
-4.422795	AÓRTICA	-0.082962
-3.532893	AÚN	-0.234804
-4.582476	AṬ-ṬIBB	-0.082962
-3.768079	B	-0.175687
-4.582476	B12	-0.082962
-4.582476	B4	-0.082962
-4.582476	BABEL	-0.082962
-4.582476	BACH	-0.082962
-4.582476	BACHI	-0.082962
-4.582476	BACILLUS	-0.082962
-4.318820	BACTERIA	-0.082962
-4.422795	BACTERIANAS	-0.082962
-4.582476	BACTERIANATRES	-0.082962
-3.823484	BACTERIAS	-0.170558
-4.582476	BACTERICIDA	-0.082962
-4.582476	BACTERIEMIA	-0.082962
-4.582476	BADÍA
-4.582476	BAILE	-0.082962
-3.718948	BAJA	-0.099884
-4.582476	BAJAR	-0.082962
-4.318820	BAJAS	-0.082962
-3.252774	BAJO	-0.323737
-4.051320	BAJOS	-0.082962
-4.582476	BAKER	-0.082962
-4.422795	BALANCE	-0.082962
-4.582476	BALEARES	-0.082962
-4.582476	BALL	-0.082962
-4.582476	BALTIMORE	-0.082962
-4.422795	BALÓN	-0.082962
-4.582476	BANALES	-0.082962
-4.422795	BANCO	-0.082962
-4.582476	BANDERA	-0.082962
-4.582476	BANDOS	-0.082962
-4.582476	BANWART	-0.082962
-4.582476	BAR	-0.082962
-4.422795	BARABASH	-0.206968
-4.582476	BARATO	-0.082962
-4.582476	BARATOS	-0.082962
-4.582476	BARBA	-0.082962
-4.582476	BARBEROS	-0.082962
-4.582476	BARBILLA	-0.082962
-4.582476	BARCA	-0.082962
-4.164792	BARCELONA	-0.082962
-4.582476	BAREMACIÓN	-0.082962
-4.164792	BAREMO	-0.082962
-4.422795	BAREMOS	-0.082962
-4.582476	BARIÁTRICA	-0.082962
-4.582476	BARIÁTRICAS	-0.082962
-4.582476	BARRADA	-0.082962
-4.422795	BARRAN	-0.082962
-4.582476	BARRANCO	-0.082962
-4.582476	BARRAS	-0.082962
-4.582476	BARRENECHEA	-0.082962
-4.051320	BARRERA	-0.120496
-4.582476	BARRIO	-0.082962
-4.582476	BARRIOS	-0.082962
-4.582476	BARROSO	-0.082962
-4.318820	BARRÁN	-0.140554
-4.582476	BARRÊME	-0.082962
-4.582476	BASA	-0.082962
-4.582476	BASABA	-0.082962
-4.582476	BASABAN	-0.082962
-3.887006	BASADA	-0.730987
-4.422795	BASADAS	-0.206968
-3.823484	BASADO	-0.788978
-4.582476	BASADOS	-0.082962
-4.422795	BASAN	-0.082962
-4.582476	BASARSE	-0.082962
-3.768079	BASE	-0.149825
-4.318820	BASES	-0.161584
-4.582476	BASIS	-0.082962
-4.422795	BASTA	-0.082962
-4.318820	BASTANTE	-0.082962
-4.582476	BASTONCILLO	-0.082962
-4.582476	BASTÓN	-0.082962
-4.422795	BASÁNDOSE	-0.206968
-4.582476	BATA	-0.082962
-4.422795	BATALLA	-0.082962
-4.422795	BATERÍA	-0.082962
-4.582476	BAUMANOMETROS	-0.082962
-4.582476	BAUTISTA	-0.082962
-4.582476	BAUTIZARON	-0.082962
-4.582476	BAVARIA	-0.082962
-4.582476	BAYCE	-0.082962
-4.318820	BAZO	-0.161584
-4.582476	BAÑO	-0.082962
-4.582476	BD	-0.082962
-4.582476	BDNF	-0.082962
-4.164792	BEBE	-0.133765
-4.582476	BEBER	-0.082962
-4.164792	BEBES	-0.082962
-4.422795	BEBIDA	-0.082962
-4.582476	BEBIE	-0.082962
-4.582476	BEHAVIORS	-0.082962
-4.422795	BEHRING	-0.206968
-4.582476	BELGICA	-0.082962
-4.582476	BELIGERANTES	-0.082962
-4.582476	BELLEZA	-0.082962
-4.318820	BELMONT	-0.082962
-4.582476	BENCE	-0.082962
-4.582476	BENEFICAS	-0.082962
-4.582476	BENEFICENCIA	-0.082962
-4.582476	BENEFICIA	-0.082962
-4.582476	BENEFICIARÍA	-0.082962
-3.768079	BENEFICIO	-0.204178
-3.961438	BENEFICIOS	-0.114932
-4.422795	BENEFICIOSA	-0.082962
-4.582476	BENEFICIOSAS	-0.082962
-4.582476	BENEFICIOSO	-0.082962
-4.422795	BENEFICIOSOS	-0.082962
-4.582476	BENEFICOS	-0.082962
-4.422795	BENENZON	-0.082962
-4.582476	BENIGNOS	-0.082962
-4.582476	BENITES	-0.082962
-4.582476	BENZODIACEPINAS	-0.082962
-4.582476	BENZOL	-0.082962
-4.582476	BERCIANO	-0.082962
-4.582476	BEREZNOWSKI	-0.082962
-4.582476	BERLÍN	-0.082962
-4.422795	BERNARD	-0.082962
-4.582476	BERNARDINO	-0.082962
-4.582476	BERNAT	-0.082962
-4.582476	BERWICK	-0.082962
-4.582476	BESCHWÖRUNGEN	-0.082962
-4.164792	BETA	-0.082962
-4.582476	BETACAROTENO	-0.082962
-4.582476	BETES	-0.082962
-4.422795	BETH	-0.206968
-4.582476	BIAN	-0.082962
-4.422795	BIBLIA	-0.082962
-4.422795	BIBLIOGRAFÍA	-0.082962
-4.422795	BIBLIOTECA	-0.082962
-4.318820	BICHOS	-0.082962
-4.582476	BICORNIO	-0.082962
-3.360338	BIEN	-0.106288
-4.051320	BIENESTAR	-0.226128
-4.582476	BILATERAL	-0.082962
-4.582476	BILIAR	-0.082962
-4.582476	BILIOPANCREATIC	-0.082962
-4.582476	BINOMIO	-0.082962
-4.582476	BIO-PSICO-SOCIAL	-0.082962
-4.582476	BIOACTIVO	-0.082962
-4.582476	BIOCOMPATIBLE	-0.082962
-4.422795	BIODISPONIBILIDAD	-0.082962
-4.582476	BIODIVERSIDAD	-0.082962
-4.582476	BIOEQUIVALENCIA	-0.082962
-4.582476	BIOEQUIVALENTE	-0.082962
-4.582476	BIOETICA	-0.082962
-4.582476	BIOETICAS	-0.082962
-4.582476	BIOFIRMA	-0.082962
-4.582476	BIOFISIOLÓGICOS	-0.082962
-4.582476	BIOGRAFÍA	-0.082962
-4.582476	BIOGRAFÍANACIÓ	-0.082962
-3.961438	BIOLOGÍA	-0.110804
-3.961438	BIOLÓGICA	-0.120496
-4.582476	BIOLÓGICAMENTE	-0.082962
-4.051320	BIOLÓGICAS	-0.082962
-4.318820	BIOLÓGICO	-0.082962
-3.823484	BIOLÓGICOS	-0.082962
-4.582476	BIOMEDICA	-0.082962
-4.582476	BIOMEDICAS	-0.082962
-4.422795	BIOMEDICINA	-0.082962
-4.582476	BIOMEDICO	-0.082962
-4.582476	BIOMEDICOS	-0.082962
-4.318820	BIOPSIA	-0.140554
-4.582476	BIOPSIADO	-0.082962
-3.961438	BIOPSIAS	-0.175687
-4.318820	BIOQUÍMICA	-0.161584
-4.422795	BIOQUÍMICO	-0.082962
-4.422795	BIOQUÍMICOS	-0.082962
-4.582476	BIOSEGURIDAD	-0.082962
-4.422795	BIOTA	-0.082962
-4.582476	BIOTECNOLOGÍA	-0.082962
-4.582476	BIOVIDRIO	-0.082962
-4.582476	BIPEDESTACIÓN	-0.082962
-4.582476	BIPOLAR	-0.082962
-4.582476	BIRTH	-0.082962
-4.582476	BISOÑEZ	-0.082962
-4.582476	BIZCOCHOS	-0.082962
-4.582476	BIÓLOGO	-0.082962
-4.582476	BIÓLOGOS	-0.082962
-4.318820	BLANCA	-0.082962
-4.422795	BLANCAS	-0.082962
-4.051320	BLANCO	-0.121004
-4.051320	BLANCOS	-0.128409
-4.582476	BLANDOS	-0.082962
-4.582476	BLANQUECINAS	-0.082962
-4.582476	BLANQUECINO	-0.082962
-4.582476	BLASTOCISTO	-0.082962
-4.582476	BLINDAJE	-0.082962
-4.582476	BLOOMBERG	-0.082962
-4.582476	BLOQUE	-0.082962
-4.582476	BLOQUEANDO	-0.082962
-4.318820	BLOQUEAR	-0.082962
-4.582476	BLOQUEOS	-0.082962
-4.582476	BLOTS	-0.082962
-4.582476	BMA	-0.082962
-4.582476	BMJ	-0.082962
-4.582476	BN	-0.082962
-4.422795	BOARD	-0.082962
-3.823484	BOCA	-0.155490
-4.582476	BOCA-BOCA	-0.082962
-4.582476	BODAS	-0.082962
-4.582476	BOE	-0.082962
-4.582476	BOESE	-0.082962
-4.582476	BOGA	-0.082962
-4.582476	BOGDUK
-4.582476	BOGOTÁ	-0.082962
-4.582476	BOLIVIA	-0.082962
-4.318820	BOLSA	-0.161584
-4.582476	BOLSILLO	-0.082962
-4.582476	BOLSILLOS	-0.082962
-4.422795	BOMBA	-0.082962
-4.582476	BOMBARDEO	-0.082962
-4.582476	BOMBEAR	-0.082962
-4.582476	BOMBEROS	-0.082962
-4.582476	BONALUMI	-0.082962
-4.582476	BONDAD	-0.082962
-3.887006	BONE	-0.187326
-4.582476	BONIFICACIONES	-0.082962
-4.582476	BOQUILLA	-0.082962
-4.422795	BORDE	-0.082962
-4.422795	BORRADOR	-0.082962
-4.582476	BORRARLO	-0.082962
-4.582476	BORRELIA	-0.082962
-4.582476	BOSQUE	-0.082962
-4.422795	BOSTON	-0.082962
-4.582476	BOSTÓN	-0.082962
-4.582476	BOTELLA	-0.082962
-4.582476	BOTICARIOS	-0.082962
-4.582476	BOUZA	-0.082962
-4.582476	BOVINA	-0.082962
-4.582476	BOYACÁ	-0.082962
-4.582476	BOYAN	-0.082962
-4.582476	BRACE	-0.082962
-4.422795	BRADLEY	-0.082962
-4.582476	BRAIN	-0.082962
-4.582476	BRAIN-DERIVED	-0.082962
-4.582476	BRANQUIAS	-0.082962
-4.582476	BRASIL	-0.082962
-4.582476	BRAZO	-0.082962
-4.164792	BRAZOS	-0.082962
-4.582476	BREAKTHROUGH	-0.082962
-4.582476	BRETAÑA	-0.082962
-3.961438	BREVE	-0.114932
-4.582476	BREVEMENTE	-0.082962
-4.582476	BRIGADAS	-0.082962
-4.582476	BRIGHAM	-0.082962
-4.422795	BRILLANTE	-0.082962
-4.582476	BRILLANTES	-0.082962
-4.582476	BRILLO	-0.082962
-4.582476	BRINDA	-0.082962
-4.582476	BRINDAN	-0.082962
-4.422795	BRINDANDO	-0.082962
-4.582476	BRINDARLES	-0.082962
-4.422795	BRITISH	-0.206968
-4.582476	BRITO	-0.082962
-4.582476	BRITTLE	-0.082962
-4.582476	BRITÁNICOS	-0.082962
-4.582476	BROCA	-0.082962
-4.582476	BRONCE	-0.082962
-4.422795	BRONCODILATADORA	-0.082962
-4.582476	BRONCODILATADORES	-0.082962
-4.582476	BRONCOESPASMO	-0.082962
-4.582476	BRONCOESPASMOS	-0.082962
-4.164792	BRONQUIAL	-0.140554
-4.582476	BRONQUIALES	-0.082962
-4.582476	BRONQUIOLITIS	-0.082962
-4.582476	BRONQUIOLOS	-0.082962
-4.582476	BROOK	-0.082962
-4.582476	BROTE	-0.082962
-4.422795	BROTES	-0.206968
-4.318820	BROWNE	-0.082962
-4.582476	BRUCE	-0.082962
-4.582476	BRUCEI	-0.082962
-4.582476	BRUCELLA	-0.082962
-4.582476	BRUCELOSIS	-0.082962
-4.318820	BRUJOS	-0.161584
-4.422795	BRUSCA	-0.082962
-4.422795	BRUSCIA	-0.082962
-4.422795	BRUSCO	-0.082962
-4.582476	BRUSCOS	-0.082962
-4.422795	BRUSHFIELD	-0.082962
-4.582476	BRUTA	-0.082962
-4.582476	BRUTAL	-0.082962
-4.318820	BUCEO	-0.082962
-4.582476	BUCKNELL	-0.082962
-4.582476	BUCOFARINGE	-0.082962
-4.582476	BUDA	-0.082962
-4.582476	BUDISMO	-0.082962
-4.582476	BUDISTA	-0.082962
-4.051320	BUEN	-0.107621
-4.318820	BUENA	-0.082962
-4.582476	BUENO	-0.082962
-4.318820	BUENOS	-0.363010
-4.582476	BUEY	-0.082962
-4.582476	BUGMAN	-0.082962
-4.582476	BUJÍA	-0.082962
-4.582476	BULBO	-0.082962
-4.582476	BULLAS	-0.082962
-4.582476	BULLETIN	-0.082962
-4.582476	BULTO	-0.082962
-4.422795	BURBUJA	-0.082962
-4.582476	BURGDORFERI	-0.082962
-4.582476	BURKHARD	-0.082962
-4.582476	BURNET	-0.082962
-4.582476	BUROCRATIZACIÓN	-0.082962
-4.318820	BUSCA	-0.082962
-4.582476	BUSCAN	-0.082962
-4.422795	BUSCANDO	-0.082962
-4.422795	BUSCAR	-0.082962
-4.422795	BUSCÓ	-0.082962
-4.582476	BUSTAMANTE	-0.082962
-4.582476	BUTANOL	-0.082962
-4.422795	BY	-0.082962
-4.582476	BY-PASS	-0.082962
-4.422795	BYPASS	-0.082962
-4.582476	BYSTANDER	-0.082962
-4.422795	BÁCULO	-0.161584
-4.582476	BÁCULOSES	-0.082962
-4.582476	BÁRBARA	-0.082962
-4.582476	BÁSICA	-0.082962
-4.582476	BÁSICAMENTE	-0.082962
-3.961438	BÁSICAS	-0.149766
-3.887006	BÁSICO	-0.140554
-4.164792	BÁSICOS	-0.082962
-4.582476	BÍFIDA	-0.082962
-4.582476	BÖCK	-0.082962
-4.318820	BÚSQUEDA	-0.082962
-4.051320	C	-0.082962
-4.582476	C-A-B	-0.082962
-4.582476	C10ORF59	-0.082962
-4.582476	C30H31N6CL	-0.082962
-4.582476	C5	-0.082962
-4.422795	C57BL	-0.082962
-4.318820	C6	-0.082962
-4.318820	C7	-0.082962
-4.582476	C8	-0.082962
-4.582476	CA	-0.082962
-4.582476	CABALLERO	-0.082962
-4.582476	CABALLOS	-0.082962
-4.422795	CABE	-0.082962
-4.422795	CABECERA	-0.082962
-4.582476	CABELLO	-0.082962
-4.582476	CABELLUDO	-0.082962
-4.164792	CABEZA	-0.117491
-4.582476	CABILDO	-0.082962
-4.422795	CABO	-0.096660
-4.582476	CABRA	-0.082962
-4.318820	CABRERIZO	-0.363010
-4.582476	CABÁS	-0.082962
-4.582476	CACAHUETES	-0.082962
-3.207572	CADA	-0.232139
-4.318820	CADENA	-0.128409
-4.582476	CADERA	-0.082962
-4.582476	CADERAS	-0.082962
-4.582476	CADUCEO	-0.082962
-4.582476	CADÁVER	-0.082962
-4.422795	CADÁVERES	-0.082962
-4.582476	CAER	-0.082962
-4.582476	CAFE	-0.082962
-4.582476	CAIGA	-0.082962
-4.582476	CAJAL	-0.082962
-4.582476	CAJAS	-0.082962
-4.582476	CALCIFICACIONES	-0.082962
-4.582476	CALCIFICADA	-0.082962
-4.582476	CALCIFICADO	-0.082962
-4.318820	CALCIO	-0.082962
-4.422795	CALCULA	-0.082962
-4.582476	CALCULAN	-0.082962
-4.422795	CALCULAR	-0.082962
-4.422795	CALDAS	-0.082962
-4.582476	CALDERÓN	-0.082962
-4.582476	CALENTAR	-0.082962
-4.582476	CALI	-0.082962
-4.318820	CALIBRE	-0.082962
-3.961438	CALIDAD	-0.138558
-4.582476	CALIDADES	-0.082962
-4.422795	CALIENTE	-0.082962
-4.582476	CALIFICADO	-0.082962
-4.582476	CALIFICAN	-0.082962
-4.582476	CALIFICAR	-0.082962
-4.051320	CALIFORNIA	-0.128409
-4.582476	CALL	-0.082962
-4.582476	CALLEJERA	-0.082962
-4.582476	CALLES	-0.082962
-4.582476	CALMAR	-0.082962
-4.164792	CALOR	-0.082962
-4.582476	CALOSTRO	-0.082962
-4.582476	CALVICIE	-0.082962
-4.422795	CAMA	-0.206968
-4.582476	CAMAREROS	-0.082962
-4.582476	CAMAS	-0.082962
-4.582476	CAMBIA	-0.082962
-4.422795	CAMBIAN	-0.082962
-4.164792	CAMBIAR	-0.274372
-4.582476	CAMBIARON	-0.082962
-4.582476	CAMBIARÁ	-0.082962
-4.582476	CAMBIE	-0.082962
-3.718948	CAMBIO	-0.187377
-3.321447	CAMBIOS	-0.262700
-4.582476	CAMBIÓ	-0.082962
-4.582476	CAMBOYA	-0.082962
-4.582476	CAME	-0.082962
-4.582476	CAMILLA	-0.082962
-4.582476	CAMILLAS	-0.082962
-4.422795	CAMINAR	-0.082962
-4.582476	CAMINO	-0.082962
-4.582476	CAMPAMENTO	-0.082962
-4.582476	CAMPANA	-0.082962
-4.318820	CAMPAÑA	-0.161584
-4.582476	CAMPAÑAS	-0.082962
-4.582476	CAMPBELL	-0.082962
-3.823484	CAMPO	-0.128409
-3.887006	CAMPOS	-0.140554
-3.718948	CAMPUS	-0.306083
-4.582476	CAMU-CAMU	-0.082962
-4.582476	CANADIAN	-0.082962
-4.582476	CANADIENSE	-0.082962
-4.318820	CANADÁ	-0.082962
-4.164792	CANAL	-0.179173
-4.582476	CANALES	-0.082962
-4.582476	CANALIZAR	-0.082962
-4.422795	CANARIA	-0.082962
-4.422795	CANARIAS	-0.140554
-4.582476	CANARIO	-0.082962
-4.582476	CANAS	-0.082962
-4.422795	CANCEROSAS	-0.082962
-4.422795	CANCIONES	-0.082962
-4.582476	CANCIÓN	-0.082962
-4.582476	CANDELA	-0.082962
-4.422795	CANDIDATOS	-0.082962
-4.582476	CANDIDATURAS	-0.082962
-4.422795	CANINAS	-0.082962
-4.582476	CANINOS	-0.082962
-4.318820	CANIS	-0.082962
-4.582476	CANON	-0.082962
-4.582476	CANSADO	-0.082962
-4.318820	CANSANCIO	-0.082962
-4.582476	CANTABAN	-0.082962
-4.422795	CANTABRIA	-0.082962
-4.582476	CANTANDO	-0.082962
-4.582476	CANTAR	-0.082962
-3.961438	CANTIDAD	-0.307929
-4.318820	CANTIDADES	-0.140554
-4.582476	CANTO	-0.082962
-4.582476	CANÓNICO	-0.082962
-4.318820	CAPACES	-0.363010
-4.582476	CAPACIAD	-0.082962
-3.887006	CAPACIDAD	-0.189710
-4.318820	CAPACIDADES	-0.161584
-4.582476	CAPACITA	-0.082962
-4.582476	CAPACITACIONES	-0.082962
-4.422795	CAPACITACIÓN	-0.082962
-4.582476	CAPACITADA	-0.082962
-4.582476	CAPACITADO	-0.082962
-4.582476	CAPACITADOS	-0.082962
-4.582476	CAPACITAR	-0.082962
-4.582476	CAPADOCIA	-0.082962
-4.422795	CAPAS	-0.082962
-3.674815	CAPAZ	-0.927281
-4.582476	CAPECCI	-0.082962
-4.164792	CAPILAR	-0.128409
-4.582476	CAPILARES	-0.082962
-4.582476	CAPILARIDAD	-0.082962
-4.582476	CAPITACIÓN	-0.082962
-4.582476	CAPITAL	-0.082962
-4.422795	CAPITALISTA	-0.082962
-4.582476	CAPITALISTAS	-0.082962
-4.582476	CAPITÁN	-0.082962
-4.582476	CAPNÓGRAFOSIRVE	-0.082962
-4.582476	CAPNÓMETRO	-0.082962
-4.582476	CAPTAR	-0.082962
-4.582476	CAPTURÓ	-0.082962
-4.582476	CAPULLO	-0.082962
-4.051320	CAPÍTULO	-0.082962
-4.051320	CARA	-0.179173
-4.422795	CARACTERES	-0.082962
-4.582476	CARACTERIZA	-0.082962
-4.582476	CARACTERIZABA	-0.082962
-4.582476	CARACTERIZACIÓN	-0.082962
-4.051320	CARACTERIZADA	-0.584858
-4.422795	CARACTERIZADO	-0.206968
-4.582476	CARACTERIZADOS	-0.082962
-4.582476	CARACTERIZAN	-0.082962
-4.582476	CARACTERIZAR	-0.082962
-4.582476	CARACTERIZÁNDOLOS	-0.082962
-4.051320	CARACTERÍSTICA	-0.082962
-3.674815	CARACTERÍSTICAS	-0.114932
-4.582476	CARACTERÍSTICASEL	-0.082962
-4.582476	CARACTERÍSTICASEXISTEN	-0.082962
-4.582476	CARACTERÍSTICO	-0.082962
-4.164792	CARACTERÍSTICOS	-0.274372
-4.582476	CARAS	-0.082962
-4.582476	CARBONATO	-0.082962
-4.582476	CARBONO	-0.082962
-4.582476	CARBUNCO	-0.082962
-4.582476	CARBÓNICO	-0.082962
-4.582476	CARCINOMA	-0.082962
-4.582476	CARDIAC	-0.082962
-4.051320	CARDIACA	-0.082962
-4.582476	CARDIACAS	-0.082962
-4.422795	CARDIACO	-0.082962
-4.582476	CARDIO-PULMONAR	-0.082962
-4.422795	CARDIOLOGÍA	-0.082962
-4.582476	CARDIOLÓGICA	-0.082962
-4.582476	CARDIOMIOPATÍA	-0.082962
-4.582476	CARDIOPATÍA	-0.082962
-4.422795	CARDIOPATÍAS	-0.082962
-4.582476	CARDIOPROTECTOR	-0.082962
-4.422795	CARDIOPULMONAR	-0.082962
-4.582476	CARDIOPULMONARY	-0.082962
-4.422795	CARDIORESPIRATORIA	-0.082962
-4.422795	CARDIORRESPIRATORIA	-0.082962
-4.582476	CARDIOTOMÍAS	-0.082962
-4.582476	CARDIOTORÁCICA	-0.082962
-3.887006	CARDIOVASCULAR	-0.082962
-4.051320	CARDIOVASCULARES	-0.082962
-4.318820	CARDIOVIRUS	-0.082962
-4.582476	CARDONES	-0.082962
-4.582476	CARDONESEN	-0.082962
-3.823484	CARDÍACA	-0.149766
-4.164792	CARDÍACAS	-0.082962
-4.582476	CARDÍACASSE	-0.082962
-3.718948	CARDÍACO	-0.203047
-4.582476	CARDÍACOACERCAMIENTO	-0.082962
-4.422795	CARDÍACOS	-0.082962
-4.318820	CARE	-0.082962
-4.422795	CARECE	-0.206968
-4.318820	CARECEN	-0.363010
-4.582476	CARECÍAN	-0.082962
-4.582476	CARENCIALES	-0.082962
-4.422795	CARENCIAS	-0.082962
-4.582476	CARENTES	-0.082962
-4.164792	CARGA	-0.082962
-4.582476	CARGAR	-0.082962
-4.582476	CARGO	-0.082962
-4.582476	CARGOS	-0.082962
-4.582476	CARICIAS	-0.082962
-4.422795	CARIDAD	-0.082962
-4.164792	CARIES	-0.082962
-4.582476	CARIOTIPO	-0.082962
-4.582476	CARISMA	-0.082962
-4.582476	CARISMÁTICOS	-0.082962
-4.582476	CARITATIVAS	-0.082962
-4.582476	CARIZ	-0.082962
-4.318820	CARLOS	-0.082962
-4.582476	CARNÍVOROS	-0.082962
-4.582476	CAROS	-0.082962
-4.582476	CAROTÍDEO	-0.082962
-4.582476	CARPINTEROS	-0.082962
-4.582476	CARPO	-0.082962
-4.582476	CARREON	-0.082962
-4.164792	CARRERA	-0.082962
-4.422795	CARRERAS	-0.140554
-4.422795	CARTA	-0.206968
-4.582476	CARTAGENA	-0.082962
-4.422795	CARTAS	-0.082962
-4.582476	CARTÍLAGO	-0.082962
-3.961438	CARÁCTER	-0.082962
-3.961438	CASA	-0.120496
-4.582476	CASARES	-0.082962
-4.582476	CASAS	-0.082962
-4.582476	CASCADA	-0.082962
-4.582476	CASERA	-0.082962
-4.582476	CASEY	-0.082962
-4.582476	CASEÍNA	-0.082962
-3.598083	CASI	-0.098653
-3.634757	CASO	-0.152062
-3.476224	CASOS	-0.225583
-4.422795	CASTAÑEDA	-0.082962
-4.582476	CASTELLANO	-0.082962
-4.582476	CASTELLET	-0.082962
-4.582476	CASTILLA-LA	-0.082962
-4.582476	CASTILLA-LEÓN	-0.082962
-4.422795	CASTLE	-0.082962
-4.582476	CATAFERÓMETRO	-0.082962
-4.582476	CATALOGO	-0.082962
-4.582476	CATALOGÁNDOLO	-0.082962
-4.582476	CATALUNYA	-0.082962
-4.318820	CATALUÑA	-0.082962
-4.422795	CATECOLAMINAS	-0.082962
-4.422795	CATEDRÁTICO	-0.082962
-4.582476	CATEGORIZACIONES	-0.082962
-4.582476	CATEGORIZACIÓN	-0.082962
-4.582476	CATEGORÍA	-0.082962
-4.318820	CATEGORÍAS	-0.082962
-4.318820	CATETER	-0.120496
-4.582476	CATETERES	-0.082962
-4.582476	CATORCE	-0.082962
-4.582476	CATUS	-0.082962
-4.582476	CATÁLOGO	-0.082962
-4.422795	CATÁSTROFE	-0.206968
-4.582476	CATÁSTROFES	-0.082962
-4.582476	CATÓLICA	-0.082962
-4.582476	CAUCHO	-0.082962
-4.582476	CAUCÁSICA	-0.082962
-4.582476	CAUDAL	-0.082962
-4.582476	CAUDILLO	-0.082962
-3.634757	CAUSA	-0.116162
-4.318820	CAUSADA	-0.363010
-4.422795	CAUSADAS	-0.206968
-4.422795	CAUSADO	-0.082962
-4.318820	CAUSADOS	-0.363010
-4.318820	CAUSAL	-0.082962
-4.582476	CAUSALIDAD	-0.082962
-4.164792	CAUSAN	-0.082962
-4.422795	CAUSANDO	-0.082962
-4.422795	CAUSANTE	-0.161584
-3.961438	CAUSAR	-0.082962
-4.422795	CAUSARON	-0.082962
-3.768079	CAUSAS	-0.143250
-4.582476	CAUSÁNDOSE	-0.082962
-4.582476	CAVA	-0.082962
-4.582476	CAVERNAS	-0.082962
-4.582476	CAVIDAD	-0.082962
-4.582476	CAVIDADES	-0.082962
-4.422795	CAYADO	-0.206968
-4.582476	CAYCEDO	-0.082962
-3.768079	CAÍDA	-0.233084
-4.582476	CAÍDO	-0.082962
-4.582476	CBS	-0.082962
-4.582476	CCLEM	-0.082962
-4.582476	CCN	-0.082962
-4.582476	CCP	-0.082962
-4.582476	CCSEM	-0.082962
-4.582476	CD2	-0.082962
-4.582476	CD25	-0.082962
-4.164792	CD3	-0.128409
-4.582476	CD5	-0.082962
-4.582476	CD8	-0.082962
-4.164792	CDC	-0.082962
-4.582476	CDPM	-0.082962
-4.582476	CE	-0.082962
-4.422795	CEBADA	-0.082962
-4.582476	CECILE	-0.082962
-4.582476	CECIM	-0.082962
-4.422795	CEFALEA	-0.082962
-4.582476	CEFALEAS	-0.082962
-4.582476	CEFALORRAQUIDEO	-0.082962
-4.582476	CEFALORRAQUÍDEO	-0.082962
-4.318820	CEGUERA	-0.082962
-4.582476	CELEBRA	-0.082962
-4.582476	CELEBRACIÓN	-0.082962
-4.582476	CELEBRADA	-0.082962
-4.582476	CELEBRÓ	-0.082962
-4.582476	CELERA	-0.082962
-4.582476	CELIAC	-0.082962
-4.422795	CELIAQUÍA	-0.082962
-4.582476	CELLS	-0.082962
-4.582476	CELO	-0.082962
-4.318820	CELULA	-0.105091
-3.887006	CELULAR	-0.082962
-4.164792	CELULARES	-0.082962
-4.582476	CELULARIDAD	-0.082962
-3.503635	CELULAS	-0.134136
-4.422795	CELULOSA	-0.082962
-4.164792	CELÍACA	-0.099043
-4.318820	CELÍACO	-0.082962
-3.961438	CELÍACOS	-0.221497
-4.582476	CENTAURO	-0.082962
-4.582476	CENTENAR	-0.082962
-4.318820	CENTENO	-0.082962
-4.582476	CENTER	-0.082962
-4.422795	CENTERS	-0.206968
-4.422795	CENTINELA	-0.206968
-4.582476	CENTRA	-0.082962
-4.582476	CENTRADA	-0.082962
-4.582476	CENTRADAS	-0.082962
-4.422795	CENTRADO	-0.206968
-3.823484	CENTRAL	-0.149766
-4.582476	CENTRALIZADO	-0.082962
-4.582476	CENTRAR	-0.082962
-4.582476	CENTRIFUGADORAS	-0.082962
-3.961438	CENTRO	-0.191405
-4.582476	CENTROAMERICA	-0.082962
-4.582476	CENTROEUROPEO	-0.082962
-3.564266	CENTROS	-0.357130
-4.582476	CENTRÁNDONOS	-0.082962
-4.422795	CENTRÁNDOSE	-0.206968
-4.582476	CENTÍMETROS	-0.082962
-3.887006	CEPA	-0.165356
-4.164792	CEPAS	-0.128409
-4.582476	CERA	-0.082962
-3.718948	CERCA	-0.672312
-4.582476	CERCANA	-0.082962
-4.582476	CERCANAS	-0.082962
-4.582476	CERCANO	-0.082962
-4.422795	CERCANOS	-0.082962
-4.582476	CERCENAR	-0.082962
-4.582476	CERCIORARSE	-0.082962
-4.582476	CERDOS	-0.082962
-4.582476	CEREAL	-0.082962
-4.051320	CEREALES	-0.110804
-4.582476	CEREBELO	-0.082962
-3.598083	CEREBRAL	-0.223589
-4.422795	CEREBRALES	-0.082962
-4.164792	CEREBRO	-0.117491
-4.582476	CEREBROESPINAL	-0.082962
-4.582476	CEREBROS	-0.082962
-4.582476	CEREBROVASCULAR	-0.082962
-4.422795	CEREMONIA	-0.082962
-4.582476	CERRABAN	-0.082962
-4.582476	CERRADA	-0.082962
-4.582476	CERRADAS	-0.082962
-4.318820	CERRADO	-0.082962
-4.164792	CERRAR	-0.082962
-4.582476	CERRARSE	-0.082962
-4.582476	CERTIFICA	-0.082962
-4.582476	CERTIFICACIÓN	-0.082962
-4.582476	CERTIFICADOS	-0.082962
-4.582476	CERTIFICARSE	-0.082962
-4.582476	CERTIFICATE	-0.082962
-4.582476	CERVICAL	-0.082962
-4.422795	CERVIX	-0.082962
-4.582476	CERÁMICA	-0.082962
-4.422795	CESA	-0.082962
-4.582476	CESADO	-0.082962
-4.582476	CESAR	-0.082962
-4.582476	CESTODOS	-0.082962
-4.582476	CESÁREA	-0.082962
-4.582476	CETOSIS	-0.082962
-4.582476	CF	-0.082962
-4.582476	CH	-0.082962
-4.582476	CHACE	-0.082962
-4.582476	CHAIN	-0.082962
-4.582476	CHALLENGING	-0.082962
-4.582476	CHAMANES	-0.082962
-4.582476	CHAMBERS	-0.082962
-4.582476	CHAMISSOI	-0.082962
-4.582476	CHANG	-0.082962
-4.582476	CHARACTERISTIC	-0.082962
-4.164792	CHARAKA	-0.082962
-4.582476	CHARAKA-SAMJITA	-0.082962
-4.582476	CHARCOT	-0.082962
-4.582476	CHAVEZ	-0.082962
-4.582476	CHEIN-FU	-0.082962
-4.582476	CHEMTRAILS	-0.082962
-4.582476	CHEQUEO	-0.082962
-4.422795	CHEQUEOS	-0.082962
-4.582476	CHICAGO	-0.082962
-4.582476	CHICO	-0.082962
-4.582476	CHILDREN'S	-0.082962
-4.318820	CHILE	-0.082962
-4.582476	CHILENAS	-0.082962
-3.674815	CHINA	-0.099884
-4.582476	CHINAS	-0.082962
-4.422795	CHINO	-0.082962
-4.582476	CHIP	-0.082962
-4.582476	CHLAMYDIAE	-0.082962
-4.582476	CHOCA	-0.082962
-4.582476	CHONDRACANTHUS	-0.082962
-4.582476	CHOQUE	-0.082962
-4.582476	CHOU	-0.082962
-4.422795	CHRONIC	-0.082962
-4.582476	CHRONICLE	-0.082962
-4.582476	CIA	-0.082962
-4.422795	CIAP	-0.082962
-4.582476	CIBERNETICAS	-0.082962
-4.582476	CIBOT	-0.082962
-4.582476	CICATRIZACIÓN	-0.082962
-4.582476	CICATRIZADO	-0.082962
-4.582476	CICATRIZAR	-0.082962
-3.961438	CICLO	-0.114932
-3.961438	CICLOS	-0.149442
-4.422795	CICLOSPORINA	-0.082962
-4.582476	CICONIIFORMES	-0.082962
-4.582476	CIE-10	-0.082962
-4.582476	CIEGAS	-0.082962
-4.582476	CIEN	-0.082962
-3.823484	CIENCIA	-0.126855
-3.823484	CIENCIAS	-0.228678
-4.582476	CIENTO	-0.082962
-4.318820	CIENTOS	-0.363010
-3.403057	CIENTÍFICA	-0.237280
-4.582476	CIENTÍFICAMENTE	-0.082962
-3.768079	CIENTÍFICAS	-0.101324
-4.582476	CIENTÍFICASLOS	-0.082962
-3.476224	CIENTÍFICO	-0.149682
-3.598083	CIENTÍFICOS	-0.164389
-4.422795	CIERRA	-0.082962
-4.422795	CIERRE	-0.082962
-4.164792	CIERTA	-0.082962
-4.582476	CIERTAMENTE	-0.082962
-3.961438	CIERTAS	-0.082962
-4.051320	CIERTO	-0.082962
-3.961438	CIERTOS	-0.082962
-4.318820	CIFRA	-0.082962
-4.582476	CIFRAS	-0.082962
-4.582476	CIGÜEÑAS	-0.082962
-4.582476	CILÍNDRICO	-0.082962
-4.582476	CIMEL	-0.082962
-4.582476	CIMEX	-0.082962
-4.582476	CIMIENTOS	-0.082962
-3.768079	CINCO	-0.128409
-3.961438	CINCUENTA	-0.120496
-4.582476	CINESTESICA	-0.082962
-4.582476	CINTA	-0.082962
-4.582476	CINTAS	-0.082962
-4.582476	CIRCAANUAL	-0.082962
-4.582476	CIRCADIANA	-0.082962
-4.582476	CIRCADIANO	-0.082962
-4.582476	CIRCALUNAR	-0.082962
-4.582476	CIRCAMAREAL	-0.082962
-4.582476	CIRCAMAREALES	-0.082962
-4.582476	CIRCUITOS	-0.082962
-4.582476	CIRCULA	-0.082962
-3.961438	CIRCULACIÓN	-0.097589
-4.582476	CIRCULANTE	-0.082962
-3.887006	CIRCULAR	-0.082962
-4.582476	CIRCULATORIA	-0.082962
-4.582476	CIRCULATORIAS	-0.082962
-4.422795	CIRCULATORIO	-0.082962
-4.422795	CIRCULE	-0.082962
-4.582476	CIRCULO	-0.082962
-4.582476	CIRCUNDANTES	-0.082962
-4.422795	CIRCUNSTANCIA	-0.082962
-4.318820	CIRCUNSTANCIAS	-0.082962
-4.582476	CIRCUNVOLUCIÓN	-0.082962
-4.164792	CIRROSIS	-0.140554
-3.564266	CIRUGÍA	-0.159653
-4.582476	CIRUGÍA1958-1964	-0.082962
-4.582476	CIRUGÍAS	-0.082962
-3.823484	CIRUJANO	-0.105091
-3.768079	CIRUJANOS	-0.149766
-4.422795	CITA	-0.082962
-4.422795	CITADOS	-0.082962
-4.582476	CITANDO	-0.082962
-4.582476	CITAR	-0.082962
-4.582476	CITAS	-0.082962
-4.582476	CITOCROMO	-0.082962
-4.582476	CITOLÍTICAS	-0.082962
-4.582476	CITOLÓGICO	-0.082962
-4.582476	CITOPLASMA	-0.082962
-4.582476	CITOPROTECTOR	-0.082962
-4.582476	CITOQUINAS	-0.082962
-4.582476	CITOTÓXICAS	-0.082962
-4.582476	CITOVSKY	-0.082962
-4.164792	CIUDAD	-0.120496
-4.582476	CIUDADANO	-0.082962
-4.318820	CIUDADANOS	-0.082962
-4.582476	CIUDADES	-0.082962
-4.582476	CIUTAT	-0.082962
-4.582476	CIVALLERI	-0.082962
-4.318820	CIVIL	-0.082962
-4.422795	CIVILES	-0.082962
-4.582476	CIVILIZACIONES	-0.082962
-4.582476	CLAMIDIAS	-0.082962
-4.582476	CLARA	-0.082962
-4.422795	CLARAMENTE	-0.082962
-4.582476	CLARAS	-0.082962
-4.582476	CLAREARSE	-0.082962
-4.422795	CLARENCE	-0.082962
-4.582476	CLARITROMICINA	-0.082962
-4.164792	CLARO	-0.082962
-4.422795	CLAROS	-0.082962
-3.961438	CLASE	-0.120496
-4.318820	CLASES	-0.082962
-4.422795	CLASIFICA	-0.082962
-4.582476	CLASIFICACIONES	-0.082962
-3.823484	CLASIFICACIÓN	-0.159571
-4.582476	CLASIFICADOS	-0.082962
-4.422795	CLASIFICAN	-0.082962
-4.582476	CLASIFICANDO	-0.082962
-4.164792	CLASIFICAR	-0.082962
-4.582476	CLASSIFICATION	-0.082962
-4.582476	CLAUDE	-0.082962
-4.582476	CLAUDIO	-0.082962
-4.164792	CLAVE	-0.082962
-4.422795	CLAVES	-0.082962
-4.582476	CLICK	-0.082962
-4.318820	CLIENTE	-0.082962
-4.582476	CLIENTELA	-0.082962
-4.582476	CLIENTES	-0.082962
-4.582476	CLIMA	-0.082962
-4.582476	CLIMÁTICAS	-0.082962
-4.582476	CLIMÁTICO	-0.082962
-4.582476	CLINIC	-0.082962
-4.422795	CLINICAL	-0.082962
-4.582476	CLON	-0.082962
-4.582476	CLONACIÓN	-0.082962
-4.422795	CLONAL	-0.082962
-4.582476	CLONAR	-0.082962
-4.582476	CLOPIDOGREL	-0.082962
-4.582476	CLORGILINA	-0.082962
-4.582476	CLOROFORMO	-0.082962
-4.582476	CLORPROMAZINA	-0.082962
-4.422795	CLORURO	-0.082962
-4.051320	CLÁSICA	-0.082962
-4.422795	CLÁSICAMENTE	-0.082962
-4.422795	CLÁSICAS	-0.082962
-4.422795	CLÁSICO	-0.082962
-4.164792	CLÁSICOS	-0.128409
-4.582476	CLÍNIC	-0.082962
-3.222123	CLÍNICA	-0.177426
-4.582476	CLÍNICAESTE	-0.082962
-3.718948	CLÍNICAS	-0.124075
-4.582476	CLÍNICASES	-0.082962
-3.532893	CLÍNICO	-0.123496
-4.582476	CLÍNICOLAS	-0.082962
-3.564266	CLÍNICOS	-0.120496
-4.582476	CLÍNICOSLAS	-0.082962
-3.887006	CM	-0.114932
-4.582476	CM2	-0.082962
-4.318820	CND	-0.161584
-4.582476	CNS	-0.082962
-4.422795	CO	-0.082962
-4.164792	CO2	-0.082962
-4.582476	COADYUVANTE	-0.082962
-4.582476	COADYUVANTES	-0.082962
-4.422795	COAGULACIÓN	-0.082962
-4.582476	COALESCENTES	-0.082962
-4.582476	COARTACIÓN	-0.082962
-4.422795	COAST	-0.082962
-4.582476	COAT	-0.082962
-4.422795	COBERTURA	-0.082962
-4.582476	COBRADO	-0.082962
-4.582476	COBRANDO	-0.082962
-4.318820	COBRE	-0.082962
-4.582476	COCHE	-0.082962
-4.582476	COCHRANE	-0.082962
-4.582476	COCIENTE	-0.082962
-4.422795	COCINAR	-0.082962
-4.582476	COCINEROS	-0.082962
-4.582476	CODE	-0.082962
-4.422795	CODIFICA	-0.082962
-4.582476	CODIFICACIÓN	-0.082962
-4.582476	CODIFICADA	-0.082962
-4.582476	CODIFICADO	-0.082962
-4.318820	CODIFICAN	-0.082962
-4.582476	CODIFICAR	-0.082962
-4.582476	CODIFICÓ	-0.082962
-4.422795	CODOS	-0.082962
-4.582476	COEFICIENTE	-0.082962
-4.582476	COELIAC	-0.082962
-4.422795	COESPECIACIÓN	-0.161584
-4.582476	COESPECIADO	-0.082962
-4.582476	COETÁNEO	-0.082962
-4.582476	COEVOLUCIONAN	-0.082962
-4.582476	COEXISTENCIA	-0.082962
-4.582476	COGIDA	-0.082962
-4.422795	COGNITIVA	-0.082962
-4.582476	COGNITIVAS	-0.082962
-4.164792	COGNITIVO	-0.082962
-4.582476	COGNITIVO-LINGÜÍSTICA	-0.082962
-4.582476	COHERENCIA	-0.082962
-4.582476	COIL	-0.082962
-4.422795	COINCIDENCIA	-0.082962
-4.582476	COINCIDENTES	-0.082962
-4.422795	COLA	-0.082962
-4.318820	COLABORACIÓN	-0.082962
-4.582476	COLABORACIÓNEL	-0.082962
-4.582476	COLABORADOR	-0.082962
-4.318820	COLABORADORES	-0.082962
-4.582476	COLABORAR	-0.082962
-4.582476	COLABOREN	-0.082962
-4.582476	COLAGENOSIS	-0.082962
-4.318820	COLAPSO	-0.082962
-4.318820	COLATERAL	-0.082962
-4.582476	COLATERALES	-0.082962
-4.582476	COLCHONETAS	-0.082962
-4.582476	COLE	-0.082962
-4.582476	COLECCIONISMO	-0.082962
-4.582476	COLECTIVAMENTE	-0.082962
-4.582476	COLECTIVIDAD	-0.082962
-4.582476	COLECTIVO	-0.082962
-4.582476	COLEGAS	-0.082962
-4.582476	COLEGIACIÓN	-0.082962
-4.422795	COLEGIADOS	-0.082962
-4.582476	COLEGIAL	-0.082962
-4.582476	COLEGIARSE	-0.082962
-4.318820	COLEGIO	-0.161584
-4.582476	COLEGIOS	-0.082962
-4.582476	COLEY	-0.082962
-4.582476	COLGADOS	-0.082962
-4.582476	COLGANDO	-0.082962
-4.582476	COLIFLOR	-0.082962
-4.582476	COLLADO	-0.082962
-4.582476	COLLECTION	-0.082962
-4.582476	COLMENA	-0.082962
-4.422795	COLOCA	-0.161584
-4.051320	COLOCACIÓN	-0.584858
-4.164792	COLOCADO	-0.082962
-4.422795	COLOCAN	-0.161584
-4.422795	COLOCANDO	-0.082962
-4.164792	COLOCAR	-0.082962
-4.582476	COLOCARLA	-0.082962
-4.582476	COLOCARSE	-0.082962
-4.582476	COLOCARÁ	-0.082962
-4.164792	COLOMBIA	-0.101324
-4.582476	COLOMBIANA	-0.082962
-4.582476	COLOMBIANAS	-0.082962
-4.582476	COLOMBIANO	-0.082962
-4.422795	COLON	-0.082962
-4.582476	COLONIA	-0.082962
-4.582476	COLONIAS	-0.082962
-4.582476	COLONIZAR	-0.082962
-4.051320	COLONOSCOPIA	-0.124075
-4.582476	COLONOSCOPIAS	-0.082962
-4.582476	COLONOSCOPIO	-0.082962
-4.582476	COLOQUE	-0.082962
-4.051320	COLOR	-0.120496
-4.582476	COLORACIÓN	-0.082962
-4.582476	COLORANTE	-0.082962
-4.582476	COLOREAR	-0.082962
-4.318820	COLORES	-0.082962
-4.582476	COLS	-0.082962
-4.582476	COLUMBIA	-0.082962
-4.422795	COLUMNA	-0.082962
-4.582476	COLÁGENO	-0.082962
-4.582476	COMBATE	-0.082962
-4.582476	COMBATIENTES	-0.082962
-4.582476	COMBATIR	-0.082962
-4.582476	COMBATIRLA	-0.082962
-4.318820	COMBINA	-0.082962
-4.582476	COMBINABAN	-0.082962
-4.164792	COMBINACIÓN	-0.140554
-4.422795	COMBINADO	-0.082962
-4.582476	COMBINADOS	-0.082962
-4.582476	COMBINAN	-0.082962
-4.582476	COMBINAR	-0.082962
-4.582476	COMBINED	-0.082962
-4.422795	COMBUSTIÓN	-0.082962
-4.582476	COMENTARÁN	-0.082962
-4.582476	COMENTÓ	-0.082962
-4.582476	COMENZADO	-0.082962
-4.318820	COMENZAR	-0.274372
-4.318820	COMENZARON	-0.228747
-3.887006	COMENZÓ	-0.168206
-3.634757	COMERCIAL	-0.142530
-4.051320	COMERCIALES	-0.082962
-4.582476	COMERCIALICEN	-0.082962
-4.422795	COMERCIALIZA	-0.082962
-4.422795	COMERCIALIZACIÓN	-0.082962
-4.582476	COMERCIALIZADA	-0.082962
-4.422795	COMERCIALMENTE	-0.082962
-4.582476	COMETE	-0.082962
-4.582476	COMETIDOS	-0.082962
-4.582476	COMIDAS	-0.082962
-4.582476	COMIENDO	-0.082962
-3.634757	COMIENZA	-0.379059
-4.164792	COMIENZAN	-0.487948
-4.422795	COMIENZO	-0.161584
-4.422795	COMIENZOS	-0.082962
-4.582476	COMISARIO	-0.082962
-4.582476	COMISIONES	-0.082962
-4.318820	COMISIÓN	-0.133765
-3.961438	COMITE	-0.325524
-4.582476	COMITES	-0.082962
-4.422795	COMMITTEE	-0.082962
-4.582476	COMMON	-0.082962
-4.582476	COMMONS	-0.082962
-4.582476	COMMONWEALTH	-0.082962
-2.124638	COMO	-0.327505
-4.582476	COMPARABLES	-0.082962
-4.318820	COMPARACIÓN	-0.161584
-4.422795	COMPARADAS	-0.206968
-4.582476	COMPARAMOS	-0.082962
-4.582476	COMPARAN	-0.082962
-4.582476	COMPARANDO	-0.082962
-4.318820	COMPARAR	-0.082962
-4.582476	COMPARARON	-0.082962
-4.582476	COMPARISON	-0.082962
-4.318820	COMPARTEN	-0.082962
-4.582476	COMPARTIDA	-0.082962
-4.422795	COMPARTIDAS	-0.082962
-4.582476	COMPARTIDO	-0.082962
-4.582476	COMPARTIERON	-0.082962
-4.582476	COMPARTIMENTO	-0.082962
-4.582476	COMPARTIR	-0.082962
-4.582476	COMPARTÍA	-0.082962
-4.582476	COMPATIBILIDAD	-0.082962
-4.582476	COMPATIBLE	-0.082962
-4.582476	COMPATIBLES	-0.082962
-4.318820	COMPAÑÍA	-0.082962
-4.582476	COMPENSACIÓN	-0.082962
-4.422795	COMPENSAR	-0.082962
-4.582476	COMPENSATORIOS	-0.082962
-4.422795	COMPETENCIA	-0.082962
-4.582476	COMPETENCIAS	-0.082962
-4.582476	COMPETENTES	-0.082962
-4.582476	COMPETIDOR	-0.082962
-4.582476	COMPETIR	-0.082962
-4.582476	COMPETITIVA	-0.082962
-4.582476	COMPETITIVAS	-0.082962
-4.582476	COMPITE	-0.082962
-4.318820	COMPLEJA	-0.082962
-4.164792	COMPLEJAS	-0.128409
-4.582476	COMPLEJIDAD	-0.082962
-4.051320	COMPLEJO	-0.082962
-4.422795	COMPLEJOS	-0.082962
-4.422795	COMPLEMENTADA	-0.082962
-4.582476	COMPLEMENTARIA	-0.082962
-4.422795	COMPLEMENTARIAS	-0.082962
-4.422795	COMPLEMENTARIOS	-0.082962
-4.582476	COMPLEMENTARLAS	-0.082962
-4.582476	COMPLEMENTOS	-0.082962
-3.598083	COMPLETA	-0.114932
-3.823484	COMPLETAMENTE	-0.082962
-4.582476	COMPLETAN	-0.082962
-4.582476	COMPLETANDO	-0.082962
-4.164792	COMPLETAR	-0.082962
-4.051320	COMPLETO	-0.082962
-4.582476	COMPLETOS	-0.082962
-4.422795	COMPLETÓ	-0.082962
-4.582476	COMPLIANCIA	-0.082962
-3.768079	COMPLICACIONES	-0.152465
-4.582476	COMPLICADAS	-0.082962
-4.582476	COMPLICADO	-0.082962
-4.422795	COMPLICADOS	-0.082962
-4.422795	COMPLICATION	-0.082962
-4.582476	COMPLICATIONS	-0.082962
-4.582476	COMPLUTENSE	-0.082962
-4.582476	COMPONE	-0.082962
-4.582476	COMPONEN	-0.082962
-4.164792	COMPONENTE	-0.082962
-3.887006	COMPONENTES	-0.110804
-4.582476	COMPORTA	-0.082962
-4.582476	COMPORTAMENTAL	-0.082962
-4.582476	COMPORTAMENTALES	-0.082962
-4.164792	COMPORTAMIENTO	-0.082962
-4.422795	COMPORTAMIENTOS	-0.082962
-4.582476	COMPOSICIONES	-0.082962
-4.164792	COMPOSICIÓN	-0.082962
-4.582476	COMPOSITOR	-0.082962
-4.582476	COMPRA	-0.082962
-4.582476	COMPRARÍA
-4.318820	COMPRENDE	-0.161584
-4.318820	COMPRENDER	-0.128409
-4.582476	COMPRENDIDAS	-0.082962
-4.582476	COMPRENDIDOS	-0.082962
-4.582476	COMPRENSIBLE	-0.082962
-4.318820	COMPRENSIÓN	-0.228747
-3.564266	COMPRESIONES	-0.252963
-4.051320	COMPRESIÓN	-0.149766
-4.582476	COMPRIMA	-0.082962
-4.422795	COMPRIMEN	-0.082962
-4.582476	COMPRIMIENDO	-0.082962
-4.582476	COMPRIMIMOS	-0.082962
-4.582476	COMPRIMÍA	-0.082962
-4.582476	COMPROBABLES	-0.082962
-4.582476	COMPROBACIÓN	-0.082962
-4.582476	COMPROBADA	-0.082962
-4.582476	COMPROBADO	-0.082962
-4.422795	COMPROBAR	-0.206968
-4.582476	COMPROBÓ	-0.082962
-4.582476	COMPROMETA	-0.082962
-4.422795	COMPROMETER	-0.082962
-4.582476	COMPROMISO	-0.082962
-4.582476	COMPRUEBAN	-0.082962
-4.582476	COMPRÓ	-0.082962
-4.582476	COMPTON	-0.082962
-4.422795	COMPUESTA	-0.082962
-4.582476	COMPUESTAS	-0.082962
-4.164792	COMPUESTO	-0.274372
-4.422795	COMPUESTOS	-0.082962
-3.961438	COMUNES	-0.082962
-4.582476	COMUNICACIONALES	-0.082962
-4.422795	COMUNICACIONES	-0.082962
-4.318820	COMUNICACIÓN	-0.122809
-4.582476	COMUNICÓ	-0.082962
-4.164792	COMUNIDAD	-0.099884
-4.051320	COMUNIDADES	-0.267740
-4.422795	COMUNITARIA	-0.114932
-3.303235	COMÚN	-0.244769
-4.164792	COMÚNMENTE	-0.082962
-1.949869	CON	-0.444364
-4.582476	CONCEBIBLE	-0.082962
-4.582476	CONCEDE	-0.082962
-4.582476	CONCEDERÁ	-0.082962
-4.582476	CONCEDIENDO	-0.082962
-4.582476	CONCEDIÓ	-0.082962
-4.582476	CONCENTRA	-0.082962
-4.582476	CONCENTRACIONES	-0.082962
-3.961438	CONCENTRACIÓN	-0.149766
-4.582476	CONCENTRADOS	-0.082962
-4.582476	CONCENTRAR	-0.082962
-4.422795	CONCENTRARSE	-0.082962
-4.582476	CONCENTRATIONS	-0.082962
-4.422795	CONCEPCIÓN	-0.082962
-4.051320	CONCEPTO	-0.114932
-4.422795	CONCEPTOS	-0.082962
-4.582476	CONCEPTUAR	-0.082962
-4.582476	CONCESIÓN	-0.082962
-4.164792	CONCIENCIA	-0.120496
-4.318820	CONCLUSIONES	-0.082962
-4.582476	CONCLUSIÓN	-0.082962
-4.582476	CONCLUYENTE	-0.082962
-4.582476	CONCLUYENTES	-0.082962
-4.582476	CONCOMITANTE	-0.082962
-4.582476	CONCORDABAN	-0.082962
-4.582476	CONCORDANTES	-0.082962
-4.582476	CONCRETA	-0.082962
-4.318820	CONCRETAS	-0.161584
-4.422795	CONCRETO	-0.082962
-4.318820	CONCRETOS	-0.082962
-4.582476	CONCRETÓ	-0.082962
-4.582476	CONCURRENCIA	-0.082962
-4.422795	CONDENSA	-0.082962
-4.582476	CONDENSACIÓN	-0.082962
-4.582476	CONDICIONANDO	-0.082962
-3.961438	CONDICIONES	-0.082962
-4.318820	CONDICIÓN	-0.082962
-4.582476	CONDIMENTACIÓN	-0.082962
-4.582476	CONDUCCIÓN	-0.082962
-4.318820	CONDUCE	-0.363010
-4.582476	CONDUCEN	-0.082962
-4.582476	CONDUCIDA	-0.082962
-4.582476	CONDUCIDO	-0.082962
-4.582476	CONDUCIR	-0.082962
-4.164792	CONDUCTA	-0.082962
-4.582476	CONDUCTANCIA	-0.082962
-3.961438	CONDUCTAS	-0.082962
-4.582476	CONDUCTO	-0.082962
-4.422795	CONDUCTOS	-0.161584
-4.582476	CONDUCTUALES	-0.082962
-4.422795	CONDUCÍA	-0.206968
-4.582476	CONDUJO	-0.082962
-4.582476	CONECTA	-0.082962
-4.422795	CONECTADO	-0.082962
-4.582476	CONECTADOS	-0.082962
-4.582476	CONECTIVO	-0.082962
-4.582476	CONEXIONES	-0.082962
-4.582476	CONEXIÓN	-0.082962
-4.582476	CONFECCIONADO	-0.082962
-4.582476	CONFECCIONÓ	-0.082962
-4.422795	CONFECCIÓN	-0.082962
-4.318820	CONFERENCIA	-0.179173
-4.582476	CONFERENCIAS	-0.082962
-4.582476	CONFERIDAS	-0.082962
-4.582476	CONFIABLE	-0.082962
-4.164792	CONFIANZA	-0.120496
-4.582476	CONFIAR	-0.082962
-4.582476	CONFIERE	-0.082962
-4.422795	CONFIRMA	-0.082962
-4.422795	CONFIRMACIÓN	-0.082962
-4.582476	CONFIRMADA	-0.082962
-4.422795	CONFIRMADO	-0.082962
-4.582476	CONFIRMADOS	-0.082962
-4.582476	CONFIRMAN	-0.082962
-4.422795	CONFIRMANDO	-0.082962
-4.164792	CONFIRMAR	-0.140554
-4.422795	CONFIRMARON	-0.082962
-4.582476	CONFIRMARÁ	-0.082962
-4.582476	CONFIRMÓ	-0.082962
-4.318820	CONFLICTO	-0.082962
-4.422795	CONFLICTOS	-0.082962
-4.582476	CONFORMA	-0.082962
-4.582476	CONFORMACIÓN	-0.082962
-4.582476	CONFORMADA	-0.082962
-4.422795	CONFORMADO	-0.206968
-4.582476	CONFORMAN	-0.082962
-4.422795	CONFORME	-0.082962
-4.582476	CONFORMÓ	-0.082962
-4.582476	CONFORTABLE	-0.082962
-4.582476	CONFUNDIENDO	-0.082962
-4.422795	CONFUNDIR	-0.082962
-4.582476	CONFUNDIRSE	-0.082962
-4.582476	CONFUNIR	-0.082962
-4.582476	CONFUSAS	-0.082962
-4.582476	CONFUSIONES	-0.082962
-4.422795	CONFUSIÓN	-0.082962
-4.582476	CONG-FOU	-0.082962
-4.164792	CONGENITA	-0.128409
-4.318820	CONGENITAS	-0.082962
-4.422795	CONGENITOS	-0.082962
-4.582476	CONGESTIÓN	-0.082962
-4.582476	CONGREGA	-0.082962
-3.768079	CONGRESO	-0.225739
-4.582476	CONGRUENTES	-0.082962
-4.582476	CONJUGACIÓN	-0.082962
-4.582476	CONJUGADAS	-0.082962
-4.582476	CONJUGARSE	-0.082962
-4.582476	CONJUNCIÓN	-0.082962
-4.582476	CONJUNTA	-0.082962
-4.422795	CONJUNTAMENTE	-0.082962
-4.582476	CONJUNTIVA	-0.082962
-4.582476	CONJUNTIVITIS	-0.082962
-4.582476	CONJUNTIVOS	-0.082962
-4.051320	CONJUNTO	-0.267740
-4.164792	CONLLEVA	-0.082962
-4.582476	CONMEMORATIVA	-0.082962
-4.582476	CONMEMORÓ	-0.082962
-4.582476	CONNECTICUT	-0.082962
-4.422795	CONNOTACIONES	-0.082962
-4.582476	CONOCE	-0.082962
-4.422795	CONOCEMOS	-0.082962
-4.422795	CONOCEN	-0.206968
-4.051320	CONOCER	-0.228621
-4.582476	CONOCERSE	-0.082962
-3.718948	CONOCIDA	-0.299239
-4.422795	CONOCIDAS	-0.082962
-3.598083	CONOCIDO	-0.329117
-3.674815	CONOCIDOS	-0.124075
-4.582476	CONOCIENDO	-0.082962
-3.718948	CONOCIMIENTO	-0.224627
-4.051320	CONOCIMIENTOS	-0.082962
-4.582476	CONOZCA	-0.082962
-4.582476	CONQUISTANDO	-0.082962
-4.582476	CONRAD	-0.082962
-4.582476	CONSANGUÍNEA	-0.082962
-4.582476	CONSCIENCIA	-0.082962
-4.318820	CONSCIENTE	-0.082962
-4.582476	CONSCIENTES	-0.082962
-4.422795	CONSECUCIÓN	-0.082962
-4.051320	CONSECUENCIA	-0.187326
-3.961438	CONSECUENCIAS	-0.161584
-4.318820	CONSECUENTE	-0.082962
-4.582476	CONSECUENTEMENTE	-0.082962
-4.582476	CONSECUTIVAS	-0.082962
-4.582476	CONSECUTIVOS	-0.082962
-4.582476	CONSEGUIDO	-0.082962
-3.961438	CONSEGUIR	-0.107621
-4.582476	CONSEGUÍA	-0.082962
-4.164792	CONSEJO	-0.200794
-4.422795	CONSEJOS	-0.082962
-4.422795	CONSENSO	-0.082962
-4.582476	CONSENSUS	-0.082962
-4.422795	CONSENTIMIENTO	-0.082962
-4.422795	CONSERVA	-0.082962
-4.422795	CONSERVACIÓN	-0.114932
-4.582476	CONSERVADAS	-0.082962
-4.582476	CONSERVADO	-0.082962
-4.582476	CONSERVADORA	-0.082962
-3.887006	CONSIDERA	-0.165597
-4.582476	CONSIDERABA	-0.082962
-4.582476	CONSIDERABAN	-0.082962
-4.422795	CONSIDERABLE	-0.082962
-4.318820	CONSIDERABLEMENTE	-0.082962
-4.582476	CONSIDERACIONES	-0.082962
-4.164792	CONSIDERADA	-0.082962
-3.887006	CONSIDERADO	-0.203253
-4.318820	CONSIDERADOS	-0.082962
-4.422795	CONSIDERAN	-0.082962
-4.422795	CONSIDERANDO	-0.082962
-4.318820	CONSIDERAR	-0.161584
-4.582476	CONSIDERARON	-0.082962
-4.582476	CONSIDERE	-0.082962
-4.582476	CONSIDERÓ	-0.082962
-4.582476	CONSIGNAS	-0.082962
-4.582476	CONSIGO	-0.082962
-4.164792	CONSIGUE	-0.120496
-4.422795	CONSIGUIENTE	-0.082962
-4.422795	CONSIGUIENTES	-0.082962
-3.476224	CONSISTE	-1.116337
-4.422795	CONSISTEN	-0.206968
-4.582476	CONSISTENTE	-0.082962
-4.318820	CONSISTENTES	-0.161584
-4.582476	CONSISTIDO	-0.082962
-4.582476	CONSISTIERON	-0.082962
-4.582476	CONSISTIR	-0.082962
-4.582476	CONSISTIRÁ	-0.082962
-4.582476	CONSISTIRÍA	-0.082962
-4.422795	CONSISTIÓ	-0.206968
-4.582476	CONSISTÍA	-0.082962
-4.582476	CONSISTÍAN	-0.082962
-4.582476	CONSOLIDACIÓN	-0.082962
-4.582476	CONSOLIDACIÓNACTUALMENTE	-0.082962
-4.582476	CONSOLIDÁNDOSE	-0.082962
-4.582476	CONSONANTES	-0.082962
-4.422795	CONSORCIO	-0.082962
-4.582476	CONSPIRACIÓNUNA	-0.082962
-4.318820	CONSTA	-0.161584
-4.582476	CONSTABA	-0.082962
-4.422795	CONSTANCIA	-0.082962
-4.164792	CONSTANTE	-0.082962
-4.318820	CONSTANTEMENTE	-0.161584
-4.582476	CONSTITUCIONAL	-0.082962
-4.582476	CONSTITUIDA	-0.082962
-4.582476	CONSTITUIDAS	-0.082962
-4.582476	CONSTITUIDO	-0.082962
-4.582476	CONSTITUIRSE	-0.082962
-4.422795	CONSTITUIRÍA	-0.206968
-4.582476	CONSTITUTIVO	-0.082962
-4.582476	CONSTITUYAN	-0.082962
-3.887006	CONSTITUYE	-0.239866
-4.164792	CONSTITUYEN	-0.082962
-4.582476	CONSTITUÍAN	-0.082962
-4.582476	CONSTRICCIÓN	-0.082962
-4.318820	CONSTRUCCIÓN	-0.082962
-4.582476	CONSTRUCTOS	-0.082962
-4.582476	CONSTRUIDOS	-0.082962
-4.422795	CONSTRUIR	-0.082962
-3.887006	CONSULTA	-0.151569
-4.422795	CONSULTADO	-0.082962
-4.318820	CONSULTAR	-0.161584
-4.051320	CONSULTAS	-0.082962
-4.582476	CONSULTORIOS	-0.082962
-4.582476	CONSUMIDO	-0.082962
-4.582476	CONSUMIDORES	-0.082962
-4.422795	CONSUMIDOS	-0.082962
-4.582476	CONSUMIMOS	-0.082962
-4.582476	CONSUMIR	-0.082962
-4.051320	CONSUMO	-0.280404
-4.582476	CONTABILIDAD	-0.082962
-4.582476	CONTACTADO	-0.082962
-4.582476	CONTACTAR	-0.082962
-4.582476	CONTACTARON	-0.082962
-3.674815	CONTACTO	-0.254868
-4.582476	CONTACTÓ	-0.082962
-4.582476	CONTADAS	-0.082962
-4.422795	CONTAGIO	-0.206968
-4.582476	CONTAGIOS	-0.082962
-4.582476	CONTAGIOSA	-0.082962
-4.582476	CONTAGIOSOS	-0.082962
-4.422795	CONTAMINACIONES	-0.082962
-4.164792	CONTAMINACIÓN	-0.082962
-4.582476	CONTAMINADAS	-0.082962
-4.582476	CONTAMINANTE	-0.082962
-4.582476	CONTAMINÓ	-0.082962
-4.582476	CONTAMOS	-0.082962
-4.164792	CONTAR	-0.082962
-4.582476	CONTEMPLADA	-0.082962
-4.582476	CONTEMPLAR	-0.082962
-4.422795	CONTEMPORÁNEA	-0.082962
-4.582476	CONTEMPORÁNEADURANTE	-0.082962
-4.582476	CONTENCIÓN	-0.082962
-4.422795	CONTENER	-0.082962
-4.422795	CONTENGAN	-0.082962
-4.582476	CONTENIDA	-0.082962
-4.582476	CONTENIDAS	-0.082962
-4.051320	CONTENIDO	-0.082962
-4.422795	CONTENIDOS	-0.082962
-4.582476	CONTENIENDO	-0.082962
-4.582476	CONTENÍA	-0.082962
-4.422795	CONTEO	-0.082962
-4.318820	CONTEXTO	-0.181874
-4.582476	CONTEXTUALIZACIÓN	-0.082962
-3.887006	CONTIENE	-0.137894
-4.422795	CONTIENEN	-0.082962
-4.582476	CONTINENTE	-0.082962
-4.051320	CONTINUA	-0.082962
-4.422795	CONTINUACIÓN	-0.082962
-4.051320	CONTINUADA	-0.128409
-4.582476	CONTINUADAPROF	-0.082962
-4.582476	CONTINUADO	-0.082962
-4.318820	CONTINUAMENTE	-0.082962
-4.582476	CONTINUANDO	-0.082962
-4.582476	CONTINUAR	-0.082962
-4.582476	CONTINUARÍA	-0.082962
-4.422795	CONTINUAS	-0.082962
-4.318820	CONTINUIDAD	-0.206968
-4.318820	CONTINUO	-0.082962
-4.318820	CONTINUOS	-0.082962
-4.582476	CONTINUÓ	-0.082962
-4.051320	CONTINÚA	-0.082962
-4.582476	CONTINÚAN	-0.082962
-4.582476	CONTORNO	-0.082962
-3.476224	CONTRA	-0.242627
-4.582476	CONTRA-INDICACIÓNVEINOPLUS	-0.082962
-4.582476	CONTRA-INDICADO	-0.082962
-4.422795	CONTRACCIONES	-0.082962
-4.051320	CONTRACCIÓN	-0.228747
-4.422795	CONTRACTURAS	-0.082962
-4.582476	CONTRAER	-0.082962
-4.582476	CONTRAIGA	-0.082962
-4.582476	CONTRAIGAN	-0.082962
-4.422795	CONTRAINDICACIONES	-0.082962
-4.582476	CONTRAINDICACIÓN	-0.082962
-4.422795	CONTRAINDICADA	-0.082962
-4.582476	CONTRAINDICADO	-0.082962
-4.582476	CONTRAINDIQUE	-0.082962
-4.582476	CONTRALATERALMENTE	-0.082962
-4.582476	CONTRAPARTE	-0.082962
-4.422795	CONTRAPOSICIÓN	-0.082962
-4.422795	CONTRARIA	-0.082962
-4.582476	CONTRARIAMENTE	-0.082962
-4.318820	CONTRARIO	-0.107621
-4.582476	CONTRARRESTARLA	-0.082962
-4.582476	CONTRAST	-0.082962
-4.582476	CONTRASTADO	-0.082962
-4.582476	CONTRASTAN	-0.082962
-4.582476	CONTRASTE	-0.082962
-4.582476	CONTRATA	-0.082962
-4.582476	CONTRATADAS	-0.082962
-4.582476	CONTRATISTA	-0.082962
-4.582476	CONTRAYENDOSE	-0.082962
-4.582476	CONTRAÍAN	-0.082962
-4.318820	CONTRIBUCIÓN	-0.161584
-4.582476	CONTRIBUIR	-0.082962
-4.582476	CONTRIBUYAN	-0.082962
-4.422795	CONTRIBUYE	-0.161584
-4.318820	CONTRIBUYEN	-0.082962
-4.422795	CONTRIBUYENDO	-0.206968
-4.582476	CONTRIBUYERON	-0.082962
-4.582476	CONTRIBUYO	-0.082962
-4.422795	CONTRIBUYÓ	-0.082962
-3.532893	CONTROL	-0.199654
-4.318820	CONTROLA	-0.161584
-4.582476	CONTROLABA	-0.082962
-4.582476	CONTROLADA	-0.082962
-4.164792	CONTROLADOS	-0.082962
-4.422795	CONTROLANDO	-0.082962
-4.318820	CONTROLAR	-0.082962
-4.422795	CONTROLES	-0.082962
-4.582476	CONTROVERSIA	-0.082962
-4.582476	CONTROVERTIDAS	-0.082962
-4.582476	CONTROVERTIDOS	-0.082962
-4.582476	CONTUSIONES	-0.082962
-4.582476	CONTÍNUA	-0.082962
-4.582476	CONTÍNUO	-0.082962
-4.422795	CONTÓ	-0.206968
-4.318820	CONVENCIONAL	-0.082962
-4.582476	CONVENCIONES	-0.082962
-4.422795	CONVENCIÓN	-0.082962
-4.582476	CONVENDRÍA	-0.082962
-4.051320	CONVENIENTE	-0.082962
-4.582476	CONVENIENTEMENTE	-0.082962
-4.422795	CONVENIENTES	-0.082962
-4.051320	CONVENIO	-0.371282
-4.582476	CONVENIOS	-0.082962
-4.582476	CONVENTIONAL	-0.082962
-4.422795	CONVERSIÓN	-0.206968
-4.422795	CONVERTIDA	-0.206968
-4.318820	CONVERTIDO	-0.082962
-4.582476	CONVERTIDORA	-0.082962
-4.164792	CONVERTIRSE	-0.371282
-4.582476	CONVICCIÓN	-0.082962
-4.422795	CONVIENE	-0.082962
-4.582476	CONVIERTE	-0.082962
-4.422795	CONVIERTEN	-0.082962
-4.582476	CONVIRTIENDO	-0.082962
-4.582476	CONVIRTIENDOLOS	-0.082962
-4.582476	CONVIRTIENDOS	-0.082962
-4.582476	CONVIRTIENDOSE	-0.082962
-4.422795	CONVIRTIÓ	-0.206968
-4.422795	CONVIVENCIA	-0.082962
-4.582476	CONVIVIR	-0.082962
-4.582476	CONVOCADO	-0.082962
-4.582476	CONVOCADOS	-0.082962
-4.582476	CONVOCATORIA	-0.082962
-4.582476	CONVOCATORIAS	-0.082962
-4.582476	CONVULSIONES	-0.082962
-4.582476	COOK	-0.082962
-4.582476	COOPERACIÓN	-0.082962
-4.582476	COOPERATIVA	-0.082962
-4.051320	COORDINACIÓN	-0.105091
-4.422795	COORDINADA	-0.082962
-4.422795	COORDINADOR	-0.206968
-4.582476	COORDINAN	-0.082962
-4.582476	COORDINAR	-0.082962
-4.582476	COPAGOS	-0.082962
-4.422795	COPEPODOS	-0.082962
-4.582476	COPIAS	-0.082962
-4.582476	COPULACIÓN	-0.082962
-4.582476	COPULAN	-0.082962
-4.582476	CORALES	-0.082962
-4.164792	CORAZÓN	-0.162354
-4.582476	CORDA	-0.082962
-4.582476	CORDÓN	-0.082962
-4.422795	COREA	-0.082962
-4.582476	CORINTO	-0.082962
-4.164792	CORONARIA	-0.082962
-4.582476	CORPORACIONES	-0.082962
-4.582476	CORPORACIÓN	-0.082962
-3.598083	CORPORAL	-0.159571
-3.718948	CORPORALES	-0.128409
-4.582476	CORPORATIVO	-0.082962
-4.422795	CORPORATIVOS	-0.082962
-4.582476	CORPORIS	-0.082962
-4.582476	CORPS	-0.082962
-4.582476	CORPUS	-0.082962
-4.422795	CORPUSCULAR	-0.082962
-4.582476	CORPÚSCULOS	-0.082962
-4.422795	CORRE	-0.206968
-4.582476	CORRECCIONES	-0.082962
-4.422795	CORRECTA	-0.082962
-4.318820	CORRECTAMENTE	-0.082962
-4.582476	CORRECTAS	-0.082962
-4.582476	CORRECTIVA	-0.082962
-4.582476	CORRECTIVO	-0.082962
-4.318820	CORRECTO	-0.082962
-4.582476	CORREGIDA	-0.082962
-4.582476	CORREGIDO	-0.082962
-4.318820	CORREGIR	-0.082962
-4.582476	CORRELACIONADO	-0.082962
-4.422795	CORRELACIÓN	-0.206968
-4.582476	CORREN	-0.082962
-4.164792	CORRER	-0.140554
-3.961438	CORRESPONDE	-0.161584
-4.422795	CORRESPONDENCIA	-0.082962
-4.582476	CORRESPONDER	-0.082962
-4.582476	CORRESPONDERÁ	-0.082962
-4.582476	CORRESPONDIENDO	-0.082962
-4.318820	CORRESPONDIENTE	-0.082962
-4.318820	CORRESPONDIENTES	-0.082962
-4.164792	CORRIENTE	-0.120496
-4.582476	CORRUGADA	-0.082962
-4.318820	CORTA	-0.082962
-4.582476	CORTADO	-0.082962
-4.422795	CORTE	-0.161584
-4.582476	CORTEZA	-0.082962
-4.582476	CORTICOSTEROIDE	-0.082962
-4.422795	CORTICOSTEROIDES	-0.082962
-4.582476	CORTICOTROPINA	-0.082962
-4.582476	CORTISOL	-0.082962
-4.582476	CORTISONA	-0.082962
-3.768079	CORTO	-0.082962
-4.582476	CORTOS	-0.082962
-4.318820	COSA	-0.082962
-4.582476	COSAS	-0.082962
-4.422795	COSECHA	-0.082962
-4.582476	COSECHADOS	-0.082962
-4.422795	COSMETICA	-0.082962
-4.422795	COSMETICOS	-0.082962
-4.582476	COSPES	-0.082962
-4.582476	COST	-0.082962
-4.318820	COSTA	-0.082962
-4.422795	COSTADO	-0.082962
-4.582476	COSTADOS	-0.082962
-4.582476	COSTAL	-0.082962
-4.582476	COSTE	-0.082962
-4.582476	COSTEAR	-0.082962
-4.422795	COSTILLAS	-0.082962
-4.318820	COSTO	-0.082962
-4.422795	COSTOS	-0.082962
-4.582476	COSTOSO	-0.082962
-4.582476	COSTOSOS	-0.082962
-4.582476	COSTRAS	-0.082962
-4.582476	COSTUMBRE	-0.082962
-4.582476	COSTUMBRES	-0.082962
-4.582476	COSTURAS	-0.082962
-4.422795	COTIDIANA	-0.082962
-4.582476	COTIDIANAS	-0.082962
-4.582476	COTIDIANEIDAD	-0.082962
-4.582476	COTIDIANOS	-0.082962
-4.582476	COULD	-0.082962
-4.422795	COÁGULOS	-0.206968
-4.582476	CPR	-0.082962
-4.582476	CRAFT	-0.082962
-4.582476	CRANEAL	-0.082962
-4.582476	CRANEALES	-0.082962
-4.582476	CRANEOFACIALES	-0.082962
-4.164792	CREA	-0.228747
-4.318820	CREACIÓN	-0.114932
-4.422795	CREADA	-0.082962
-4.422795	CREADAS	-0.082962
-3.823484	CREADO	-0.110804
-4.582476	CREAMOS	-0.082962
-4.422795	CREAN	-0.082962
-4.164792	CREANDO	-0.140554
-4.051320	CREAR	-0.120496
-4.422795	CREARON	-0.082962
-4.582476	CREARSE	-0.082962
-4.582476	CREASE	-0.082962
-4.422795	CREATIVA	-0.082962
-4.318820	CREATIVIDAD	-0.082962
-4.582476	CREATIVO	-0.082962
-4.422795	CRECE	-0.082962
-4.582476	CRECEN	-0.082962
-4.422795	CRECER	-0.082962
-4.582476	CRECES	-0.082962
-4.582476	CRECIDO	-0.082962
-4.582476	CRECIENDO	-0.082962
-4.164792	CRECIENTE	-0.082962
-4.582476	CRECIENTEMENTE	-0.082962
-4.582476	CRECIENTES	-0.082962
-3.961438	CRECIMIENTO	-0.164389
-4.582476	CRECIMIENTOS	-0.082962
-4.582476	CREDITO	-0.082962
-4.582476	CREE	-0.082962
-4.422795	CREEN	-0.206968
-4.582476	CREENCIA	-0.082962
-4.051320	CREMA	-0.120496
-4.582476	CREMALLERA	-0.082962
-4.422795	CREMAS	-0.082962
-4.582476	CREPITA	-0.082962
-4.582476	CREST	-0.082962
-4.582476	CRESTA	-0.082962
-4.582476	CREYENTES	-0.082962
-4.582476	CREÁNDOLE	-0.082962
-4.318820	CREÍA	-0.140554
-4.422795	CREÓ	-0.206968
-4.582476	CRH	-0.082962
-4.582476	CRIABAN	-0.082962
-4.582476	CRIANZA	-0.082962
-4.582476	CRIAR	-0.082962
-4.582476	CRIBADO	-0.082962
-4.582476	CRIBAJE	-0.082962
-4.582476	CRICK	-0.082962
-4.582476	CRICOIDES	-0.082962
-4.582476	CRIMEA	-0.082962
-4.582476	CRIMINOLÓGICO	-0.082962
-4.582476	CRIOLLA	-0.082962
-4.582476	CRIOPRESERVACIÓN	-0.082962
-4.582476	CRIPTAS	-0.082962
-4.051320	CRISIS	-0.082962
-4.582476	CRISPÍN	-0.082962
-4.582476	CRISTIAM	-0.082962
-4.582476	CRISTO	-0.082962
-4.582476	CRISTÓBAL	-0.082962
-4.582476	CRISTÓBALHOSPITAL	-0.082962
-3.887006	CRITERIO	-0.101324
-3.887006	CRITERIOS	-0.107621
-4.582476	CRITICADOS	-0.082962
-4.582476	CRITICAN	-0.082962
-4.582476	CRITICARON	-0.082962
-4.582476	CROCHET	-0.082962
-4.582476	CROHN	-0.082962
-4.582476	CROMOSA
-3.961438	CROMOSOMA	-0.082962
-4.051320	CROMOSOMAS	-0.082962
-4.582476	CRONIFICA	-0.082962
-4.582476	CRONOBIOLOGÍA	-0.082962
-4.582476	CROUP	-0.082962
-4.318820	CRUCE	-0.363010
-4.318820	CRUCES	-0.082962
-4.422795	CRUCIAL	-0.206968
-4.582476	CRUDEZA	-0.082962
-4.318820	CRUZ	-0.161584
-4.422795	CRUZADA	-0.082962
-4.582476	CRUZADAS	-0.082962
-4.582476	CRUZAN	-0.082962
-4.422795	CRÁNEO	-0.120496
-4.422795	CRÍAN	-0.082962
-4.422795	CRÍAS	-0.082962
-4.422795	CRÍTICA	-0.082962
-4.582476	CRÍTICAMENTE	-0.082962
-4.582476	CRÍTICAS	-0.082962
-4.582476	CRÍTICASLA	-0.082962
-4.582476	CRÍTICO	-0.082962
-4.582476	CRÍTICOS	-0.082962
-3.598083	CRÓNICA	-0.159349
-4.422795	CRÓNICAMENTE	-0.082962
-4.318820	CRÓNICAS	-0.114932
-4.422795	CRÓNICO	-0.082962
-4.582476	CRÓNICOS	-0.082962
-4.582476	CS	-0.082962
-4.582476	CSIC	-0.082962
-4.582476	CSIRO	-0.082962
-4.051320	CUADRO	-0.082962
-4.318820	CUADROS	-0.082962
-3.887006	CUAL	-0.139941
-4.422795	CUALES	-0.106288
-4.422795	CUALIDAD	-0.082962
-4.582476	CUALIDADES	-0.082962
-4.582476	CUALIDADSEGÚN	-0.082962
-4.422795	CUALIFICADO	-0.082962
-4.582476	CUALIFICADOS	-0.082962
-4.582476	CUALIFICAR	-0.082962
-4.582476	CUALITATIVA	-0.082962
-4.582476	CUALITATIVO	-0.082962
-3.564266	CUALQUIER	-0.111733
-3.961438	CUALQUIERA	-0.307929
-2.909047	CUANDO	-0.343249
-4.582476	CUANTA	-0.082962
-4.582476	CUANTAS	-0.082962
-4.582476	CUANTIFICA	-0.082962
-4.318820	CUANTIFICACIÓN	-0.363010
-4.582476	CUANTIFICADO	-0.082962
-4.582476	CUANTIFICAN	-0.082962
-4.318820	CUANTIFICAR	-0.082962
-4.582476	CUANTIFICARLAS	-0.082962
-4.051320	CUANTO	-0.082962
-4.582476	CUANTOS	-0.082962
-4.422795	CUARENTA	-0.206968
-4.051320	CUARENTENA	-0.082962
-4.582476	CUARENTENAS	-0.082962
-4.582476	CUARTA	-0.082962
-4.582476	CUARTO	-0.082962
-4.582476	CUASI-FUNCIONARIOS	-0.082962
-4.582476	CUATERNARIA	-0.082962
-3.634757	CUATRO	-0.094468
-4.582476	CUATROCCENTO	-0.082962
-4.422795	CUBA	-0.206968
-4.582476	CUBIERTA	-0.082962
-4.582476	CUBIERTOS	-0.082962
-4.582476	CUBITO	-0.082962
-4.582476	CUBRAN	-0.082962
-4.582476	CUBRE	-0.082962
-4.582476	CUBRIENDO	-0.082962
-4.422795	CUBRIR	-0.082962
-4.582476	CUCHARADITA	-0.082962
-4.582476	CUCLILLO	-0.082962
-4.582476	CUCÚRBITA	-0.082962
-4.318820	CUELLO	-0.114932
-4.422795	CUENOT	-0.082962
-3.823484	CUENTA	-0.174531
-4.422795	CUENTAN	-0.206968
-4.422795	CUENTE	-0.082962
-4.422795	CUERNO	-0.082962
-4.582476	CUERO	-0.082962
-3.718948	CUERPO	-0.120496
-4.318820	CUERPOS	-0.082962
-4.582476	CUESTIONABA	-0.082962
-4.582476	CUESTIONADA	-0.082962
-4.582476	CUESTIONADOS	-0.082962
-4.582476	CUESTIONAMIENTOS	-0.082962
-4.582476	CUESTIONAR	-0.082962
-4.582476	CUESTIONARIO	-0.082962
-4.164792	CUESTIONES	-0.082962
-4.318820	CUESTIÓN	-0.114932
-4.582476	CUIDABAN	-0.082962
-4.318820	CUIDADO	-0.082962
-4.582476	CUIDADOR	-0.082962
-4.582476	CUIDADORES	-0.082962
-4.318820	CUIDADOS	-0.114932
-4.582476	CUIDADOSA	-0.082962
-4.422795	CUIDANDO	-0.082962
-4.582476	CUIDAR	-0.082962
-4.582476	CULMINARON	-0.082962
-4.582476	CULP	-0.082962
-4.422795	CULTIVADO	-0.082962
-4.582476	CULTIVANDO	-0.082962
-4.422795	CULTIVO	-0.082962
-4.422795	CULTIVOS	-0.082962
-4.422795	CULTURA	-0.082962
-4.582476	CULTURAL	-0.082962
-4.318820	CULTURALES	-0.082962
-4.422795	CULTURAS	-0.082962
-4.582476	CUMIS	-0.082962
-4.318820	CUMPLAN	-0.161584
-4.422795	CUMPLEN	-0.082962
-4.582476	CUMPLIDO	-0.082962
-4.582476	CUMPLIDORES	-0.082962
-4.582476	CUMPLIENDO	-0.082962
-4.582476	CUMPLIMIENTO	-0.082962
-4.422795	CUMPLIR	-0.082962
-4.582476	CUMPLIRSE	-0.082962
-4.582476	CUMULINA	-0.082962
-4.582476	CUNEATE	-0.082962
-4.582476	CUNEIFORME	-0.082962
-4.582476	CUOTAS	-0.082962
-4.582476	CUPO	-0.082962
-3.961438	CURA	-0.082962
-4.582476	CURABAN	-0.082962
-4.582476	CURACIONES	-0.082962
-3.887006	CURACIÓN	-0.192663
-4.582476	CURADO	-0.082962
-4.582476	CURADOS	-0.082962
-4.422795	CURAN	-0.082962
-4.582476	CURANDERA	-0.082962
-4.582476	CURANDERISMO	-0.082962
-4.422795	CURANDEROS	-0.082962
-3.887006	CURAR	-0.082962
-4.582476	CURARLA	-0.082962
-4.318820	CURATIVA	-0.161584
-4.422795	CURATIVAS	-0.082962
-4.582476	CURATIVO	-0.082962
-4.582476	CURIOSOS	-0.082962
-4.422795	CURRÍCULO	-0.082962
-4.582476	CURSA	-0.082962
-4.422795	CURSAR	-0.082962
-4.164792	CURSO	-0.082962
-4.422795	CURSOS	-0.082962
-4.422795	CURVA	-0.082962
-4.582476	CURVATURA	-0.082962
-4.582476	CUSHING	-0.082962
-4.582476	CUSTODIA	-0.082962
-3.823484	CUTÁNEA	-0.105091
-4.422795	CUTÁNEAS	-0.128409
-4.582476	CUTÁNEO	-0.082962
-4.164792	CUTÁNEOS	-0.082962
-3.476224	CUYA	-0.095842
-4.582476	CUYAS	-0.082962
-3.768079	CUYO	-0.105091
-4.164792	CUYOS	-0.082962
-4.582476	CUÁL	-0.082962
-4.422795	CUÁNDO	-0.082962
-4.582476	CUÁNTICA	-0.082962
-4.582476	CUÑAS	-0.082962
-4.582476	CV	-0.082962
-4.582476	CYWINSKI	-0.082962
-4.582476	CÁCERES	-0.082962
-4.582476	CÁDIZ	-0.082962
-4.582476	CÁLCIO	-0.082962
-4.318820	CÁLCULO	-0.082962
-4.422795	CÁLCULOS	-0.082962
-4.582476	CÁMARA	-0.082962
-3.823484	CÁNCER	-0.204874
-4.582476	CÁNCERES	-0.082962
-4.422795	CÁNULA	-0.082962
-4.582476	CÁPSIDE	-0.082962
-4.318820	CÁPSULA	-0.161584
-4.582476	CÁPSULAS	-0.082962
-4.582476	CÁRCEL	-0.082962
-4.582476	CÍCLICO	-0.082962
-4.582476	CÍRCULO	-0.082962
-4.422795	CÓDIGO	-0.206968
-4.582476	CÓLICO	-0.082962
-4.582476	CÓLICOS	-0.082962
-3.961438	CÓMO	-0.110804
-4.582476	CÓMODA	-0.082962
-4.582476	CÓNCAVA	-0.082962
-4.582476	CÓNCAVO	-0.082962
-4.582476	CÓRNEA	-0.082962
-4.582476	CÓSMICA	-0.082962
-4.582476	CÚMULOS	-0.082962
-3.768079	D	-0.219359
-4.582476	D'ACQUAPENDENTE	-0.082962
-4.582476	D8	-0.082962
-3.887006	DA	-0.082962
-4.582476	DABA	-0.082962
-4.582476	DABLE	-0.082962
-4.164792	DADA	-0.140554
-3.823484	DADO	-0.175687
-4.582476	DADOS	-0.082962
-4.582476	DALLAS	-0.082962
-4.422795	DAN	-0.082962
-4.051320	DANDO	-0.082962
-4.422795	DANIEL	-0.082962
-4.318820	DANZA	-0.082962
-4.582476	DANZOTERAPEUTA	-0.082962
-4.582476	DANZOTERAPIA	-0.082962
-3.634757	DAR	-0.094468
-4.582476	DARLE	-0.082962
-4.422795	DARSE	-0.082962
-4.582476	DARÁ	-0.082962
-4.582476	DARÍAN	-0.082962
-4.422795	DATA	-0.082962
-3.887006	DATOS	-0.125425
-4.582476	DAVALOS	-0.082962
-4.582476	DAVINO	-0.082962
-4.582476	DAVISON	-0.082962
-4.582476	DAWLEY	-0.082962
-4.582476	DAY	-0.082962
-4.582476	DAÑA	-0.082962
-4.422795	DAÑADA	-0.082962
-4.422795	DAÑADO	-0.082962
-4.582476	DAÑAN	-0.082962
-4.582476	DAÑARLO	-0.082962
-4.582476	DAÑINOS	-0.082962
-3.598083	DAÑO	-0.167154
-4.164792	DAÑOS	-0.082962
-4.582476	DBA	-0.082962
-4.582476	DCI	-0.082962
-1.299958	DE	-0.460402
-4.422795	DEA	-0.082962
-4.582476	DEAMBULAN	-0.082962
-4.422795	DEAMINADOS	-0.082962
-4.582476	DEBA	-0.082962
-4.318820	DEBAJO	-0.206968
-4.164792	DEBATE	-0.082962
-4.582476	DEBATIERON	-0.082962
-3.117437	DEBE	-0.228373
-3.321447	DEBEN	-0.180200
-4.318820	DEBER	-0.140554
-4.582476	DEBEREMOS	-0.082962
-4.582476	DEBERES	-0.082962
-4.422795	DEBERSE	-0.206968
-4.051320	DEBERÁ	-0.128409
-4.582476	DEBERÁN	-0.082962
-3.961438	DEBERÍA	-0.082962
-4.422795	DEBERÍAN	-0.082962
-4.318820	DEBIDA	-0.161584
-4.422795	DEBIDAS	-0.206968
-3.193492	DEBIDO	-0.902760
-4.582476	DEBILES	-0.082962
-4.051320	DEBILIDAD	-0.128409
-4.422795	DEBILITADO	-0.082962
-4.422795	DEBILITAMIENTO	-0.206968
-4.582476	DEBILITANTES	-0.082962
-4.582476	DEBUT	-0.082962
-4.422795	DEBUTAR	-0.082962
-4.318820	DEBÍA	-0.082962
-4.422795	DEBÍAN	-0.082962
-4.422795	DECADA	-0.082962
-4.164792	DECADAS	-0.140554
-4.582476	DECENAS	-0.082962
-4.582476	DECIDIRSE	-0.082962
-4.051320	DECIR	-0.120899
-4.582476	DECIRLES	-0.082962
-4.051320	DECISIONES	-0.082962
-4.051320	DECISIÓN	-0.082962
-4.422795	DECLARA	-0.206968
-4.318820	DECLARACIÓN	-0.228747
-4.422795	DECLARADO	-0.082962
-4.582476	DECLARAR	-0.082962
-4.422795	DECLARÓ	-0.206968
-4.582476	DECODIFICAR	-0.082962
-4.582476	DECOLORACIONES	-0.082962
-4.582476	DECORATIVAS	-0.082962
-4.582476	DECRECER	-0.082962
-4.422795	DECRETO	-0.082962
-4.422795	DECÍA	-0.206968
-4.318820	DECÚBITO	-0.082962
-4.422795	DEDICA	-0.082962
-4.422795	DEDICACIÓN	-0.082962
-4.422795	DEDICADA	-0.206968
-4.318820	DEDICADO	-0.082962
-4.582476	DEDICAN	-0.082962
-4.582476	DEDICÁNDOSE	-0.082962
-4.582476	DEDOS	-0.082962
-4.582476	DEDUCIR	-0.082962
-4.582476	DEFECACIÓN	-0.082962
-4.422795	DEFECTO	-0.128409
-4.051320	DEFECTOS	-0.120496
-4.422795	DEFECTS	-0.082962
-4.582476	DEFECTUOSO	-0.082962
-4.582476	DEFENDER	-0.082962
-4.582476	DEFENDÍA	-0.082962
-4.318820	DEFENSA	-0.082962
-4.582476	DEFENSAS	-0.082962
-4.582476	DEFENSOR	-0.082962
-4.582476	DEFIBRILACIÓN	-0.082962
-3.961438	DEFICIENCIA	-0.239866
-4.422795	DEFICIENCIAS	-0.082962
-4.582476	DEFICIENTE	-0.082962
-4.318820	DEFICIT	-0.274372
-4.582476	DEFIENDEN	-0.082962
-4.318820	DEFINE	-0.082962
-4.582476	DEFINEN	-0.082962
-4.318820	DEFINICIÓN	-0.149442
-4.582476	DEFINICIÓNSE	-0.082962
-4.582476	DEFINICIÓNSEGÚN	-0.082962
-4.582476	DEFINIDA	-0.082962
-4.164792	DEFINIDO	-0.082962
-4.582476	DEFINIDOS	-0.082962
-4.582476	DEFINIENDO	-0.082962
-4.422795	DEFINIR	-0.082962
-4.318820	DEFINITIVA	-0.082962
-4.582476	DEFINITIVAMENTE	-0.082962
-4.422795	DEFINITIVO	-0.082962
-4.582476	DEFINITORIOS	-0.082962
-4.582476	DEFINÍAN	-0.082962
-4.582476	DEFUNCIONES	-0.082962
-4.164792	DEGENERACIÓN	-0.082962
-4.582476	DEGENERATION	-0.082962
-4.422795	DEGLUCIÓN	-0.082962
-4.164792	DEGRADACIÓN	-0.082962
-4.582476	DEGRADADA	-0.082962
-4.582476	DEHISCENCIAS	-0.082962
-4.582476	DEHISENCIAS	-0.082962
-4.318820	DEJA	-0.161584
-4.582476	DEJADO	-0.082962
-4.051320	DEJAR	-0.082962
-4.422795	DEJARON	-0.206968
-1.823224	DEL	-0.331372
-3.961438	DELANTAL	-0.177077
-4.422795	DELANTALES	-0.082962
-4.164792	DELANTE	-0.140554
-4.582476	DELAVELLE	-0.082962
-4.582476	DELEGA	-0.082962
-4.582476	DELEGADA	-0.082962
-4.582476	DELGADO	-0.082962
-4.582476	DELIBERACIONES	-0.082962
-4.582476	DELIBERACIÓN	-0.082962
-4.582476	DELIBERADA	-0.082962
-4.582476	DELINCUENCIA	-0.082962
-4.582476	DELINEAR	-0.082962
-4.582476	DELIRANTE	-0.082962
-4.051320	DELIRIO	-0.307929
-4.582476	DELIRIOS	-0.082962
-4.582476	DELL'ANATOMIA	-0.082962
-4.582476	DELLA	-0.082962
-4.422795	DEM	-0.082962
-3.961438	DEMANDA	-0.213277
-4.422795	DEMANDAS	-0.082962
-3.961438	DEMASIADO	-0.114932
-4.422795	DEMEESTER	-0.082962
-4.582476	DEMENCIA	-0.082962
-4.582476	DEMICHELI	-0.082962
-4.582476	DEMINERALIZED	-0.082962
-4.582476	DEMOCRACIA	-0.082962
-4.582476	DEMOCRÁTICA	-0.082962
-4.422795	DEMOCRÁTICO	-0.082962
-4.582476	DEMOCRÁTICOS	-0.082962
-4.582476	DEMODECTICA	-0.082962
-4.582476	DEMONIO	-0.082962
-4.582476	DEMORA	-0.082962
-4.582476	DEMORADO	-0.082962
-4.582476	DEMORAS	-0.082962
-4.318820	DEMOSTRADO	-0.175687
-4.582476	DEMOSTRANDO	-0.082962
-4.318820	DEMOSTRAR	-0.161584
-4.582476	DEMOSTRARON	-0.082962
-4.051320	DEMOSTRÓ	-0.179173
-4.582476	DEMUESTRA	-0.082962
-4.422795	DEMUESTRAN	-0.206968
-4.582476	DEMÁS	-0.082962
-4.582476	DEMÓDEX	-0.082962
-4.582476	DENEGAR	-0.082962
-4.318820	DENGUE	-0.082962
-4.422795	DENOMINA	-0.082962
-4.318820	DENOMINACIÓN	-0.082962
-3.887006	DENOMINADA	-0.082962
-4.422795	DENOMINADAS	-0.082962
-4.164792	DENOMINADO	-0.082962
-4.164792	DENOMINADOS	-0.082962
-4.582476	DENOMINAN	-0.082962
-4.422795	DENOMINAR	-0.082962
-4.582476	DENOMINARSE	-0.082962
-4.582476	DENOMINÁNDOSE	-0.082962
-4.582476	DENOMINÓ	-0.082962
-4.582476	DENOTA	-0.082962
-4.582476	DENOTAN	-0.082962
-4.582476	DENOTANDO	-0.082962
-4.582476	DENSA	-0.082962
-4.582476	DENSAMENTE	-0.082962
-4.318820	DENSIDAD	-0.140554
-4.582476	DENSITOMETRÍA	-0.082962
-4.582476	DENTADURA	-0.082962
-4.318820	DENTALES	-0.082962
-4.582476	DENTICIÓN	-0.082962
-4.582476	DENTISTA	-0.082962
-3.117437	DENTRO	-1.175923
-4.582476	DENUNCIAN	-0.082962
-4.422795	DEONTOLOGÍA	-0.206968
-4.582476	DEPARTAMENTAL	-0.082962
-4.422795	DEPARTAMENTO	-0.206968
-4.582476	DEPARTAMENTOS	-0.082962
-3.634757	DEPENDE	-0.544252
-4.582476	DEPENDENCIA	-0.082962
-4.582476	DEPENDERÁ	-0.082962
-3.634757	DEPENDIENDO	-0.579014
