
\data\
ngram 1=243
ngram 2=451
ngram 3=478

\1-grams:
-1.345667	</s>
-99	<s>	-0.144304
-2.633031	120ML	-0.047103
-2.633031	15MMG	-0.047103
-1.683485	A	-0.047103
-2.633031	ACÚMULOS	-0.047103
-2.633031	ADEMÁS	-0.047103
-2.633031	ADMISIBLE	-0.047103
-2.633031	AGÓNICO	-0.047103
-2.015945	AL	-0.047103
-2.633031	ALIVIO	-0.047103
-2.633031	ALLEGADOS	-0.047103
-2.633031	ALLÁ	-0.047103
-2.633031	ANIMALES	-0.047103
-2.633031	ANTE	-0.047103
-2.633031	ANTERIOR	-0.047103
-2.633031	ANTES	-0.047103
-2.633031	AQUELLOS	-0.047103
-2.633031	ATIENDEN	-0.047103
-2.544269	AUMENTO	-0.047103
-2.544269	AUNQUE	-0.047103
-2.633031	AVANCES	-0.047103
-2.633031	AVECINA	-0.047103
-2.633031	BIEN	-0.047103
-2.633031	CAMBIOS	-0.047103
-2.633031	CAPACES	-0.047103
-2.633031	CASOS	-0.047103
-2.544269	CEREBRAL	-0.047103
-2.633031	CIENTÍFICAS	-0.047103
-2.633031	CLASE	-0.047103
-2.015945	COMO	-0.077557
-2.633031	COMPARTIMENTO	-0.047103
-2.633031	COMPENSACIÓN	-0.047103
-2.633031	COMPENSATORIOS	-0.047103
-2.129467	COMPONENTES	-0.047103
-2.633031	COMPORTA	-0.047103
-2.633031	COMPRENDIDAS	-0.047103
-2.633031	COMPROMETER	-0.047103
-2.633031	COMÚN	-0.047103
-1.926033	CON	-0.047103
-2.633031	CONCEPTO	-0.047103
-2.633031	CONJUNTO	-0.047103
-2.633031	CONOCE	-0.047103
-2.633031	CONOCIDO	-0.047103
-2.633031	CONSIDERADA	-0.047103
-2.633031	CONSIDERAN	-0.047103
-2.633031	CORRECTA	-0.047103
-2.633031	CREAN	-0.047103
-2.544269	CRÁNEO	-0.047103
-2.633031	CUALQUIER	-0.047103
-2.633031	CUANDO	-0.047103
-2.633031	CUERPO	-0.047103
-2.633031	CURACIÓN	-0.047103
-2.633031	CUYA	-0.047103
-1.201663	DE	-0.157526
-2.633031	DEBAJO	-0.047103
-1.926033	DEL	-0.047103
-2.633031	DENTRO	-0.047103
-2.544269	DESARROLLAR	-0.047103
-2.633031	DESARROLLO	-0.047103
-2.633031	DESCONCERTAR	-0.047103
-2.633031	DESPLAZAMIENTO	-0.047103
-2.633031	DETERMINADA	-0.047103
-2.633031	DIAGNÓSTICO	-0.047103
-2.544269	DISMINUCIÓN	-0.110308
-2.633031	DONDE	-0.047103
-2.633031	DOS	-0.047103
-2.633031	DOSIS	-0.047103
-2.633031	ED	-0.047103
-2.633031	EFICAZ	-0.047103
-1.562601	EL	-0.075705
-2.633031	EMERGENCIA	-0.047103
-2.633031	EMPLEADO	-0.047103
-1.732625	EN	-0.047103
-2.633031	ENERGÍA	-0.047103
-2.633031	ENFERMEDAD	-0.047103
-2.633031	ENFERMEDADES	-0.047103
-2.633031	ENFERMOS	-0.047103
-2.633031	ENGAÑOSA	-0.047103
-2.633031	ENTRE	-0.047103
-2.633031	EQUILIBRO	-0.047103
-1.639345	ES	-0.069037
-2.633031	ESPECIE	-0.047103
-2.129467	ESTA	-0.077557
-2.633031	ESTABLECE	-0.047103
-2.633031	ESTE	-0.047103
-2.633031	ESTRÓGENOS	-0.047103
-2.633031	ESTÁ	-0.047103
-2.633031	ETNOBOTÁNICA	-0.047103
-2.633031	EXISTIENDO	-0.047103
-2.633031	EXISTIR	-0.047103
-2.633031	EXPLICARLA	-0.047103
-2.633031	FALLEZCA	-0.047103
-2.633031	FALTAN	-0.047103
-2.633031	FARMACOLOGÍA	-0.047103
-2.633031	FENÓMENO	-0.047103
-2.633031	FIJO	-0.047103
-2.633031	FINALIDAD	-0.047103
-2.633031	FISIOLÓGICO	-0.047103
-2.633031	FORMA	-0.047103
-2.633031	FRECUENCIA	-0.047103
-2.633031	FRECUENTE	-0.047103
-2.633031	GENERAN	-0.047103
-2.633031	GINECOMASTIA	-0.047103
-2.633031	GRADO	-0.047103
-2.633031	GRASA	-0.047103
-2.633031	HABER	-0.047103
-2.633031	HACE	-0.047103
-2.544269	HIPÓTESIS	-0.047103
-2.633031	IDENTIFICA	-0.047103
-2.633031	INCLUSO	-0.047103
-2.633031	INCLUYE	-0.047103
-2.633031	INCREMENTAR	-0.047103
-2.633031	INCREMENTO	-0.047103
-2.633031	INFERIORES	-0.047103
-2.633031	INTENTO	-0.047103
-2.544269	INTERIOR	-0.047103
-2.633031	INTERNOS	-0.047103
-2.633031	INTRACRANEAL	-0.047103
-1.468141	LA	-0.267830
-2.544269	LAS	-0.047103
-2.129467	LCR	-0.077557
-2.633031	LE	-0.047103
-2.633031	LLAMA	-0.047103
-2.633031	LLEGA	-0.047103
-2.633031	LLEGUE	-0.047103
-2.633031	LLEVANDO	-0.047103
-2.633031	LLEVARLA	-0.047103
-2.544269	LO	-0.110308
-1.732625	LOS	-0.057932
-2.633031	MAMA	-0.047103
-2.633031	MAMAS	-0.047103
-2.633031	MANIFESTACIÓN	-0.047103
-2.633031	MANTENER	-0.047103
-2.633031	MANUAL	-0.047103
-2.633031	MECANISMOS	-0.047103
-2.633031	MEDICA	-0.047103
-2.633031	MEDICAMENTOS	-0.047103
-2.544269	MEDICINA	-0.047103
-2.633031	MEDIOS	-0.047103
-2.633031	MEJOR	-0.047103
-2.633031	MEJORÍA	-0.047103
-2.633031	MENOR	-0.047103
-2.633031	MENOS	-0.047103
-2.633031	MERCURIO	-0.047103
-2.633031	MISMOS	-0.047103
-2.633031	MONRO-KELLIE	-0.047103
-2.633031	MONRO-KELLIELA	-0.047103
-2.633031	MORIBUNDA	-0.047103
-2.633031	MUCHO	-0.047103
-2.633031	MUCHOS	-0.047103
-2.633031	MUERTE	-0.047103
-2.544269	MUY	-0.047103
-2.544269	MÁS	-0.047103
-2.633031	MÁXIMO	-0.047103
-2.633031	MÍNIMO	-0.047103
-2.633031	MÍSTICO-FILOSÓFICAS	-0.047103
-2.633031	NIVEL	-0.047103
-2.544269	NO	-0.047103
-2.633031	NORMALES	-0.047103
-1.683485	O	-0.047103
-2.633031	OBESOS	-0.047103
-2.633031	OBSERVAR	-0.047103
-2.633031	OBSTANTE	-0.047103
-2.129467	OTROS	-0.047103
-2.633031	PALIACIÓN	-0.047103
-1.851580	PARA	-0.047103
-2.633031	PARTE	-0.047103
-2.633031	PATOLÓGICO	-0.047103
-2.544269	PERFUSIÓN	-0.047103
-2.633031	PERO	-0.047103
-2.544269	PERSONA	-0.047103
-2.544269	POCO	-0.047103
-2.015945	POR	-0.071293
-2.633031	POSIBLE	-0.047103
-2.633031	PREPARAR	-0.047103
-2.633031	PREPARARSE	-0.047103
-2.633031	PRESENTAN	-0.047103
-2.633031	PRESIÓN	-0.047103
-2.633031	PRINCIPAL	-0.047103
-2.633031	PROCEDIMIENTO	-0.047103
-2.633031	PROCESO	-0.047103
-2.633031	PRODUCE	-0.047103
-2.633031	PRÁCTICAS	-0.047103
-2.544269	PSEUDOGINECOMASTIA	-0.047103
-2.633031	PSEUDOMEJORA	-0.047103
-2.633031	PUEDE	-0.047103
-1.562601	QUE	-0.190528
-2.633031	QUIENES	-0.047103
-2.544269	RANGO	-0.047103
-2.633031	RANGOS	-0.047103
-2.633031	RECUPERACIÓN	-0.047103
-2.633031	REFERENCIA	-0.047103
-2.633031	RELACIÓN	-0.047103
-2.633031	RELIGIOSAS	-0.047103
-2.633031	RESPONDEN	-0.047103
-2.633031	RETARDA	-0.047103
-2.633031	RÍGIDO	-0.047103
-2.633031	SABE	-0.047103
-2.544269	SANGRE	-0.047103
-1.788042	SE	-0.057019
-2.633031	SERÍA	-0.047103
-2.633031	SI	-0.047103
-2.633031	SIENDO	-0.047103
-2.633031	SITUACIÓN	-0.047103
-2.544269	SOBRE	-0.047103
-2.633031	SOMETIDOS	-0.047103
-2.015945	SON	-0.047103
-2.544269	SU	-0.047103
-2.633031	SUELEN	-0.047103
-2.633031	SUS	-0.047103
-2.544269	SÍNTOMAS	-0.047103
-2.129467	TAMBIEN	-0.047103
-2.633031	TAMPONES	-0.047103
-2.633031	TAMPÓN	-0.047103
-2.544269	TEJIDO	-0.110308
-2.633031	TEORÍA	-0.047103
-2.633031	TERAPEUTICO	-0.047103
-2.633031	TERMINALES	-0.047103
-2.633031	TERMINO	-0.047103
-2.633031	TIEMPO	-0.047103
-2.633031	TIENE	-0.047103
-2.633031	TODO	-0.047103
-2.633031	TOMA	-0.047103
-2.544269	TRATAMIENTO	-0.047103
-2.633031	TRES	-0.047103
-2.633031	U	-0.047103
-1.788042	UN	-0.047103
-1.683485	UNA	-0.047103
-2.633031	UNO	-0.047103
-2.633031	VALORAR	-0.047103
-2.633031	VARIADA	-0.047103
-2.633031	VARONES	-0.047103
-2.633031	VENOSA	-0.047103
-2.633031	VERDADERAS	-0.047103
-2.633031	VIVIR	-0.047103
-2.544269	VOLUMEN	-0.047103
-2.633031	VOLUMEN-PRESIÓN	-0.047103
-2.633031	VOLÚMENES	-0.047103
-1.732625	Y	-0.074066
-2.633031	YA	-0.047103
-2.633031	ÚLTIMA	-0.047103
-2.633031	ÚLTIMO	-0.047103

\2-grams:
-1.425961	<s> </s>
-1.617979	<s> AQUELLOS	-0.009105
-1.865060	<s> CON	-0.009105
-0.797622	<s> EL	-0.009105
-1.447252	<s> EN
-1.410191	<s> ES	-0.009105
-1.329386	<s> LA	-0.009105
-1.447252	<s> LOS	-0.009105
-2.166918	<s> MANUAL	-0.009105
-2.143414	<s> RANGO	-0.009105
-1.774049	<s> SE	-0.009105
-2.143414	<s> SU	-0.009105
-0.843867	120ML </s>
-0.798117	15MMG DE	-0.009105
-1.869375	A 120ML	-0.009105
-1.869375	A COMPROMETER	-0.009105
-1.854409	A DESARROLLAR	-0.009105
-1.869375	A DESCONCERTAR	-0.009105
-1.552428	A LOS	-0.009105
-1.869375	A QUIENES	-0.009105
-1.854409	A SU	-0.009105
-1.854409	A TRATAMIENTO	-0.009105
-1.522646	A UNA	-0.009105
-0.798117	ACÚMULOS DE	-0.009105
-0.977382	ADEMÁS MUY	-0.009105
-0.843867	ADMISIBLE </s>
-0.843867	AGÓNICO </s>
-1.556196	AL DESARROLLO	-0.009105
-1.556196	AL EXISTIR	-0.009105
-1.556196	AL INCREMENTO	-0.009105
-1.548855	AL MÁS	-0.009105
-0.979339	ALIVIO PALIACIÓN	-0.009105
-0.798117	ALLEGADOS DE	-0.009105
-0.915855	ALLÁ O	-0.009105
-0.977382	ANIMALES NO	-0.009105
-0.979339	ANTE CAMBIOS	-0.009105
-0.843867	ANTERIOR </s>
-0.798117	ANTES DE	-0.009105
-1.271804	AQUELLOS MECANISMOS	-0.009105
-1.271804	AQUELLOS TAMPONES	-0.009105
-0.979339	ATIENDEN YA	-0.009105
-0.967438	AUMENTO DE	-0.009105
-1.154979	AUMENTO O	-0.009105
-1.236189	AUNQUE ESTA	-0.009105
-1.180398	AUNQUE SE	-0.009105
-0.798117	AVANCES DE	-0.009105
-0.843867	AVECINA </s>
-0.908795	BIEN ES	-0.009105
-0.798117	CAMBIOS DE	-0.009105
-0.798117	CAPACES DE	-0.009105
-0.979339	CASOS LLEGA	-0.009105
-1.556196	CEREBRAL CONOCIDO	-0.009105
-1.556196	CEREBRAL CREAN	-0.009105
-1.556196	CEREBRAL SIENDO	-0.009105
-1.373637	CEREBRAL Y	-0.009105
-0.979339	CIENTÍFICAS RELIGIOSAS	-0.009105
-0.979339	CLASE CUYA	-0.009105
-0.851964	COMO LA	-0.009105
-1.405354	COMO UN	-0.009105
-1.366205	COMO UNA	-0.009105
-0.979339	COMPARTIMENTO RÍGIDO	-0.009105
-0.952988	COMPENSACIÓN POR	-0.009105
-0.952988	COMPENSATORIOS SON	-0.009105
-1.126445	COMPONENTES </s>
-1.439497	COMPONENTES INTERNOS	-0.009105
-1.439497	COMPONENTES TIENE	-0.009105
-0.952988	COMPORTA COMO	-0.009105
-0.979339	COMPRENDIDAS ENTRE	-0.009105
-0.875118	COMPROMETER LA	-0.009105
-0.895009	COMÚN QUE	-0.009105
-1.345625	CON EL	-0.009105
-1.645020	CON ESTRÓGENOS	-0.009105
-1.645020	CON FRECUENCIA	-0.009105
-1.429889	CON LOS	-0.009105
-1.453783	CON UN	-0.009105
-0.979339	CONCEPTO EMPLEADO	-0.009105
-0.798117	CONJUNTO DE	-0.009105
-0.798117	CONOCE DE	-0.009105
-0.952988	CONOCIDO COMO	-0.009105
-0.915855	CONSIDERADA UNA	-0.009105
-0.960812	CONSIDERAN ESTA	-0.009105
-0.977382	CORRECTA PERFUSIÓN	-0.009105
-0.915855	CREAN UNA	-0.009105
-1.126445	CRÁNEO </s>
-1.310885	CRÁNEO SE	-0.009105
-1.293559	CRÁNEO Y	-0.009105
-0.979339	CUALQUIER CLASE	-0.009105
-0.952988	CUANDO SON	-0.009105
-0.937752	CUERPO PARA	-0.009105
-0.915855	CURACIÓN O	-0.009105
-0.979339	CUYA FINALIDAD	-0.009105
-2.287014	DE ACÚMULOS	-0.009105
-2.287014	DE CUALQUIER	-0.009105
-2.287014	DE ENERGÍA	-0.009105
-2.287014	DE EQUILIBRO	-0.009105
-1.685427	DE ESTA	-0.009105
-2.287014	DE ETNOBOTÁNICA	-0.009105
-2.287014	DE GRASA	-0.009105
-0.920685	DE LA	-0.004529
-2.257173	DE LAS	-0.009105
-1.126360	DE LOS	-0.009105
-2.287014	DE MAMA	-0.009105
-2.287014	DE MANTENER	-0.009105
-2.287014	DE MEDIOS	-0.009105
-2.287014	DE MERCURIO	-0.009105
-2.257173	DE PERFUSIÓN	-0.009105
-1.461950	DE QUE	-0.009105
-2.287014	DE TEORÍA	-0.009105
-1.827410	DE UN	-0.009105
-2.287014	DE UNO	-0.009105
-1.194744	DE VOLUMEN	-0.009105
-0.945303	DEBAJO DEL	-0.009105
-1.636030	DEL CRÁNEO	-0.009105
-1.645020	DEL CUERPO	-0.009105
-1.565175	DEL LCR	-0.009105
-1.636030	DEL RANGO	-0.009105
-1.636030	DEL TEJIDO	-0.009105
-0.798117	DENTRO DE	-0.009105
-1.154979	DESARROLLAR UNA	-0.009105
-1.271804	DESARROLLAR VERDADERAS	-0.009105
-0.798117	DESARROLLO DE	-0.009105
-0.977382	DESCONCERTAR SOBRE	-0.009105
-0.952988	DESPLAZAMIENTO POR	-0.009105
-0.952988	DETERMINADA POR	-0.009105
-0.908795	DIAGNÓSTICO ES	-0.009105
-0.563742	DISMINUCIÓN DE	-0.009105
-0.952988	DONDE AL	-0.009105
-0.960812	DOS COMPONENTES	-0.009105
-0.979339	DOSIS COMPRENDIDAS	-0.009105
-0.843867	ED </s>
-0.923032	EFICAZ Y	-0.009105
-2.096822	EL ALIVIO	-0.009105
-2.073396	EL AUMENTO	-0.009105
-2.096822	EL CONJUNTO	-0.009105
-1.540793	EL CRÁNEO	-0.009105
-2.096822	EL DIAGNÓSTICO	-0.009105
-2.073396	EL INTERIOR	-0.009105
-1.486468	EL LCR	-0.009105
-1.547535	EL NIVEL	-0.009105
-2.096822	EL PRINCIPAL	-0.009105
-2.096822	EL PROCEDIMIENTO	-0.009105
-1.536939	EL QUE	-0.009105
-1.540793	EL TEJIDO
-2.096822	EL TERMINO	-0.009105
-0.979339	EMERGENCIA MEDICA	-0.009105
-0.923032	EMPLEADO EN	-0.009105
-1.869375	EN DONDE	-0.009105
-1.443887	EN EL	-0.009105
-1.869375	EN ENFERMOS	-0.009105
-1.869375	EN FARMACOLOGÍA	-0.009105
-1.869375	EN FORMA	-0.009105
-1.552428	EN LOS	-0.009105
-1.854409	EN MEDICINA	-0.009105
-1.869375	EN MENOR	-0.009105
-1.869375	EN MUCHOS	-0.009105
-0.937752	ENERGÍA PARA	-0.009105
-0.843867	ENFERMEDAD </s>
-0.915855	ENFERMEDADES O	-0.009105
-0.979339	ENFERMOS TERMINALES	-0.009105
-0.923032	ENGAÑOSA Y	-0.009105
-0.895009	ENTRE EL	-0.009105
-0.923032	EQUILIBRO EN	-0.009105
-1.945779	ES ADEMÁS	-0.009105
-1.192894	ES EL	-0.009105
-1.945779	ES FRECUENTE	-0.009105
-1.156077	ES LA	-0.009105
-1.945779	ES MUCHO	-0.009105
-1.928852	ES MUY	-0.009105
-1.945779	ES PATOLÓGICO	-0.009105
-1.804784	ES TAMBIEN	-0.009105
-1.633746	ES UN	-0.009105
-0.798117	ESPECIE DE	-0.009105
-0.942717	ESTA MEJORÍA	-0.009105
-1.551530	ESTA PERSONA	-0.009105
-1.558413	ESTA SITUACIÓN	-0.009105
-0.895009	ESTABLECE QUE	-0.009105
-0.979339	ESTE FENÓMENO	-0.009105
-0.979339	ESTRÓGENOS U	-0.009105
-0.979339	ESTÁ DETERMINADA	-0.009105
-0.979339	ETNOBOTÁNICA ED	-0.009105
-0.930330	EXISTIENDO UN	-0.009105
-0.930330	EXISTIR UN	-0.009105
-0.952988	EXPLICARLA COMO	-0.009105
-0.843867	FALLEZCA </s>
-0.977382	FALTAN HIPÓTESIS	-0.009105
-0.895009	FARMACOLOGÍA QUE	-0.009105
-0.923032	FENÓMENO EN	-0.009105
-0.915855	FIJO A	-0.009105
-0.908795	FINALIDAD ES	-0.009105
-0.977382	FISIOLÓGICO AUNQUE	-0.009105
-0.798117	FORMA DE	-0.009105
-0.923032	FRECUENCIA LOS	-0.009105
-0.895009	FRECUENTE QUE	-0.009105
-0.979339	GENERAN CUANDO	-0.009105
-0.843867	GINECOMASTIA </s>
-0.875118	GRADO LA	-0.009105
-0.923032	GRASA EN	-0.009105
-0.915855	HABER UNA	-0.009105
-0.979339	HACE REFERENCIA	-0.009105
-1.556196	HIPÓTESIS CIENTÍFICAS	-0.009105
-1.556196	HIPÓTESIS ESTABLECE	-0.009105
-1.556196	HIPÓTESIS MONRO-KELLIE	-0.009105
-1.556196	HIPÓTESIS MONRO-KELLIELA	-0.009105
-0.915855	IDENTIFICA UNA	-0.009105
-0.915855	INCLUSO A	-0.009105
-0.977382	INCLUYE LAS	-0.009105
-0.923032	INCREMENTAR LOS	-0.009105
-0.798117	INCREMENTO DE	-0.009105
-0.915855	INFERIORES A	-0.009105
-0.945303	INTENTO DEL	-0.009105
-1.036822	INTERIOR </s>
-1.207398	INTERIOR DEL	-0.009105
-0.977382	INTERNOS SANGRE	-0.009105
-1.556196	INTRACRANEAL DENTRO	-0.009105
-1.334597	INTRACRANEAL ES	-0.009105
-1.250048	INTRACRANEAL LA	-0.009105
-1.464141	INTRACRANEAL POR	-0.009105
-2.194118	LA ANTERIOR	-0.009105
-2.194118	LA ATIENDEN	-0.009105
-2.194118	LA CORRECTA	-0.009105
-2.194118	LA CURACIÓN	-0.009105
-1.408233	LA DE	-0.009105
-1.039705	LA HIPÓTESIS	-0.009105
-2.175189	LA MEDICINA	-0.009105
-2.194118	LA MUERTE	-0.009105
-2.194118	LA PRESENTAN	-0.009105
-0.618022	LA PRESIÓN	-0.149747
-1.039705	LA SANGRE	-0.009105
-1.271804	LAS DOSIS	-0.009105
-1.271804	LAS ENFERMEDADES	-0.009105
-1.266319	LCR LA	-0.009105
-1.366205	LCR O	-0.009105
-0.894035	LCR Y	-0.009105
-0.979339	LE AVECINA	-0.009105
-1.271804	LLAMA GINECOMASTIA	-0.009105
-1.267975	LLAMA PSEUDOGINECOMASTIA	-0.009105
-0.915855	LLEGA A	-0.009105
-0.915855	LLEGUE A	-0.009105
-0.915855	LLEVANDO A	-0.009105
-0.952988	LLEVARLA AL	-0.009105
-0.609876	LO QUE
-1.943812	LOS 15MMG	-0.009105
-1.943812	LOS ALLEGADOS	-0.009105
-1.943812	LOS AVANCES	-0.009105
-1.943812	LOS MISMOS	-0.009105
-1.800264	LOS OTROS	-0.009105
-1.943812	LOS RANGOS	-0.009105
-1.926532	LOS SÍNTOMAS	-0.009105
-1.943812	LOS TRES	-0.009105
-1.368356	LOS VARONES	-0.009105
-1.943812	LOS VOLÚMENES	-0.009105
-0.923032	MAMA EN	-0.009105
-0.977382	MAMAS LO	-0.009105
-0.908795	MANIFESTACIÓN ES	-0.009105
-0.875118	MANTENER LA	-0.009105
-0.798117	MANUAL DE	-0.009105
-0.979339	MECANISMOS COMPENSATORIOS	-0.009105
-0.843867	MEDICA </s>
-0.979339	MEDICAMENTOS SI	-0.009105
-1.230437	MEDICINA EL	-0.009105
-1.310885	MEDICINA SE	-0.009105
-1.433875	MEDICINA TRATAMIENTO	-0.009105
-0.798117	MEDIOS DE	-0.009105
-0.979339	MEJOR ESTE	-0.009105
-1.267975	MEJORÍA AUNQUE	-0.009105
-1.221555	MEJORÍA COMO	-0.009105
-0.979339	MENOR GRADO	-0.009105
-0.979339	MENOS COMÚN	-0.009105
-0.908795	MERCURIO ES	-0.009105
-0.843867	MISMOS </s>
-0.875118	MONRO-KELLIE LA	-0.009105
-0.979339	MONRO-KELLIELA RELACIÓN	-0.009105
-0.979339	MORIBUNDA FALLEZCA	-0.009105
-0.979339	MUCHO MENOS	-0.009105
-0.979339	MUCHOS CASOS	-0.009105
-0.923032	MUERTE Y	-0.009105
-1.271804	MUY ENGAÑOSA	-0.009105
-1.271804	MUY VARIADA	-0.009105
-1.271804	MÁS ALLÁ	-0.009105
-1.086589	MÁS LA	-0.009105
-0.979339	MÁXIMO ADMISIBLE	-0.009105
-0.979339	MÍNIMO EFICAZ	-0.009105
-0.937752	MÍSTICO-FILOSÓFICAS PARA	-0.009105
-1.271804	NIVEL MÁXIMO	-0.009105
-1.271804	NIVEL MÍNIMO	-0.009105
-1.271804	NO FALTAN	-0.009105
-1.271804	NO OBSTANTE	-0.009105
-0.979339	NORMALES ANTE	-0.009105
-1.168677	O DE	-0.009105
-1.854409	O DISMINUCIÓN	-0.009105
-1.443887	O EL	-0.009105
-1.869375	O INCLUSO	-0.009105
-1.869375	O MÍSTICO-FILOSÓFICAS	-0.009105
-1.618923	O PARA	-0.009105
-1.869375	O PREPARARSE	-0.009105
-1.854409	O SÍNTOMAS	-0.009105
-1.584404	O UN	-0.009105
-0.960812	OBESOS TAMBIEN	-0.009105
-0.977382	OBSERVAR DISMINUCIÓN	-0.009105
-0.977382	OBSTANTE NO	-0.009105
-1.439497	OTROS ANIMALES	-0.009105
-1.439497	OTROS DOS	-0.009105
-1.439497	OTROS MEDICAMENTOS	-0.009105
-0.798117	PALIACIÓN DE	-0.009105
-1.716263	PARA EXPLICARLA	-0.009105
-1.716263	PARA INCREMENTAR	-0.009105
-1.716263	PARA LLEVARLA	-0.009105
-1.705690	PARA LO	-0.009105
-1.716263	PARA PREPARAR	-0.009105
-1.716263	PARA VIVIR	-0.009105
-0.967438	PARTE DE	-0.009105
-1.207398	PARTE DEL	-0.009105
-0.979339	PATOLÓGICO LLEVANDO	-0.009105
-1.267975	PERFUSIÓN CEREBRAL	-0.009105
-1.207398	PERFUSIÓN DEL	-0.009105
-0.977382	PERO POCO	-0.009105
-1.271804	PERSONA MORIBUNDA	-0.009105
-1.154979	PERSONA O	-0.009105
-1.180398	POCO SE	-0.009105
-1.271804	POCO TIEMPO	-0.009105
-1.647196	POR DEBAJO	-0.009105
-1.358627	POR EL	-0.009105
-1.037644	POR PARTE	-0.009105
-1.638646	POR SOBRE	-0.009105
-0.979339	POSIBLE OBSERVAR	-0.009105
-0.915855	PREPARAR O	-0.009105
-0.937752	PREPARARSE PARA	-0.009105
-0.960812	PRESENTAN OTROS	-0.009105
-1.042606	PRESIÓN DE	-0.009105
-1.293559	PRESIÓN EN	-0.009105
-1.439497	PRESIÓN INTRACRANEAL	-0.005440
-0.979339	PRINCIPAL TAMPÓN	-0.009105
-0.945303	PROCEDIMIENTO CON	-0.009105
-0.979339	PROCESO AGÓNICO	-0.009105
-0.977382	PRODUCE POCO	-0.009105
-0.798117	PRÁCTICAS DE	-0.009105
-1.036822	PSEUDOGINECOMASTIA </s>
-1.221555	PSEUDOGINECOMASTIA AL	-0.009105
-0.895009	PSEUDOMEJORA QUE	-0.009105
-0.979339	PUEDE VALORAR	-0.009105
-2.026519	QUE CONSIDERAN	-0.009105
-1.592412	QUE EL	-0.009105
-2.026519	QUE HABER	-0.009105
-2.026519	QUE INCLUYE	-0.009105
-1.525039	QUE LA	-0.009105
-0.519439	QUE SE	-0.009105
-2.026519	QUE SERÍA	-0.009105
-1.896443	QUE TAMBIEN	-0.009105
-1.672192	QUE UNA	-0.009105
-0.875118	QUIENES LA	-0.009105
-1.271804	RANGO FISIOLÓGICO	-0.009105
-1.271804	RANGO TERAPEUTICO	-0.009105
-0.979339	RANGOS NORMALES	-0.009105
-0.798117	RECUPERACIÓN DE	-0.009105
-0.915855	REFERENCIA A	-0.009105
-0.979339	RELACIÓN VOLUMEN-PRESIÓN	-0.009105
-0.915855	RELIGIOSAS O	-0.009105
-0.952988	RESPONDEN AL	-0.009105
-0.977382	RETARDA MÁS	-0.009105
-0.945303	RÍGIDO CON	-0.009105
-0.895009	SABE QUE	-0.009105
-1.179306	SANGRE </s>
-1.298779	SANGRE EL	-0.009105
-1.490055	SANGRE LCR	-0.009105
-1.556196	SANGRE VENOSA	-0.009105
-1.974415	SE COMPORTA	-0.009105
-1.974415	SE CONOCE	-0.009105
-1.974415	SE GENERAN	-0.009105
-1.974415	SE IDENTIFICA	-0.009105
-1.974415	SE LE	-0.009105
-1.404223	SE LLAMA	-0.009105
-1.974415	SE LLEGUE	-0.009105
-1.974415	SE PRODUCE	-0.009105
-1.974415	SE PUEDE	-0.009105
-1.974415	SE RETARDA	-0.009105
-1.974415	SE SABE	-0.009105
-0.915855	SERÍA UNA	-0.009105
-0.979339	SI BIEN	-0.009105
-0.979339	SIENDO CONSIDERADA	-0.009105
-0.908795	SITUACIÓN ES	-0.009105
-1.167503	SOBRE LOS	-0.009105
-1.271804	SOBRE TODO	-0.009105
-0.915855	SOMETIDOS A	-0.009105
-1.556196	SON CAPACES	-0.009105
-1.439686	SON CON	-0.009105
-1.298779	SON EL	-0.009105
-1.556196	SON SOMETIDOS	-0.009105
-1.267975	SU INTERIOR	-0.009105
-1.271804	SU MANIFESTACIÓN	-0.009105
-0.977382	SUELEN DESARROLLAR	-0.009105
-0.960812	SUS COMPONENTES	-0.009105
-1.036822	SÍNTOMAS </s>
-1.221555	SÍNTOMAS SON	-0.009105
-1.188470	TAMBIEN LA	-0.009105
-1.439497	TAMBIEN POSIBLE	-0.009105
-1.439497	TAMBIEN SUELEN	-0.009105
-0.979339	TAMPONES RESPONDEN	-0.009105
-0.937752	TAMPÓN PARA	-0.009105
-0.644895	TEJIDO CEREBRAL	-0.009105
-0.923032	TEORÍA Y	-0.009105
-0.908795	TERAPEUTICO ES	-0.009105
-0.979339	TERMINALES PERO	-0.009105
-0.979339	TERMINO HACE	-0.009105
-0.979339	TIEMPO ANTES	-0.009105
-0.895009	TIENE QUE	-0.009105
-0.915855	TODO A	-0.009105
-0.798117	TOMA DE	-0.009105
-1.207398	TRATAMIENTO CON	-0.009105
-1.142807	TRATAMIENTO ES	-0.009105
-0.960812	TRES COMPONENTES	-0.009105
-0.960812	U OTROS	-0.009105
-1.763320	UN AUMENTO	-0.009105
-1.775414	UN COMPARTIMENTO	-0.009105
-1.775414	UN CONCEPTO	-0.009105
-1.775414	UN DESPLAZAMIENTO	-0.009105
-1.775414	UN PROCESO	-0.009105
-1.763320	UN VOLUMEN	-0.009105
-1.775414	UN ÚLTIMO	-0.009105
-1.869375	UNA COMPENSACIÓN	-0.009105
-1.869375	UNA EMERGENCIA	-0.009105
-1.869375	UNA ENFERMEDAD	-0.009105
-1.869375	UNA ESPECIE	-0.009105
-1.854409	UNA PERSONA	-0.009105
-1.854409	UNA PSEUDOGINECOMASTIA	-0.009105
-1.869375	UNA PSEUDOMEJORA	-0.009105
-1.869375	UNA RECUPERACIÓN	-0.009105
-1.869375	UNA ÚLTIMA	-0.009105
-0.798117	UNO DE	-0.009105
-0.979339	VALORAR MEJOR	-0.009105
-0.843867	VARIADA </s>
-1.271804	VARONES OBESOS	-0.009105
-1.167503	VARONES Y	-0.009105
-0.843867	VENOSA </s>
-0.979339	VERDADERAS MAMAS	-0.009105
-0.915855	VIVIR O	-0.009105
-1.085709	VOLUMEN DE	-0.009105
-1.556196	VOLUMEN EXISTIENDO	-0.009105
-1.556196	VOLUMEN FIJO	-0.009105
-1.556196	VOLUMEN INFERIORES	-0.009105
-0.979339	VOLUMEN-PRESIÓN ESTÁ	-0.009105
-0.952988	VOLÚMENES SON	-0.009105
-1.137090	Y EL	-0.009105
-1.184077	Y EN	-0.009105
-1.396698	Y LA	-0.009105
-1.873436	Y PRÁCTICAS	-0.009105
-1.462110	Y QUE	-0.009105
-1.599334	Y SE	-0.009105
-1.873436	Y SUS	-0.009105
-0.895009	YA QUE	-0.009105
-0.979339	ÚLTIMA TOMA	-0.009105
-0.979339	ÚLTIMO INTENTO	-0.009105

\3-grams:
-1.202425	<s> AQUELLOS MECANISMOS
-1.202425	<s> AQUELLOS TAMPONES
-1.243068	<s> CON LOS
-1.871065	<s> EL AUMENTO
-1.476551	<s> EL CRÁNEO
-1.885311	<s> EL PRINCIPAL
-1.885311	<s> EL TERMINO
-1.854409	<s> EN MEDICINA
-1.659375	<s> ES MUY
-1.589669	<s> ES TAMBIEN
-1.001118	<s> LA HIPÓTESIS
-0.608444	<s> LA PRESIÓN
-1.658152	<s> LOS SÍNTOMAS
-1.281458	<s> LOS VARONES
-0.752954	<s> MANUAL DE
-1.135977	<s> RANGO TERAPEUTICO
-1.226547	<s> SE LLAMA
-1.135977	<s> SU MANIFESTACIÓN
-1.588317	15MMG DE MERCURIO
-0.793073	A 120ML </s>
-0.820170	A COMPROMETER LA
-1.135977	A DESARROLLAR VERDADERAS
-0.906903	A DESCONCERTAR SOBRE
-1.496319	A LOS ALLEGADOS
-0.820170	A QUIENES LA
-1.133230	A SU INTERIOR
-1.088896	A TRATAMIENTO CON
-1.468832	A UNA PSEUDOMEJORA
-1.588317	ACÚMULOS DE GRASA
-1.135977	ADEMÁS MUY VARIADA
-0.752954	AL DESARROLLO DE
-0.867382	AL EXISTIR UN
-0.752954	AL INCREMENTO DE
-1.135977	AL MÁS ALLÁ
-0.752954	ALIVIO PALIACIÓN DE
-1.387722	ALLEGADOS DE ESTA
-1.334945	ALLÁ O UN
-1.135977	ANIMALES NO OBSTANTE
-0.752954	ANTE CAMBIOS DE
-1.263213	ANTES DE QUE
-0.908532	AQUELLOS MECANISMOS COMPENSATORIOS
-0.908532	AQUELLOS TAMPONES RESPONDEN
-0.837279	ATIENDEN YA QUE
-0.859198	AUMENTO DE LA
-1.462943	AUMENTO O DISMINUCIÓN
-1.320422	AUNQUE ESTA SITUACIÓN
-1.506770	AUNQUE SE SABE
-0.859198	AVANCES DE LA
-1.497005	BIEN ES FRECUENTE
-1.079428	CAMBIOS DE VOLUMEN
-1.588317	CAPACES DE MANTENER
-0.855090	CASOS LLEGA A
-0.886500	CEREBRAL CONOCIDO COMO
-0.855090	CEREBRAL CREAN UNA
-0.908532	CEREBRAL SIENDO CONSIDERADA
-1.221638	CEREBRAL Y LA
-0.855090	CIENTÍFICAS RELIGIOSAS O
-0.908532	CLASE CUYA FINALIDAD
-1.313130	COMO LA DE
-1.001118	COMO LA HIPÓTESIS
-1.429796	COMO UN COMPARTIMENTO
-1.468832	COMO UNA RECUPERACIÓN
-0.880033	COMPARTIMENTO RÍGIDO CON
-0.956474	COMPENSACIÓN POR PARTE
-1.319166	COMPENSATORIOS SON CAPACES
-0.906903	COMPONENTES INTERNOS SANGRE
-0.837279	COMPONENTES TIENE QUE
-1.227282	COMPORTA COMO UN
-0.837279	COMPRENDIDAS ENTRE EL
-1.568478	COMPROMETER LA CORRECTA
-1.301215	COMÚN QUE LA
-1.308135	CON EL QUE
-0.908532	CON ESTRÓGENOS U
-0.861192	CON FRECUENCIA LOS
-1.496319	CON LOS AVANCES
-1.424411	CON UN VOLUMEN
-0.861192	CONCEPTO EMPLEADO EN
-1.588317	CONJUNTO DE MEDIOS
-1.387722	CONOCE DE ESTA
-0.800119	CONOCIDO COMO LA
-1.468832	CONSIDERADA UNA EMERGENCIA
-0.877853	CONSIDERAN ESTA MEJORÍA
-1.088896	CORRECTA PERFUSIÓN DEL
-1.468832	CREAN UNA ESPECIE
-1.506770	CRÁNEO SE COMPORTA
-1.470408	CRÁNEO Y SUS
-0.908532	CUALQUIER CLASE CUYA
-1.319166	CUANDO SON SOMETIDOS
-1.402662	CUERPO PARA VIVIR
-1.251931	CURACIÓN O EL
-0.849071	CUYA FINALIDAD ES
-0.752954	DE ACÚMULOS DE
-0.908532	DE CUALQUIER CLASE
-0.873662	DE ENERGÍA PARA
-0.861192	DE EQUILIBRO EN
-0.913265	DE ESTA MEJORÍA
-1.421642	DE ESTA PERSONA
-0.908532	DE ETNOBOTÁNICA ED
-0.861192	DE GRASA EN
-1.928193	DE LA MEDICINA
-0.622551	DE LA PRESIÓN
-1.019983	DE LA SANGRE
-1.135977	DE LAS ENFERMEDADES
-1.649242	DE LOS OTROS
-1.743265	DE LOS RANGOS
-1.743265	DE LOS TRES
-0.861192	DE MAMA EN
-0.820170	DE MANTENER LA
-0.752954	DE MEDIOS DE
-0.849071	DE MERCURIO ES
-1.133230	DE PERFUSIÓN CEREBRAL
-1.708056	DE QUE SERÍA
-1.505788	DE QUE UNA
-0.861192	DE TEORÍA Y
-1.429796	DE UN PROCESO
-0.752954	DE UNO DE
-1.058973	DE VOLUMEN DE
-1.466943	DE VOLUMEN EXISTIENDO
-1.466943	DE VOLUMEN INFERIORES
-1.362648	DEBAJO DEL RANGO
-1.027166	DEL CRÁNEO </s>
-0.873662	DEL CUERPO PARA
-1.201443	DEL LCR O
-1.135977	DEL RANGO FISIOLÓGICO
-0.615169	DEL TEJIDO CEREBRAL
-1.027099	DENTRO DE LOS
-1.462943	DESARROLLAR UNA PSEUDOGINECOMASTIA
-0.908532	DESARROLLAR VERDADERAS MAMAS
-1.588317	DESARROLLO DE ACÚMULOS
-1.135977	DESCONCERTAR SOBRE TODO
-0.956474	DESPLAZAMIENTO POR PARTE
-1.196350	DETERMINADA POR EL
-1.078039	DIAGNÓSTICO ES EL
-0.893061	DISMINUCIÓN DE LA
-1.137198	DISMINUCIÓN DE VOLUMEN
-1.319166	DONDE AL EXISTIR
-1.027166	DOS COMPONENTES </s>
-0.908532	DOSIS COMPRENDIDAS ENTRE
-1.035437	EFICAZ Y EL
-0.908532	EL ALIVIO PALIACIÓN
-0.898608	EL AUMENTO DE
-0.752954	EL CONJUNTO DE
-1.234797	EL CRÁNEO SE
-1.220507	EL CRÁNEO Y
-0.849071	EL DIAGNÓSTICO ES
-1.088896	EL INTERIOR DEL
-1.197842	EL LCR LA
-0.868512	EL LCR Y
-1.202425	EL NIVEL MÁXIMO
-1.202425	EL NIVEL MÍNIMO
-0.908532	EL PRINCIPAL TAMPÓN
-0.880033	EL PROCEDIMIENTO CON
-0.499135	EL QUE SE
-0.644895	EL TEJIDO CEREBRAL
-0.908532	EL TERMINO HACE
-0.793073	EMERGENCIA MEDICA </s>
-1.468832	EMPLEADO EN FARMACOLOGÍA
-0.886500	EN DONDE AL
-1.537351	EN EL INTERIOR
-0.908532	EN ENFERMOS TERMINALES
-0.837279	EN FARMACOLOGÍA QUE
-0.752954	EN FORMA DE
-1.202883	EN LOS VARONES
-1.167631	EN MEDICINA EL
-1.333173	EN MEDICINA TRATAMIENTO
-0.908532	EN MENOR GRADO
-0.908532	EN MUCHOS CASOS
-1.402662	ENERGÍA PARA LLEVARLA
-1.462943	ENFERMEDADES O SÍNTOMAS
-0.908532	ENFERMOS TERMINALES PERO
-1.071394	ENGAÑOSA Y EN
-1.314231	ENTRE EL NIVEL
-1.468832	EQUILIBRO EN DONDE
-0.906903	ES ADEMÁS MUY
-1.739712	ES EL CONJUNTO
-1.739712	ES EL PROCEDIMIENTO
-0.837279	ES FRECUENTE QUE
-1.778941	ES LA CURACIÓN
-0.608444	ES LA PRESIÓN
-0.908532	ES MUCHO MENOS
-1.135977	ES MUY ENGAÑOSA
-0.908532	ES PATOLÓGICO LLEVANDO
-1.249163	ES TAMBIEN POSIBLE
-1.429796	ES UN CONCEPTO
-1.588317	ESPECIE DE EQUILIBRO
-1.199226	ESTA MEJORÍA AUNQUE
-1.160092	ESTA MEJORÍA COMO
-1.049234	ESTA PERSONA O
-0.849071	ESTA SITUACIÓN ES
-1.339342	ESTABLECE QUE EL
-0.861192	ESTE FENÓMENO EN
-0.893064	ESTRÓGENOS U OTROS
-0.886500	ESTÁ DETERMINADA POR
-0.793073	ETNOBOTÁNICA ED </s>
-1.429796	EXISTIENDO UN DESPLAZAMIENTO
-1.424411	EXISTIR UN AUMENTO
-0.800119	EXPLICARLA COMO LA
-1.319166	FALTAN HIPÓTESIS CIENTÍFICAS
-1.523468	FARMACOLOGÍA QUE INCLUYE
-1.468832	FENÓMENO EN ENFERMOS
-1.462943	FIJO A SU
-1.050077	FINALIDAD ES LA
-1.110174	FISIOLÓGICO AUNQUE ESTA
-1.588317	FORMA DE MAMA
-1.496319	FRECUENCIA LOS MISMOS
-0.499135	FRECUENTE QUE SE
-0.886500	GENERAN CUANDO SON
-0.958148	GRADO LA SANGRE
-1.468832	GRASA EN FORMA
-1.468832	HABER UNA COMPENSACIÓN
-0.855090	HACE REFERENCIA A
-0.908532	HIPÓTESIS CIENTÍFICAS RELIGIOSAS
-0.837279	HIPÓTESIS ESTABLECE QUE
-0.820170	HIPÓTESIS MONRO-KELLIE LA
-0.908532	HIPÓTESIS MONRO-KELLIELA RELACIÓN
-1.468832	IDENTIFICA UNA ENFERMEDAD
-1.468832	INCLUSO A QUIENES
-1.135977	INCLUYE LAS DOSIS
-1.496319	INCREMENTAR LOS VOLÚMENES
-1.079428	INCREMENTO DE VOLUMEN
-1.468832	INFERIORES A 120ML
-1.367315	INTENTO DEL CUERPO
-1.362648	INTERIOR DEL CRÁNEO
-1.280413	INTERNOS SANGRE LCR
-0.752954	INTRACRANEAL DENTRO DE
-1.050077	INTRACRANEAL ES LA
-0.958148	INTRACRANEAL LA SANGRE
-1.488943	INTRACRANEAL POR DEBAJO
-1.483109	INTRACRANEAL POR SOBRE
-0.793073	LA ANTERIOR </s>
-0.908532	LA ATIENDEN YA
-0.906903	LA CORRECTA PERFUSIÓN
-0.855090	LA CURACIÓN O
-1.263213	LA DE QUE
-1.466943	LA HIPÓTESIS ESTABLECE
-1.466943	LA HIPÓTESIS MONRO-KELLIE
-1.466943	LA HIPÓTESIS MONRO-KELLIELA
-1.163607	LA MEDICINA SE
-0.861192	LA MUERTE Y
-0.893064	LA PRESENTAN OTROS
-1.172758	LA PRESIÓN DE
-1.408977	LA PRESIÓN EN
-0.506594	LA PRESIÓN INTRACRANEAL
-1.144374	LA SANGRE </s>
-1.250784	LA SANGRE EL
-1.466943	LA SANGRE VENOSA
-0.908532	LAS DOSIS COMPRENDIDAS
-0.855090	LAS ENFERMEDADES O
-0.590531	LCR LA PRESIÓN
-1.059710	LCR O DE
-1.087295	LCR Y EL
-1.128033	LCR Y EN
-0.793073	LE AVECINA </s>
-0.793073	LLAMA GINECOMASTIA </s>
-1.099405	LLAMA PSEUDOGINECOMASTIA AL
-1.468832	LLEGA A DESCONCERTAR
-1.462943	LLEGUE A DESARROLLAR
-1.468832	LLEVANDO A COMPROMETER
-1.314986	LLEVARLA AL MÁS
-0.519439	LO QUE SE
-0.752954	LOS 15MMG DE
-0.752954	LOS ALLEGADOS DE
-0.752954	LOS AVANCES DE
-0.793073	LOS MISMOS </s>
-1.249163	LOS OTROS DOS
-0.908532	LOS RANGOS NORMALES
-1.099405	LOS SÍNTOMAS SON
-0.893064	LOS TRES COMPONENTES
-1.202425	LOS VARONES OBESOS
-1.113730	LOS VARONES Y
-0.886500	LOS VOLÚMENES SON
-1.317024	MAMA EN LOS
-0.583037	MAMAS LO QUE
-1.497005	MANIFESTACIÓN ES ADEMÁS
-0.590531	MANTENER LA PRESIÓN
-1.588317	MANUAL DE TEORÍA
-0.886500	MECANISMOS COMPENSATORIOS SON
-0.908532	MEDICAMENTOS SI BIEN
-1.543900	MEDICINA EL DIAGNÓSTICO
-1.506770	MEDICINA SE RETARDA
-1.039860	MEDICINA TRATAMIENTO ES
-1.588317	MEDIOS DE CUALQUIER
-0.908532	MEJOR ESTE FENÓMENO
-1.068612	MEJORÍA AUNQUE SE
-1.201443	MEJORÍA COMO UNA
-0.820170	MENOR GRADO LA
-0.837279	MENOS COMÚN QUE
-1.497005	MERCURIO ES PATOLÓGICO
-0.958148	MONRO-KELLIE LA HIPÓTESIS
-0.908532	MONRO-KELLIELA RELACIÓN VOLUMEN-PRESIÓN
-0.793073	MORIBUNDA FALLEZCA </s>
-0.908532	MUCHO MENOS COMÚN
-0.908532	MUCHOS CASOS LLEGA
-1.343113	MUERTE Y SE
-0.861192	MUY ENGAÑOSA Y
-0.793073	MUY VARIADA </s>
-0.855090	MÁS ALLÁ O
-1.568478	MÁS LA MUERTE
-0.793073	MÁXIMO ADMISIBLE </s>
-0.861192	MÍNIMO EFICAZ Y
-1.402662	MÍSTICO-FILOSÓFICAS PARA EXPLICARLA
-0.908532	NIVEL MÁXIMO ADMISIBLE
-0.908532	NIVEL MÍNIMO EFICAZ
-0.906903	NO FALTAN HIPÓTESIS
-0.906903	NO OBSTANTE NO
-0.908532	NORMALES ANTE CAMBIOS
-0.859198	O DE LA
-0.540394	O DISMINUCIÓN DE
-1.543900	O EL ALIVIO
-0.855090	O INCLUSO A
-0.873662	O MÍSTICO-FILOSÓFICAS PARA
-1.402662	O PARA PREPARAR
-0.873662	O PREPARARSE PARA
-0.955806	O SÍNTOMAS </s>
-1.429796	O UN ÚLTIMO
-1.249163	OBESOS TAMBIEN SUELEN
-0.540394	OBSERVAR DISMINUCIÓN DE
-1.135977	OBSTANTE NO FALTAN
-0.906903	OTROS ANIMALES NO
-0.893064	OTROS DOS COMPONENTES
-0.908532	OTROS MEDICAMENTOS SI
-1.582305	PALIACIÓN DE LAS
-0.886500	PARA EXPLICARLA COMO
-0.861192	PARA INCREMENTAR LOS
-0.886500	PARA LLEVARLA AL
-0.583037	PARA LO QUE
-0.855090	PARA PREPARAR O
-0.855090	PARA VIVIR O
-1.027099	PARTE DE LOS
-1.324237	PARTE DEL LCR
-0.855090	PATOLÓGICO LLEVANDO A
-1.319166	PERFUSIÓN CEREBRAL CONOCIDO
-1.362648	PERFUSIÓN DEL TEJIDO
-1.068612	PERO POCO SE
-0.908532	PERSONA MORIBUNDA FALLEZCA
-1.468832	PERSONA O INCLUSO
-1.506770	POCO SE CONOCE
-0.908532	POCO TIEMPO ANTES
-0.880033	POR DEBAJO DEL
-1.278242	POR EL LCR
-0.935830	POR PARTE DE
-1.148030	POR PARTE DEL
-1.058815	POR SOBRE LOS
-0.906903	POSIBLE OBSERVAR DISMINUCIÓN
-1.468832	PREPARAR O PREPARARSE
-1.397601	PREPARARSE PARA LO
-1.249163	PRESENTAN OTROS ANIMALES
-1.582305	PRESIÓN DE PERFUSIÓN
-1.251931	PRESIÓN EN EL
-1.500477	PRESIÓN INTRACRANEAL DENTRO
-1.302298	PRESIÓN INTRACRANEAL ES
-1.224190	PRESIÓN INTRACRANEAL LA
-1.469581	PRESIÓN INTRACRANEAL POR
-0.873662	PRINCIPAL TAMPÓN PARA
-1.187545	PROCEDIMIENTO CON EL
-0.793073	PROCESO AGÓNICO </s>
-1.135977	PRODUCE POCO TIEMPO
-1.588317	PRÁCTICAS DE ETNOBOTÁNICA
-1.319166	PSEUDOGINECOMASTIA AL DESARROLLO
-0.499135	PSEUDOMEJORA QUE SE
-0.908532	PUEDE VALORAR MEJOR
-0.893064	QUE CONSIDERAN ESTA
-1.310360	QUE EL CRÁNEO
-0.855090	QUE HABER UNA
-0.906903	QUE INCLUYE LAS
-1.568478	QUE LA ANTERIOR
-1.858721	QUE SE GENERAN
-1.858721	QUE SE IDENTIFICA
-1.858721	QUE SE LE
-1.376075	QUE SE LLAMA
-1.858721	QUE SE LLEGUE
-1.858721	QUE SE PRODUCE
-0.855090	QUE SERÍA UNA
-1.074709	QUE TAMBIEN LA
-1.462943	QUE UNA PERSONA
-1.568478	QUIENES LA ATIENDEN
-0.906903	RANGO FISIOLÓGICO AUNQUE
-0.849071	RANGO TERAPEUTICO ES
-0.908532	RANGOS NORMALES ANTE
-1.452007	RECUPERACIÓN DE UN
-1.299814	REFERENCIA A UNA
-0.908532	RELACIÓN VOLUMEN-PRESIÓN ESTÁ
-1.468832	RELIGIOSAS O MÍSTICO-FILOSÓFICAS
-1.319166	RESPONDEN AL INCREMENTO
-0.995803	RETARDA MÁS LA
-1.258133	RÍGIDO CON UN
-1.479171	SABE QUE TAMBIEN
-1.310360	SANGRE EL TEJIDO
-0.836443	SANGRE LCR Y
-0.793073	SANGRE VENOSA </s>
-0.886500	SE COMPORTA COMO
-0.752954	SE CONOCE DE
-0.908532	SE GENERAN CUANDO
-0.855090	SE IDENTIFICA UNA
-0.908532	SE LE AVECINA
-1.202425	SE LLAMA GINECOMASTIA
-1.199226	SE LLAMA PSEUDOGINECOMASTIA
-0.855090	SE LLEGUE A
-0.906903	SE PRODUCE POCO
-0.908532	SE PUEDE VALORAR
-0.906903	SE RETARDA MÁS
-0.837279	SE SABE QUE
-1.468832	SERÍA UNA ÚLTIMA
-0.849071	SI BIEN ES
-0.855090	SIENDO CONSIDERADA UNA
-1.497005	SITUACIÓN ES MUCHO
-1.496319	SOBRE LOS 15MMG
-0.855090	SOBRE TODO A
-1.462943	SOMETIDOS A TRATAMIENTO
-0.752954	SON CAPACES DE
-1.367315	SON CON FRECUENCIA
-1.278242	SON EL LCR
-0.855090	SON SOMETIDOS A
-0.955806	SU INTERIOR </s>
-0.849071	SU MANIFESTACIÓN ES
-1.049234	SUELEN DESARROLLAR UNA
-1.249163	SUS COMPONENTES INTERNOS
-1.249283	SÍNTOMAS SON CON
-1.568478	TAMBIEN LA PRESENTAN
-0.908532	TAMBIEN POSIBLE OBSERVAR
-0.906903	TAMBIEN SUELEN DESARROLLAR
-0.886500	TAMPONES RESPONDEN AL
-1.402662	TAMPÓN PARA INCREMENTAR
-1.466943	TEJIDO CEREBRAL CREAN
-1.466943	TEJIDO CEREBRAL SIENDO
-1.315691	TEJIDO CEREBRAL Y
-1.470408	TEORÍA Y PRÁCTICAS
-1.361454	TERAPEUTICO ES UN
-0.906903	TERMINALES PERO POCO
-0.908532	TERMINO HACE REFERENCIA
-0.752954	TIEMPO ANTES DE
-1.523468	TIENE QUE HABER
-1.317024	TODO A LOS
-1.588317	TOMA DE ENERGÍA
-1.367315	TRATAMIENTO CON ESTRÓGENOS
-1.078039	TRATAMIENTO ES EL
-1.249163	TRES COMPONENTES TIENE
-1.249163	U OTROS MEDICAMENTOS
-1.049234	UN AUMENTO O
-0.908532	UN COMPARTIMENTO RÍGIDO
-0.908532	UN CONCEPTO EMPLEADO
-0.886500	UN DESPLAZAMIENTO POR
-0.908532	UN PROCESO AGÓNICO
-1.319166	UN VOLUMEN FIJO
-0.908532	UN ÚLTIMO INTENTO
-0.886500	UNA COMPENSACIÓN POR
-0.908532	UNA EMERGENCIA MEDICA
-0.793073	UNA ENFERMEDAD </s>
-0.752954	UNA ESPECIE DE
-1.135977	UNA PERSONA MORIBUNDA
-0.955806	UNA PSEUDOGINECOMASTIA </s>
-0.837279	UNA PSEUDOMEJORA QUE
-0.752954	UNA RECUPERACIÓN DE
-0.908532	UNA ÚLTIMA TOMA
-1.027099	UNO DE LOS
-0.908532	VALORAR MEJOR ESTE
-0.893064	VARONES OBESOS TAMBIEN
-1.263312	VARONES Y QUE
-0.906903	VERDADERAS MAMAS LO
-1.353637	VIVIR O PARA
-1.588317	VOLUMEN DE UNO
-0.867382	VOLUMEN EXISTIENDO UN
-0.855090	VOLUMEN FIJO A
-0.855090	VOLUMEN INFERIORES A
-0.908532	VOLUMEN-PRESIÓN ESTÁ DETERMINADA
-1.155126	VOLÚMENES SON EL
-1.418737	Y EL NIVEL
-1.413819	Y EL TEJIDO
-1.627047	Y EN MENOR
-1.627047	Y EN MUCHOS
-0.590531	Y LA PRESIÓN
-0.752954	Y PRÁCTICAS DE
-0.499135	Y QUE SE
-1.506770	Y SE PUEDE
-0.893064	Y SUS COMPONENTES
-1.523468	YA QUE CONSIDERAN
-0.752954	ÚLTIMA TOMA DE
-0.880033	ÚLTIMO INTENTO DEL

\end\
